{
  "hiddenActivationType": "RecLinear",
  "hiddenLayers": [
    {
      "biasWeights": [
        -0.01758166216313839,
        0.011654789559543133,
        -0.03832070156931877,
        -0.021520202979445457,
        0.02330687642097473,
        -0.07521730661392212,
        -0.04483576491475105,
        0.0007387162768281996,
        0.001516733318567276,
        0.02568863332271576,
        -0.041830770671367645,
        0.025810817256569862,
        0.011875662952661514,
        -0.015221785753965378,
        -0.06262346357107162,
        0.012043947353959084,
        0.019861631095409393,
        0.005807883106172085,
        -0.04378823935985565,
        0.013570249080657959,
        0.048408862203359604,
        -0.05947188287973404,
        -0.013744983822107315,
        0.016635961830615997,
        -0.042250216007232666,
        0.008201736025512218,
        0.007111376617103815,
        0.0250990092754364,
        0.023901978507637978,
        -0.04716191068291664,
        0.015913842245936394,
        0.04073319584131241,
        -0.012823125347495079,
        0.023670827969908714,
        -0.04976794496178627,
        0.010451572015881538,
        -0.03415708616375923,
        0.024352459236979485,
        0.017133384943008423,
        0.0286233089864254,
        0.01529080793261528,
        -0.09511211514472961,
        0.0031879718881100416,
        0.00022892619017511606,
        -0.023491062223911285,
        0.025094913318753242,
        0.012088555842638016,
        0.029739608988165855,
        -0.015523296780884266,
        -0.0573544055223465,
        0.01379200629889965,
        0.032607704401016235,
        0.0038083347026258707,
        0.003947336692363024,
        0.025407373905181885,
        -0.01601698249578476,
        0.001949909026734531,
        -0.005129016004502773,
        -0.007684641517698765,
        0.03114449977874756,
        0.019700441509485245,
        -0.11980310082435608,
        0.04071076214313507,
        0.022307001054286957,
        0.00769037427380681,
        0.004983695223927498,
        -0.009068306535482407,
        0.025417888537049294,
        -0.008480808697640896,
        0.021037083119153976,
        0.024596817791461945,
        -0.03687954321503639,
        -0.06615304201841354,
        0.015936437994241714,
        0.003807577071711421,
        -0.08271148055791855,
        -0.033517204225063324,
        0.024269381538033485,
        0.011457914486527443,
        -0.0848078578710556,
        -0.03963341936469078,
        0.02405005879700184,
        -0.050458431243896484,
        0.02491363324224949,
        -0.029860829934477806,
        0.02531048096716404,
        0.01496895682066679,
        0.014003448188304901,
        -0.0026056459173560143,
        -0.004251704551279545,
        -0.003971017897129059,
        0.0032071012537926435,
        0.037504419684410095,
        0.01709165796637535,
        0.046872515231370926,
        0.01880999282002449,
        -0.01934988424181938,
        -0.07984115928411484,
        0.0021567302756011486,
        0.00984047818928957,
        0.008923654444515705,
        -0.0292274821549654,
        -0.020819924771785736,
        -0.07517462223768234,
        -0.0481291338801384,
        -0.06950011849403381,
        0.03181174769997597,
        -0.031808897852897644,
        -0.007836396805942059,
        0.010164397768676281,
        0.016369732096791267,
        -0.06475827842950821,
        0.024589411914348602,
        0.012606185860931873,
        -0.012198390439152718,
        -0.018513226881623268,
        -0.03216182813048363,
        0.011293627321720123,
        0.023075778037309647,
        0.0036796312779188156,
        0.018797896802425385,
        0.02368742786347866,
        0.024478811770677567,
        0.023019185289740562,
        0.001201370032504201,
        -0.043036628514528275,
        -0.0362112857401371,
        -0.0247208084911108,
        0.014004401862621307,
        -0.01208607666194439,
        0.03985115885734558,
        0.017166322097182274,
        -0.063260518014431,
        0.03581593185663223,
        -0.012114831246435642,
        0.01004206296056509,
        0.005261599086225033,
        -0.08877493441104889,
        0.020161014050245285,
        0.026828138157725334,
        -0.06754553318023682,
        0.015016880817711353,
        -0.0011425450211390853,
        0.022728729993104935,
        -0.02134544402360916,
        0.01733887381851673,
        -0.0005809771828353405,
        0.023742781952023506,
        0.018962979316711426,
        0.009880145080387592,
        -0.060171667486429214,
        0.014511989429593086,
        -0.0333908274769783,
        -0.012834017165005207,
        -0.06170369312167168,
        -0.022392267361283302,
        -0.050141576677560806,
        0.024828799068927765,
        -0.05630007013678551,
        -0.0092095248401165,
        0.006171047687530518,
        0.03427574783563614,
        0.0324837900698185,
        0.0229954794049263,
        -0.08510109037160873,
        -0.0580972321331501,
        0.002840199274942279,
        -0.04385926574468613,
        -0.025276359170675278,
        0.005607119295746088,
        -0.0402148999273777,
        -0.010651983320713043,
        -0.02442339062690735,
        -0.038778576999902725,
        -0.05524182692170143,
        0.043905649334192276,
        -0.026520567014813423,
        -0.04025271162390709,
        0.007589834742248058,
        -0.02774626575410366,
        0.011857746168971062,
        -0.03304204344749451,
        0.01426544226706028,
        -0.011968551203608513,
        0.0258451197296381,
        -0.029509054496884346,
        -0.05188071355223656,
        0.023446017876267433,
        0.020937876775860786,
        0.01244173850864172,
        0.019801178947091103,
        -0.001654194202274084,
        0.0009116333676502109,
        -0.027732500806450844,
        -0.03862840682268143,
        -0.006455924827605486,
        -0.005144874099642038,
        -0.07274965196847916,
        0.02669246681034565,
        -0.04073754698038101,
        -0.08983276039361954,
        0.011268127709627151,
        0.008520888164639473,
        0.024209292605519295,
        0.014807448722422123,
        -0.013089762069284916,
        -0.06665833294391632,
        -0.008913709782063961,
        0.00962195172905922,
        0.03221496567130089,
        -0.032791513949632645,
        0.024186840280890465,
        0.01440870575606823,
        0.02369651198387146,
        -0.01621021330356598,
        0.01915057748556137,
        -0.006675338838249445,
        -0.009479224681854248,
        0.001345643075183034,
        -0.04570639505982399,
        0.021203195676207542,
        -0.031082766130566597,
        0.019753891974687576,
        0.019167575985193253,
        0.011489510536193848,
        0.00645880401134491,
        0.024968450888991356,
        0.04750579595565796,
        -0.04494434967637062,
        -0.0614226758480072,
        0.018701529130339622,
        0.02093702182173729,
        -0.04664880782365799,
        -0.06489710509777069,
        -0.04754016548395157,
        0.0008174407412298024,
        -0.0013269673800095916,
        0.010047336108982563,
        0.017413221299648285,
        0.001331361010670662,
        -0.004674833733588457,
        0.004399339202791452,
        -0.037824708968400955,
        0.02473205327987671,
        0.015464386902749538,
        -0.011112768203020096,
        0.023442834615707397,
        -0.07264614850282669,
        0.011910226196050644,
        0.018023600801825523,
        -0.07796517014503479,
        0.02234024554491043,
        -0.10699575394392014,
        -0.04057406261563301,
        -0.03912067785859108,
        -0.07338693737983704,
        0.011176945641636848,
        -0.013107589446008205,
        0.03784182295203209,
        -0.044541239738464355,
        -0.009879411198198795,
        -0.0036372088361531496,
        0.003991459961980581,
        0.04924884811043739,
        0.020676404237747192,
        0.022221922874450684,
        -0.030109139159321785,
        -0.09160199016332626,
        0.017732759937644005,
        0.021234076470136642
      ],
      "weights": [
        0.008350515738129616,
        -0.0006289667217060924,
        0.0021819714456796646,
        -0.0016788201173767447,
        0.0004403924394864589,
        0.002735205926001072,
        0.0019080342026427388,
        -0.0009545818320475519,
        0.008947966620326042,
        -0.001122817862778902,
        0.0011712460545822978,
        0.0022862982004880905,
        0.006241464987397194,
        0.004424249287694693,
        0.004036290571093559,
        -0.0008423681138083339,
        0.001990760210901499,
        -0.00043791395728476346,
        0.005308658815920353,
        0.001974246697500348,
        0.0004291734949219972,
        0.0023695388808846474,
        0.0013672960922122002,
        -7.617753726663068e-05,
        -0.0026405868120491505,
        -0.0001048902704496868,
        0.00980096124112606,
        -0.0018009652849286795,
        0.0007989997393451631,
        -0.0013274819357320666,
        0.0010638019302859902,
        0.006619264371693134,
        -0.0015178602188825607,
        0.0009755559149198234,
        0.00949668325483799,
        0.007748749572783709,
        0.00455037085339427,
        -0.00042292679427191615,
        0.0009288577712140977,
        0.0014147734036669135,
        -0.001278372947126627,
        0.0017151233041658998,
        0.0009240192594006658,
        0.008571501821279526,
        -0.0014869376318529248,
        0.0017699358286336064,
        0.003269823733717203,
        0.0007989013683982193,
        -0.0014822838129475713,
        0.0038509774021804333,
        -0.0007889665430411696,
        0.0078095025382936,
        0.010885726660490036,
        -0.002001218730583787,
        0.0026859985664486885,
        0.006366622168570757,
        -0.001382738584652543,
        0.0018295991467311978,
        0.00922172050923109,
        0.0006663461681455374,
        0.0011603027814999223,
        0.0010528358398005366,
        0.006565220188349485,
        0.0016714123776182532,
        -0.0011402519885450602,
        0.0006816981476731598,
        0.009407326579093933,
        0.0015118444571271539,
        0.005563347600400448,
        0.0020634098909795284,
        0.0007936797337606549,
        -0.0004127681895624846,
        -0.0027668362017720938,
        0.002027961192652583,
        0.0002933666983153671,
        0.0036275661550462246,
        0.007690041325986385,
        0.00717112747952342,
        0.0008468850282952189,
        0.003342611016705632,
        -0.0018950748490169644,
        -0.0012938088038936257,
        0.0013769489014521241,
        0.001589366002008319,
        0.002858810592442751,
        0.006562798283994198,
        0.009763375855982304,
        0.00044593584607355297,
        -0.0007789271767251194,
        0.004306805320084095,
        0.007119716610759497,
        -0.0011553405784070492,
        0.0017620399594306946,
        0.0009149753022938967,
        0.006323734764009714,
        0.009863467887043953,
        0.005878375377506018,
        0.004656150937080383,
        0.00022346463811118156,
        0.006482069846242666,
        -0.004040452651679516,
        0.008765283040702343,
        -0.0006759532843716443,
        0.0006645112880505621,
        0.015254095196723938,
        0.002136967843398452,
        0.0036598811857402325,
        0.0011301239719614387,
        0.009471969678997993,
        -0.0007490214193239808,
        0.0017216355772688985,
        0.01268819160759449,
        0.001854065340012312,
        -0.004150543361902237,
        0.010030842386186123,
        0.0016049997648224235,
        -0.0003011413209605962,
        0.0018604694632813334,
        0.0019916060846298933,
        0.009949034079909325,
        0.0008200265001505613,
        -0.00018876131798606366,
        0.0021848001051694155,
        -0.0006641143118031323,
        1.1708762031048536e-06,
        -0.001451498013921082,
        -0.004261700436472893,
        -0.0026034261099994183,
        0.0014626889023929834,
        -0.0014710499672219157,
        0.0070152729749679565,
        -0.0001724947360344231,
        0.007179272826761007,
        0.0025452203117311,
        0.007424888666719198,
        -0.00044771379907615483,
        -0.0016259554540738463,
        0.0018996897852048278,
        0.0008700597682036459,
        -0.0009219639468938112,
        0.010989226400852203,
        -0.0006674702744930983,
        0.003910089377313852,
        0.0018809431931003928,
        0.009750977158546448,
        -0.0007111837039701641,
        0.0007414445863105357,
        0.0010184322018176317,
        0.00022099372290540487,
        0.00044066301779821515,
        -0.0028152456507086754,
        0.00234242039732635,
        -0.0032260287553071976,
        -0.001046956516802311,
        0.0014393823221325874,
        0.0012951790122315288,
        0.0008115445962175727,
        0.000755985442083329,
        -0.00333634065464139,
        -0.0008150454377755523,
        0.012543048709630966,
        0.00035759335150942206,
        -0.00019601246458478272,
        0.0015175803564488888,
        0.010064895264804363,
        0.004808367229998112,
        0.005009189248085022,
        0.0017650492954999208,
        8.398346835747361e-05,
        -0.002437989693135023,
        -0.0016730835195630789,
        0.009312368929386139,
        0.007141234818845987,
        -0.000665724219288677,
        0.004123175982385874,
        0.0012562037445604801,
        0.001210857997648418,
        0.0015680972719565034,
        -0.0008218205766752362,
        -0.0014779057819396257,
        -0.0002398020587861538,
        0.0006094705895520747,
        -0.0010190451284870505,
        -0.0009778530802577734,
        -0.0005202380707487464,
        -0.0030396832153201103,
        0.006854023784399033,
        0.000913213356398046,
        0.008630375377833843,
        -0.0005499928956851363,
        0.0014036293141543865,
        0.005565322004258633,
        -0.0006389850750565529,
        0.008323431015014648,
        -0.0017311145784333348,
        0.0008029745658859611,
        0.0016181032406166196,
        -0.004807451739907265,
        0.0003010586660820991,
        -0.0004514583561103791,
        0.003262520069256425,
        6.96140923537314e-05,
        0.0018067933851853013,
        4.213355714455247e-05,
        0.007671895902603865,
        0.005160586442798376,
        0.01266853790730238,
        0.0022781342267990112,
        0.002717219525948167,
        0.006248180288821459,
        0.004789224825799465,
        0.0015731739113107324,
        0.0021025221794843674,
        -0.0005845722043886781,
        0.004281080327928066,
        0.0003870837390422821,
        0.0013860479230061173,
        0.005309064872562885,
        0.010261783376336098,
        -0.001490736030973494,
        0.0014875566121190786,
        0.005698526743799448,
        0.0006045065238140523,
        -0.0013435960281640291,
        -0.002513633109629154,
        0.009298850782215595,
        0.001201223349198699,
        0.008448472246527672,
        0.0007791948155499995,
        0.0038288659416139126,
        -4.543737304629758e-05,
        -0.00012383611465338618,
        0.005359203554689884,
        0.011446458287537098,
        0.009423129260540009,
        0.005969426594674587,
        0.008182065561413765,
        0.0016174056800082326,
        0.0006423600716516376,
        0.011796382255852222,
        0.003312285989522934,
        0.00992074329406023,
        0.01304932776838541,
        0.002169440034776926,
        0.0005393894389271736,
        -0.004015415906906128,
        0.000667996471747756,
        0.009089305996894836,
        -0.0007538020727224648,
        0.000525144743733108,
        -0.0016872681444510818,
        0.0037367360200732946,
        0.007296099327504635,
        0.006630029994994402,
        0.005988729186356068,
        0.006169601809233427,
        -0.0005428111180663109,
        -0.0007360738818533719,
        0.008427510038018227,
        0.014195105992257595,
        0.0002749853883869946,
        -0.0006833816296420991,
        0.0013982432428747416,
        0.010034997016191483,
        -0.0012825493467971683,
        0.007825161330401897,
        -0.002804249757900834,
        0.004244142211973667,
        -0.0013298708945512772,
        0.001179033424705267,
        0.012763475999236107,
        -0.0009713876061141491,
        0.002899209037423134,
        -0.005173182114958763,
        0.0026290554087609053,
        0.0014070282923057675,
        0.0011048588203266263,
        -0.004625082481652498,
        0.013852458447217941,
        0.0015931801171973348,
        -0.0037558653857558966,
        0.0009999247267842293,
        0.011263902299106121,
        0.0014810130232945085,
        0.0031421147286891937,
        -0.0005586963379755616,
        0.0013015931472182274,
        -0.0010738451965153217,
        0.005886039696633816,
        -1.4308057870948687e-05,
        0.003363307099789381,
        0.00010236974048893899,
        0.003986380994319916,
        0.000362262362614274,
        -0.0033630544785410166,
        -0.00017086468869820237,
        0.014198003336787224,
        -0.0031645388808101416,
        0.0002870156313292682,
        -0.0006353086209855974,
        -0.0002798617060761899,
        0.011753051541745663,
        -0.005236275494098663,
        0.0015848432667553425,
        0.010422264225780964,
        0.00982146617025137,
        0.00627483893185854,
        0.0007542973617091775,
        0.00020674716506619006,
        0.002326497109606862,
        -0.00018319993978366256,
        -0.0014872066676616669,
        0.000758881273213774,
        0.009659172035753727,
        -0.003968271426856518,
        0.000899427686817944,
        0.00437800120562315,
        0.0018762776162475348,
        -0.0065196785144507885,
        0.0050579276867210865,
        0.0005054415669292212,
        0.0073602041229605675,
        0.016598138958215714,
        -0.0025904723443090916,
        0.004314154852181673,
        0.010327212512493134,
        -0.0005569098284468055,
        0.0018367856973782182,
        0.009915756061673164,
        0.004672176204621792,
        -0.0002646454959176481,
        0.0005795280449092388,
        0.010454933159053326,
        -0.0006230460130609572,
        -0.000810213212389499,
        0.0004933099844492972,
        0.013378329575061798,
        1.7779413610696793e-05,
        0.007735967170447111,
        -0.00010660892439773306,
        -0.0014707469381392002,
        -0.0015954319387674332,
        -0.003113221377134323,
        -0.001739567844197154,
        0.0002702739438973367,
        0.0017529692267999053,
        0.01170852780342102,
        0.0089945737272501,
        -0.001250077853910625,
        0.0027088734786957502,
        -0.004847638309001923,
        -6.490154919447377e-05,
        -0.0016217449447140098,
        -0.0009762107511050999,
        0.0006373706855811179,
        0.01332187745720148,
        0.015692101791501045,
        0.0006814433727413416,
        0.001441862084902823,
        0.006873156875371933,
        0.012377731502056122,
        -0.002362640108913183,
        7.76586530264467e-05,
        0.0015245956601575017,
        0.010652594268321991,
        0.011523060500621796,
        0.008519752882421017,
        0.0035665107425302267,
        -0.0031584743410348892,
        0.010151354596018791,
        -0.008397088386118412,
        0.012092331424355507,
        -0.0008727764361537993,
        -0.003989670891314745,
        0.021038444712758064,
        0.0016026935772970319,
        0.0072403959929943085,
        0.00046346941962838173,
        0.013769724406301975,
        0.00037794632953591645,
        0.001905015087686479,
        0.017332343384623528,
        -0.00036723585799336433,
        -0.005552058573812246,
        0.012003900483250618,
        0.0019293454242870212,
        -0.0013162258546799421,
        -0.0014791830908507109,
        0.0017022425308823586,
        0.015081005170941353,
        0.0011792780132964253,
        -0.0008385638939216733,
        -0.0004710225621238351,
        0.00034215819323435426,
        0.0003830317873507738,
        -0.0063184755854308605,
        -0.005076633766293526,
        -0.0014535996597260237,
        -0.0006664323154836893,
        -0.0015594455180689692,
        0.010480865836143494,
        -0.0013042996870353818,
        0.007541324477642775,
        0.0023726811632514,
        0.007695337291806936,
        0.0004536935593932867,
        -0.006066573783755302,
        0.004584826994687319,
        -0.00116175867151469,
        0.0016841391334310174,
        0.012767132371664047,
        2.730576670728624e-05,
        0.005710647441446781,
        0.0006870604120194912,
        0.013813701458275318,
        -0.0006423477316275239,
        0.00137459603138268,
        0.002038069535046816,
        0.0013185656862333417,
        0.0002832345780916512,
        -0.003679014043882489,
        0.0038713193498551846,
        -0.004231511149555445,
        0.0011921884724870324,
        0.0006172381690703332,
        0.001533223781734705,
        0.002451663138344884,
        0.00017503913841210306,
        -0.004321562126278877,
        -0.0035453832242637873,
        0.016374127939343452,
        0.001146509195677936,
        -0.0015719939256086946,
        0.0006630689022131264,
        0.011697011068463326,
        0.004662944003939629,
        0.008925898931920528,
        0.002224336378276348,
        -0.002694970928132534,
        -0.005656917113810778,
        -0.006823436357080936,
        0.010898799635469913,
        0.012234394438564777,
        -0.00154786161147058,
        0.003021209966391325,
        0.00048627136857248843,
        0.001526801846921444,
        0.0007840599282644689,
        -0.0005991149810142815,
        -0.006596023682504892,
        -0.0010872561251744628,
        -0.0006106395740061998,
        0.00014509420725516975,
        -0.0014560207491740584,
        0.0014156484976410866,
        -0.00270316144451499,
        0.006766265723854303,
        -0.0009239818900823593,
        0.012707692570984364,
        -0.0013334460090845823,
        0.000493514584377408,
        0.004695371259003878,
        0.00034488801611587405,
        0.010371556505560875,
        -0.005759367253631353,
        0.0015484279720112681,
        0.0018463899614289403,
        -0.005686480551958084,
        0.0016403032932430506,
        -0.006210971157997847,
        0.0032223560847342014,
        0.0015413672663271427,
        -0.00046061392640694976,
        -0.0017069652676582336,
        0.013415433466434479,
        0.010852250270545483,
        0.01615193858742714,
        0.005723721347749233,
        0.002500007161870599,
        0.01025373488664627,
        0.0046022809110581875,
        2.463728014845401e-05,
        0.00016435672296211123,
        -0.00045603621401824057,
        0.0034418264403939247,
        -0.0012494579423218966,
        -0.0029673452954739332,
        0.006172234658151865,
        0.017420092597603798,
        -0.00213425699621439,
        0.0001253053778782487,
        0.005860581062734127,
        0.0002925963490270078,
        -0.001154978876002133,
        -0.0033276029862463474,
        0.013697019778192043,
        0.0003613819135352969,
        0.010825521312654018,
        0.00027836617664434016,
        0.0026118892710655928,
        -0.0017093366477638483,
        -0.001600578660145402,
        0.006921406369656324,
        0.011761551722884178,
        0.015382498502731323,
        0.009021233767271042,
        0.013504765927791595,
        0.001279272953979671,
        -0.0010358315194025636,
        0.01645142398774624,
        0.0016842649783939123,
        0.013780959881842136,
        0.017833128571510315,
        0.0046884240582585335,
        -0.0004589453455992043,
        -0.008223124779760838,
        0.00021511032537091523,
        0.01083336304873228,
        -0.0007967348210513592,
        -0.0013452741550281644,
        -0.0032990698236972094,
        0.004914097022265196,
        0.009808316826820374,
        0.007774744648486376,
        0.00968901813030243,
        0.009645705111324787,
        5.6214805226773024e-05,
        -0.003412218764424324,
        0.01234386209398508,
        0.019380435347557068,
        0.0011688470840454102,
        -0.0005255487048998475,
        0.0006262461538426578,
        0.012105938978493214,
        0.00039875679067336023,
        0.013238896615803242,
        -0.004890259355306625,
        0.004990481771528721,
        -0.0004358436563052237,
        0.00046699080849066377,
        0.0026930011808872223,
        -0.00016492510621901602,
        0.013429660350084305,
        0.009609329514205456,
        -0.0020730786491185427,
        0.015696609392762184,
        0.0007080903160385787,
        0.009498639032244682,
        -0.004423059523105621,
        -0.0015308965230360627,
        0.01084159780293703,
        -0.0006489359657280147,
        -0.004636785481125116,
        0.004482729826122522,
        0.006720695644617081,
        0.0003559837641660124,
        0.0011153186205774546,
        0.00035712431417778134,
        0.004714549519121647,
        -0.0019234713399782777,
        -0.0011292395647615194,
        0.013513907790184021,
        0.0040172250010073185,
        0.0004639471007976681,
        0.010115735232830048,
        -0.001964330207556486,
        -0.005693498998880386,
        0.005460910499095917,
        0.0012052793754264712,
        0.00838982593268156,
        0.0031619665678590536,
        -0.004632146563380957,
        0.008706209249794483,
        -0.0019734760280698538,
        0.004908610600978136,
        -0.001483010477386415,
        0.010999701917171478,
        -0.001102048670873046,
        -0.0009129451354965568,
        -4.311576776672155e-05,
        0.006494863424450159,
        0.017620019614696503,
        0.0035399184562265873,
        0.0023647190537303686,
        0.006948316935449839,
        -7.096750778146088e-06,
        -0.0025935599114745855,
        2.4085855329758488e-05,
        0.01045349333435297,
        0.007577414158731699,
        -0.0010350631782785058,
        -0.001437593251466751,
        -0.004303331021219492,
        0.008216006681323051,
        -0.0010867639211937785,
        -0.0005182161112315953,
        -0.0017486830474808812,
        0.0008854740299284458,
        6.79087097523734e-05,
        -0.0027016038075089455,
        -0.0015492095844820142,
        0.020232126116752625,
        -0.001639311551116407,
        0.0012009396450594068,
        -0.001012518652714789,
        0.0001229126355610788,
        -0.0025191535241901875,
        0.0014749177498742938,
        0.010338938795030117,
        0.0001400683104293421,
        -0.0008668949594721198,
        0.007353911176323891,
        0.013373144902288914,
        -0.0011396758491173387,
        0.009027764201164246,
        0.016664154827594757,
        0.003212908748537302,
        -0.001542959944345057,
        -0.0005191364325582981,
        0.01928022876381874,
        0.013822028413414955,
        0.0011247568763792515,
        0.005896977614611387,
        -0.0018796429503709078,
        0.006578052416443825,
        -0.0028021910693496466,
        -0.003244042629376054,
        -0.0007071118452586234,
        0.0026686135679483414,
        -0.0042682127095758915,
        -0.002443152479827404,
        0.007571185473352671,
        -0.0014758363831788301,
        0.0006291401805356145,
        -0.0015901746228337288,
        0.001304346020333469,
        -0.002781858202069998,
        0.01770636811852455,
        0.0072580319829285145,
        -0.003690324956551194,
        0.009221971966326237,
        -0.004966281820088625,
        0.00898773968219757,
        0.009545902721583843,
        0.0028256068471819162,
        0.010806375183165073,
        0.0005167822819203138,
        0.005027479026466608,
        -0.002209676895290613,
        0.00023355396115221083,
        0.00027077674167230725,
        0.006877583917230368,
        0.0009396773530170321,
        0.007563689257949591,
        0.0015110875247046351,
        0.0030249643605202436,
        0.004501106683164835,
        -0.0002939585247077048,
        -5.440977110993117e-05,
        -0.0021746514830738306,
        0.00035924132680520415,
        -0.00035416288301348686,
        0.00021908438066020608,
        0.0004394467396195978,
        -0.0005832265014760196,
        0.0145952133461833,
        0.0107591412961483,
        0.010512401349842548,
        -0.0015556872822344303,
        0.007401184178888798,
        -0.001634294749237597,
        -0.0020558431278914213,
        0.009561398066580296,
        0.0002834220649674535,
        -0.0005564741441048682,
        -7.39538372727111e-05,
        0.011430536396801472,
        0.0150899114087224,
        -0.0008771303691901267,
        -0.0006375493831001222,
        0.00711415521800518,
        -0.0015442194417119026,
        -0.0013821410248056054,
        -0.0014825171092525125,
        0.004212489817291498,
        0.0009454983519390225,
        0.0005891983164474368,
        0.001570685999467969,
        -0.0018153825076296926,
        0.0012479040306061506,
        0.009501426480710506,
        0.005003403406590223,
        0.013999538496136665,
        0.001841228106059134,
        0.011653045192360878,
        0.002499001333490014,
        0.008991392329335213,
        -0.0007146056741476059,
        0.011835412122309208,
        0.0021529835648834705,
        -0.0026121018454432487,
        5.2064166084164754e-05,
        0.00017148758342955261,
        -0.0014712524134665728,
        0.012130840681493282,
        0.01523927878588438,
        -0.002311263233423233,
        0.005263380240648985,
        0.003433509496971965,
        0.0105137899518013,
        0.005754861049354076,
        0.0003655148611869663,
        0.0005516136297956109,
        0.005028306506574154,
        0.006111247465014458,
        -0.0005772045697085559,
        0.008436235599219799,
        0.007855082862079144,
        0.0021481646690517664,
        0.009769970551133156,
        -0.00015845868620090187,
        0.01125949714332819,
        -0.0022467963863164186,
        0.0029858285561203957,
        -0.0020019416697323322,
        0.005331835709512234,
        0.0067893522791564465,
        -0.0007595932111144066,
        0.0009404110023751855,
        -0.0008227259386330843,
        -0.00025066081434488297,
        0.0011452818289399147,
        -0.0017675947165116668,
        -0.0005070074694231153,
        0.011216619051992893,
        7.157938671298325e-05,
        0.006597018335014582,
        0.016288485378026962,
        -0.0010692499345168471,
        0.006071436684578657,
        0.014484693296253681,
        0.0015115116257220507,
        0.0008509065373800695,
        0.0008964777807705104,
        -0.003054788801819086,
        -0.0024563600309193134,
        0.00835978239774704,
        0.0029964295681566,
        0.0013635666109621525,
        -0.0030750788282603025,
        0.008547660894691944,
        0.0001751856761984527,
        0.0016534199239686131,
        0.00034288238384760916,
        0.0005871548200957477,
        0.0007657608366571367,
        0.008308010175824165,
        -0.00012454450188670307,
        -0.002930242568254471,
        0.016159934923052788,
        -0.0004383054038044065,
        0.005182740744203329,
        0.0016312410589307547,
        -8.633302059024572e-05,
        0.002032957738265395,
        -0.0017955226358026266,
        -0.0011408522259443998,
        -0.002547233598306775,
        0.011901251040399075,
        0.01016251090914011,
        -0.0013110393192619085,
        0.0007268384215421975,
        0.006637450773268938,
        0.00936585571616888,
        0.007070476654917002,
        -0.0001963098329724744,
        -0.002478157402947545,
        -0.0018525486811995506,
        0.0004124406259506941,
        0.0035344429779797792,
        0.002751898020505905,
        -0.0016028286190703511,
        0.0021105415653437376,
        0.0012842828873544931,
        -0.0002805757103487849,
        0.007236457895487547,
        -0.0017343545332551003,
        0.01141741406172514,
        -0.001328859943896532,
        3.0345909181050956e-05,
        0.014933627098798752,
        -1.2283874639251735e-05,
        0.01242055930197239,
        0.007174922619014978,
        0.005751088727265596,
        0.019603904336690903,
        -0.0018430919153615832,
        0.010720543563365936,
        -0.003607276827096939,
        -0.0006826434400863945,
        0.0002796031767502427,
        0.00043302879203110933,
        0.0007815200369805098,
        -0.004430627450346947,
        0.0002483771531842649,
        -0.0031535865273326635,
        0.011684932745993137,
        0.01824859157204628,
        0.001369429286569357,
        0.0009721212554723024,
        0.0022539107594639063,
        0.0006746263243257999,
        0.011434675194323063,
        0.0042821262031793594,
        -0.001348785706795752,
        0.012382607907056808,
        0.0018574075074866414,
        0.006404569838196039,
        -0.00351248518563807,
        -0.0009895841358229518,
        0.009468832053244114,
        -0.000301940250210464,
        -0.0016407482326030731,
        0.004411795176565647,
        0.0052739959210157394,
        0.0012811369961127639,
        -0.001019346877001226,
        -0.0013567345449700952,
        0.006479091942310333,
        -0.0005062154959887266,
        0.0009223751840181649,
        0.00956543255597353,
        0.002703819191083312,
        0.0004349082300905138,
        0.006414448842406273,
        -0.0008983395528048277,
        -0.001201441278681159,
        0.003908238373696804,
        -0.0005794555181637406,
        0.005256508942693472,
        0.003206988563761115,
        0.00037160798092372715,
        0.004259733948856592,
        -0.001441545900888741,
        0.005688839592039585,
        -0.0007537896162830293,
        0.010483978316187859,
        0.0005487260641530156,
        -2.416192728560418e-05,
        -0.00038871754077263176,
        0.004799105226993561,
        0.012559161521494389,
        0.003821507329121232,
        0.0031411428935825825,
        0.004999809432774782,
        -0.0009651616564951837,
        0.0005085464217700064,
        -7.828183879610151e-05,
        0.005375888664275408,
        0.006876297760754824,
        -0.0005291857523843646,
        -0.0016055635642260313,
        -0.0021000730339437723,
        0.003920175600796938,
        0.001984336180612445,
        0.0021852217614650726,
        0.0007234436925500631,
        0.0008460251265205443,
        -0.0002465260913595557,
        0.0012050343211740255,
        0.001749833463691175,
        0.015493784099817276,
        -0.0017615599790588021,
        -0.0006910169031471014,
        0.0016048302641138434,
        -0.0019294613739475608,
        -0.001106677926145494,
        0.0009113588603213429,
        0.008329920470714569,
        -0.0005713156424462795,
        0.0006959642050787807,
        0.003974345047026873,
        0.010153407230973244,
        -0.0009048344800248742,
        0.007394735235720873,
        0.013727782294154167,
        0.005344817880541086,
        -0.000931583228521049,
        -0.00019341558800078928,
        0.0160838570445776,
        0.009445278905332088,
        -0.00025226298021152616,
        0.004377690143883228,
        -0.0001365108328172937,
        0.004720279481261969,
        -0.0026854004245251417,
        -0.0028779609128832817,
        -0.0004123126564081758,
        0.0027027784381061792,
        -0.002971389563754201,
        -0.0013225744478404522,
        0.004493805579841137,
        0.0022316244430840015,
        0.00023218961723614484,
        -0.0010290212230756879,
        -4.622995766112581e-05,
        8.817400521365926e-05,
        0.013338123448193073,
        0.005006480496376753,
        -0.0005221563042141497,
        0.0090503403916955,
        -0.0021944690961390734,
        0.0038153750356286764,
        0.008470426313579082,
        0.005232364404946566,
        0.00813634879887104,
        0.0020618189591914415,
        0.0019457211019471288,
        0.0011304460931569338,
        -0.0017296045552939177,
        -0.0009843702428042889,
        0.0047971755266189575,
        0.001361452043056488,
        0.0028981193900108337,
        0.0012654289603233337,
        0.001193057163618505,
        0.00537483673542738,
        0.0012625778326764703,
        0.0006064744084142148,
        -0.00023496685025747865,
        -7.077226473484188e-05,
        -0.0002968331682495773,
        0.000790600897744298,
        -0.0010642686393111944,
        -1.3850854884367436e-05,
        0.010419928468763828,
        0.008721292950212955,
        0.009036513045430183,
        0.0015799792017787695,
        0.005712904967367649,
        -0.0014740178594365716,
        3.1260206014849246e-05,
        0.005043100565671921,
        0.0018644450465217233,
        0.0012545590288937092,
        0.000612089759670198,
        0.006325908936560154,
        0.012081055901944637,
        0.0009839690756052732,
        -0.0007045337115414441,
        0.007357412483543158,
        0.0019431039690971375,
        0.0010068395640701056,
        0.0016589427832514048,
        0.00513821467757225,
        0.0010962514206767082,
        0.0009068157523870468,
        -2.70270393230021e-05,
        0.0009452732629142702,
        -0.0006788212922401726,
        0.006161942612379789,
        0.004000209737569094,
        0.008850885555148125,
        0.0019754786044359207,
        0.00834800023585558,
        0.0032032274175435305,
        0.0050313426181674,
        0.0005434327176772058,
        0.010200963355600834,
        0.002752528293058276,
        0.00034221928217448294,
        0.0005239041638560593,
        0.0021844180300831795,
        -0.0008530914201401174,
        0.010112575255334377,
        0.01265149936079979,
        -4.079933205503039e-05,
        0.003813668852671981,
        0.0016632501501590014,
        0.005795316770672798,
        0.005909152794629335,
        0.000370795838534832,
        0.0033545561600476503,
        0.00523513276129961,
        0.004688093904405832,
        0.00046987473615445197,
        0.0041909292340278625,
        0.007239567581564188,
        0.0005271243862807751,
        0.00830893125385046,
        -0.0012935885461047292,
        0.006922290660440922,
        0.0010442542843520641,
        0.001833746093325317,
        0.0010024552466347814,
        0.005673595238476992,
        0.008061084896326065,
        -0.0016171346651390195,
        0.0018115810817107558,
        -0.0006081570754759014,
        7.62388517614454e-05,
        0.0019579879008233547,
        0.0009531720425002277,
        0.0031297134701162577,
        0.0054443152621388435,
        -0.0011945225996896625,
        0.004519427195191383,
        0.011725013144314289,
        0.00026617859839461744,
        0.003957473207265139,
        0.011442418210208416,
        -0.0008479029056616127,
        0.0008886956493370235,
        0.000544545182492584,
        -0.001062267692759633,
        -4.4709180656354874e-05,
        0.006359012331813574,
        0.0026682927273213863,
        0.002231962513178587,
        0.0004745704063680023,
        0.0058759949170053005,
        -0.0012754935305565596,
        0.0019999786745756865,
        -0.0006772285560145974,
        -0.001157323713414371,
        0.00023263093316927552,
        0.005850842222571373,
        0.0011166326003149152,
        -0.002117815427482128,
        0.013387233018875122,
        0.0010568846482783556,
        0.0030152464751154184,
        0.0019006644142791629,
        0.0014815437607467175,
        0.00179950927849859,
        0.0003952272527385503,
        -0.00010054373706225306,
        0.0008921365370042622,
        0.011727100238204002,
        0.0053771985694766045,
        0.0016946654068306088,
        -0.0008887962903827429,
        0.003641661023721099,
        0.007183759938925505,
        0.006097440607845783,
        0.0009915822884067893,
        0.001478774705901742,
        -0.0004934880998916924,
        0.000770377111621201,
        0.004969627130776644,
        0.0008304709917865694,
        -0.0002297698229085654,
        0.0018493288662284613,
        0.0009175620507448912,
        0.0006828505429439247,
        0.005938081070780754,
        0.0005916308728046715,
        0.009978716261684895,
        0.0002630074741318822,
        -0.0016260773409157991,
        0.012600082904100418,
        -0.00015699813957326114,
        0.01209596823900938,
        0.006661941297352314,
        0.006211608182638884,
        0.01721634529531002,
        -0.0006244729156605899,
        0.0065795984119176865,
        -0.0009573520510457456,
        0.0027604647912085056,
        0.00043015615665353835,
        0.0015553026460111141,
        0.0015176765155047178,
        -0.0014031024184077978,
        0.0016208833549171686,
        -0.0007242094143293798,
        0.007850429974496365,
        0.01439354382455349,
        0.001059344969689846,
        0.0007915162132121623,
        0.006818942725658417,
        0.0018652521539479494,
        0.00490857008844614,
        0.00033234001602977514,
        -4.023380097351037e-05,
        0.006670835427939892,
        0.00123324035666883,
        0.0015095645794644952,
        0.003248883644118905,
        0.0019212770275771618,
        0.003273905487731099,
        -0.00047202486894093454,
        0.003246001899242401,
        0.0012425872264429927,
        0.003353511681780219,
        0.0005013060290366411,
        0.0008066394366323948,
        -0.0011787248076871037,
        0.00538404518738389,
        -0.001240368583239615,
        0.00024172785924747586,
        0.006691167131066322,
        0.000923495797906071,
        0.0011104244040325284,
        0.0009125839569605887,
        0.0020094893407076597,
        0.0020932562183588743,
        0.002582032699137926,
        0.001092336606234312,
        0.001575577654875815,
        0.0014311755076050758,
        0.0027698425110429525,
        0.0026912097819149494,
        0.0005957594839856029,
        0.0087607242166996,
        0.0027988282963633537,
        0.006245071068406105,
        0.0012535519199445844,
        0.0017159307608380914,
        0.0016332375817000866,
        0.0010097332997247577,
        0.005737156607210636,
        0.0006353069329634309,
        0.00614536227658391,
        0.0025191660970449448,
        0.0008386826375499368,
        0.0025697099044919014,
        0.001320565934292972,
        0.0027925947215408087,
        0.005851512309163809,
        0.001541206263937056,
        0.0034912601113319397,
        0.003367622150108218,
        0.001215655356645584,
        0.0012617773609235883,
        0.003096308559179306,
        0.000426578801125288,
        0.002163088181987405,
        0.003538745455443859,
        0.0026760315522551537,
        0.0008588263881392777,
        0.00652181776240468,
        0.002594670047983527,
        0.001459317049011588,
        0.0006102729821577668,
        -0.0011686587240546942,
        0.007416087668389082,
        0.0020351510029286146,
        0.004628345370292664,
        0.0016893091378733516,
        0.0015100222080945969,
        0.0008412745664827526,
        0.0036586669739335775,
        0.00024969305377453566,
        0.002811918966472149,
        0.0060906922444701195,
        0.007997621782124043,
        0.003101540729403496,
        6.390934140654281e-05,
        0.009359288029372692,
        0.001514939940534532,
        0.0010214740177616477,
        0.0012243568198755383,
        0.0015304184053093195,
        0.004817703273147345,
        0.002727105049416423,
        0.00319365831092,
        0.0010356241837143898,
        0.0012281558010727167,
        0.0008047162555158138,
        0.005850772373378277,
        0.003355100518092513,
        0.001517565455287695,
        0.00021942872263025492,
        0.0033025392331182957,
        0.006507909391075373,
        0.0037350698839873075,
        0.0062560164369642735,
        0.0007312126690521836,
        0.0019287839531898499,
        0.0002453425549902022,
        0.0023781275376677513,
        0.004615901969373226,
        0.00434997258707881,
        0.00855945236980915,
        0.006500233896076679,
        0.004242294933646917,
        0.0007388056837953627,
        0.007194461300969124,
        -0.00024899348500184715,
        0.0012891937512904406,
        0.008994737640023232,
        0.0005305721424520016,
        0.0006069073569960892,
        0.006353331264108419,
        0.0008646202040836215,
        0.0037241503596305847,
        0.0006024165777489543,
        0.0023041446693241596,
        0.004696686752140522,
        -0.000275618105661124,
        0.001079467125236988,
        0.001034835702739656,
        0.00011887546861544251,
        -0.0005121937138028443,
        0.0034476914443075657,
        0.0005359694478102028,
        0.004325831774622202,
        0.0017762184143066406,
        0.0034229778684675694,
        0.0025646379217505455,
        -0.0012023577000945807,
        0.006180343218147755,
        0.003487808397039771,
        0.002112265210598707,
        -0.0001994545164052397,
        0.0036603608168661594,
        0.00599148403853178,
        0.002111193723976612,
        0.00026382372016087174,
        0.006159910466521978,
        -0.001340388087555766,
        0.001406592084094882,
        0.0018283664248883724,
        0.007714128587394953,
        0.00048144871834665537,
        0.000527567695826292,
        0.0014722367050126195,
        0.001162553089670837,
        -4.349913797341287e-05,
        0.0005331183201633394,
        0.004892823286354542,
        0.0018582410411909223,
        -0.00030739305657334626,
        0.0026056114584207535,
        0.002104867482557893,
        0.005353427026420832,
        0.0006723037222400308,
        0.001878294162452221,
        -0.0005584051832556725,
        0.006215141620486975,
        0.0026694871485233307,
        -0.001047070138156414,
        -9.129592217504978e-05,
        0.010408722795546055,
        0.006658683996647596,
        0.001992457080632448,
        0.005466953851282597,
        -0.000740802672225982,
        -0.00020261015743017197,
        -0.0005495809600688517,
        0.0037804865278303623,
        0.005521292332559824,
        0.0003041773452423513,
        0.004868343472480774,
        0.00031206465791910887,
        0.004907515831291676,
        0.0051148501224815845,
        0.0012763027334585786,
        0.002849818905815482,
        0.0018807280575856566,
        0.0053147017024457455,
        0.0007283856393769383,
        0.001256089424714446,
        -0.0008954963413998485,
        -0.00046105202636681497,
        0.0066895922645926476,
        0.0017511316109448671,
        0.00505425687879324,
        0.0008004842093214393,
        0.00011240442108828574,
        0.002681043930351734,
        -0.001372415921650827,
        0.004393408540636301,
        0.001620540046133101,
        0.0019049202091991901,
        0.004863306414335966,
        0.004844709299504757,
        -1.104686816688627e-05,
        0.00030078415875323117,
        0.005901593714952469,
        0.0003887165221385658,
        -0.0011340681230649352,
        -0.0003281496465206146,
        0.005105958320200443,
        0.004621413536369801,
        0.008655887097120285,
        0.0022625322453677654,
        0.001874785521067679,
        0.003484858898445964,
        0.007305609993636608,
        0.0006888832431286573,
        0.0006575165316462517,
        -0.0008117254474200308,
        0.0027436737436801195,
        0.000766715151257813,
        0.0013287791516631842,
        0.0023083111736923456,
        0.0038672355003654957,
        0.006086906883865595,
        -0.0011805682443082333,
        0.0027430993504822254,
        0.001998191699385643,
        0.0008199030999094248,
        -0.0005594339454546571,
        0.006676786113530397,
        -7.431086851283908e-05,
        0.00439577829092741,
        0.0030968007631599903,
        0.005012808367609978,
        4.96226130053401e-05,
        -0.0005654142587445676,
        0.0035116083454340696,
        0.006603929679840803,
        0.009326116181910038,
        0.0027954839169979095,
        0.005300747696310282,
        0.0007222809363156557,
        0.0011320762569084764,
        0.0075964308343827724,
        0.0035761434119194746,
        0.005321473814547062,
        0.008915616199374199,
        0.004062627907842398,
        0.0012374643702059984,
        -0.0006158155156299472,
        -0.0005726287490688264,
        0.00740419328212738,
        -6.125056825112551e-05,
        -0.00032519083470106125,
        0.003213464515283704,
        0.0017926411237567663,
        0.008704368956387043,
        0.005689885001629591,
        0.007848024368286133,
        0.011633058078587055,
        1.5002515283413231e-05,
        0.002701698336750269,
        0.004691104404628277,
        0.009197145700454712,
        0.0014636212727054954,
        0.0008087850292213261,
        -0.00086854153778404,
        0.004645218141376972,
        0.0005612368113361299,
        0.002256204141303897,
        0.0030322333332151175,
        0.009364836849272251,
        0.0013251352356746793,
        -0.0009197183535434306,
        0.007556973025202751,
        -0.0016000118339434266,
        0.0015646193642169237,
        -0.0014231225941330194,
        0.0003320999094285071,
        0.0039314464665949345,
        0.002458916511386633,
        -0.0037872428074479103,
        0.010413581505417824,
        -0.0014557346003130078,
        0.0006255129701457918,
        0.00011085256119258702,
        0.006176179274916649,
        0.004490386229008436,
        0.0022163710091263056,
        -0.0013793973485007882,
        0.0014893559273332357,
        -0.0009048160864040256,
        0.007041728589683771,
        0.001868993160314858,
        0.0026951206382364035,
        -0.00040928140515461564,
        0.0026051243767142296,
        -0.0006940896855667233,
        -0.0033168254885822535,
        0.0013128375867381692,
        0.008493965491652489,
        6.722707621520385e-05,
        0.00038959505036473274,
        0.001864189631305635,
        0.002331205178052187,
        0.009037882089614868,
        -0.0038578039966523647,
        8.567333861719817e-05,
        0.010030686855316162,
        0.00613644253462553,
        0.004757110495120287,
        0.0009953936096280813,
        -0.0010779561707749963,
        0.0015325581189244986,
        -0.0006864963215775788,
        0.002428178209811449,
        0.002492364961653948,
        0.0076851327903568745,
        -0.0006336498190648854,
        0.0004466191749088466,
        0.0049217212945222855,
        0.0018543530022725463,
        -0.00322063360363245,
        0.005550532601773739,
        0.0016613854095339775,
        0.007845454849302769,
        0.012252392247319221,
        -0.002623046515509486,
        0.002235602820292115,
        0.008286239579319954,
        -4.9653426685836166e-05,
        0.0003804076404776424,
        0.0065455143339931965,
        0.002631814917549491,
        -0.00020613418018911034,
        0.002499605296179652,
        0.008228793740272522,
        0.00010778781143017113,
        0.0014953467762097716,
        -0.00025738682597875595,
        0.010413016192615032,
        -0.0011438982328400016,
        0.004769990220665932,
        0.001795149757526815,
        0.0005301688797771931,
        -0.0021136098075658083,
        -0.000441281299572438,
        0.0013732267543673515,
        -0.000327601155731827,
        0.0031868109945207834,
        0.007326367776840925,
        0.004495272878557444,
        0.0021199083421379328,
        0.005798483733087778,
        -0.0017837828490883112,
        0.0015181234339252114,
        0.0016220996621996164,
        -0.0012591351987794042,
        0.00101705570705235,
        0.009743195958435535,
        0.011080171912908554,
        -0.0006543954368680716,
        0.00032363104401156306,
        0.005107596982270479,
        0.011371791362762451,
        -0.0012132119154557586,
        0.0015746662393212318,
        0.0010401993058621883,
        0.006942070089280605,
        0.00883618276566267,
        0.008379007689654827,
        0.0049370890483260155,
        6.79236400173977e-05,
        0.0065911333076655865,
        -0.0030273757874965668,
        0.009569373913109303,
        -0.0005298216128721833,
        0.0007831902476027608,
        0.016793757677078247,
        0.003790902439504862,
        0.00335471099242568,
        0.001245300518348813,
        0.010839458554983139,
        -0.0009763744892552495,
        0.00011130888015031815,
        0.01534099318087101,
        -0.00033072385122068226,
        -0.004896057303994894,
        0.009502488188445568,
        0.0014404162066057324,
        0.001480938633903861,
        0.0020018108189105988,
        0.0023338061291724443,
        0.011362730525434017,
        -0.0012773143826052547,
        0.0013398011215031147,
        0.0016472932184115052,
        0.0015423147706314921,
        -0.0006465187761932611,
        -0.0036795849446207285,
        -0.003705511800944805,
        -0.0005155956605449319,
        -0.0012612509308382869,
        -0.0009630753193050623,
        0.007190844044089317,
        3.573096182662994e-05,
        0.005519249476492405,
        0.0025201074313372374,
        0.008306164294481277,
        -0.001313145854510367,
        -0.002298231702297926,
        0.004286215640604496,
        0.0008514020591974258,
        0.0019989849533885717,
        0.010883365757763386,
        -0.0010438918834552169,
        0.005683396942913532,
        -0.0013682141434401274,
        0.009532630443572998,
        0.0003530809481162578,
        0.0017343171639367938,
        0.0004708122869487852,
        0.0009649953572079539,
        -0.0015967594226822257,
        -0.00426717521622777,
        0.002739804098382592,
        -0.003779004327952862,
        0.002181397518143058,
        0.0003264428523834795,
        0.002397303469479084,
        0.0012020523427054286,
        -3.2645617466187105e-05,
        -0.0007281686994247139,
        -0.0015896621625870466,
        0.010599778965115547,
        0.0007671118364669383,
        -0.0005916616646572948,
        0.0008376768091693521,
        0.011801101267337799,
        0.0055769868195056915,
        0.005538846831768751,
        0.004497538320720196,
        -0.00161936623044312,
        -0.002627415582537651,
        -0.0024238803889602423,
        0.009073620662093163,
        0.010343602858483791,
        3.6972243833588436e-05,
        0.003261435544118285,
        0.003582392353564501,
        0.001896704314276576,
        0.0035944832488894463,
        -0.002139626769348979,
        -0.001966585870832205,
        -0.0010585879208520055,
        -0.00035935992491431534,
        0.00055281026288867,
        -0.00035915226908400655,
        0.0018825533334165812,
        -0.0005941643612459302,
        0.006462021730840206,
        0.0007793882396072149,
        0.008057628758251667,
        -0.0015589905669912696,
        -0.0016139671206474304,
        0.003687879303470254,
        0.0012205137172713876,
        0.011524881236255169,
        -0.002658428158611059,
        0.0005220523453317583,
        0.00233437935821712,
        -0.00195446633733809,
        -0.0003799924743361771,
        -0.0012831971980631351,
        0.0024783178232610226,
        0.001053076470270753,
        0.001990446588024497,
        0.002034106757491827,
        0.010946416296064854,
        0.00627964548766613,
        0.013193793594837189,
        0.005947953090071678,
        0.0022775966208428144,
        0.006711623165756464,
        0.006113267503678799,
        -0.0002667281369213015,
        -0.0008833005558699369,
        0.0019864693749696016,
        0.003932845778763294,
        -0.00119989481754601,
        0.0004316111153457314,
        0.0034275467041879892,
        0.012391515076160431,
        0.0005950633785687387,
        0.00034307711757719517,
        0.006696022115647793,
        0.0007310392684303224,
        0.0017024772241711617,
        0.0003615053719840944,
        0.010246498510241508,
        0.0010520642390474677,
        0.007607287727296352,
        0.0006955504650250077,
        0.002178538590669632,
        -0.0012909978395327926,
        -0.0013254234800115228,
        0.00619210209697485,
        0.012048522010445595,
        0.011245214380323887,
        0.005699419882148504,
        0.010968896560370922,
        0.000502611743286252,
        0.0012833226937800646,
        0.010094287805259228,
        0.0009080228628590703,
        0.00919102318584919,
        0.014887673780322075,
        0.005070146173238754,
        -0.00011602768790908158,
        -0.004449783358722925,
        0.002129959873855114,
        0.009328880347311497,
        0.0012580628972500563,
        -0.0006464748876169324,
        -0.001341367489658296,
        0.0035900052171200514,
        0.007779096718877554,
        0.006659398786723614,
        0.007524489890784025,
        0.008313433267176151,
        0.0007870040135458112,
        -0.0004936804180033505,
        0.00985310785472393,
        0.015910964459180832,
        -0.0014933125348761678,
        0.0007223197026178241,
        -0.0017173709347844124,
        0.008767270483076572,
        -0.0014077291125431657,
        0.009582706727087498,
        -0.0017830115975812078,
        0.007095741108059883,
        0.0017843256937339902,
        -0.0005439896485768259,
        0.012245015241205692,
        0.001552571658976376,
        0.003007015213370323,
        -0.00324737885966897,
        0.0026574411895126104,
        0.003486958798021078,
        0.003023915458470583,
        -0.0041732182726264,
        0.01468348503112793,
        -0.0017949555767700076,
        -0.0008135957759805024,
        0.001080607995390892,
        0.01192030031234026,
        0.0037814914248883724,
        0.004993196576833725,
        -0.0013986879494041204,
        0.0007556918426416814,
        0.001076552551239729,
        0.00803822185844183,
        0.0010126010747626424,
        0.000745735305827111,
        0.0006198399350978434,
        0.002294691512361169,
        -0.000364889157935977,
        -0.006215463392436504,
        -0.0004801272298209369,
        0.014218191616237164,
        -0.002872270764783025,
        0.0001808257948141545,
        -0.0026491868775337934,
        8.202877506846562e-05,
        0.011783028021454811,
        -0.006037064827978611,
        -0.0017181304283440113,
        0.011074497364461422,
        0.008868618868291378,
        0.006785123609006405,
        0.0008185754995793104,
        0.0007937407935969532,
        0.003564497223123908,
        -0.002610760973766446,
        -0.00112772302236408,
        0.0005757312756031752,
        0.010814731009304523,
        -0.004098708275705576,
        3.792198549490422e-05,
        0.00521228089928627,
        0.0006057654391042888,
        -0.004865156952291727,
        0.003859235206618905,
        -0.0006567136151716113,
        0.007525204215198755,
        0.015165351331233978,
        -0.0046960338950157166,
        0.004445774480700493,
        0.010305048897862434,
        -0.00035316881258040667,
        4.1842689824989066e-05,
        0.012218799442052841,
        0.0035614632070064545,
        0.0005357196787372231,
        -0.0001756439742166549,
        0.010629546828567982,
        -0.0011420553782954812,
        -0.0003443550376687199,
        -0.0019119451753795147,
        0.014841709285974503,
        -0.0005975437816232443,
        0.008890559896826744,
        -8.030736353248358e-05,
        -0.0005679189343936741,
        -0.0007279712008312345,
        -0.003980053123086691,
        -0.0006378197576850653,
        -0.001536501687951386,
        0.002217136323451996,
        0.011729683727025986,
        0.008512875996530056,
        0.0014043477131053805,
        0.0063812509179115295,
        -0.004610022529959679,
        0.0005307710380293429,
        -0.001692882739007473,
        5.053612403571606e-05,
        0.0004318343417253345,
        0.011761145666241646,
        0.014480299316346645,
        0.00028314077644608915,
        0.0008157552219927311,
        0.006592743098735809,
        0.01441643014550209,
        -0.0023440406657755375,
        -0.0004792684339918196,
        -0.0013176801148802042,
        0.011078374460339546,
        0.011829303577542305,
        0.010614731349050999,
        0.005911877378821373,
        -0.0024504372850060463,
        0.009781667962670326,
        -0.008973698131740093,
        0.011216987855732441,
        -0.001859193085692823,
        -0.0008876738138496876,
        0.021195704117417336,
        0.0037533992435783148,
        0.004555359482765198,
        0.0007559942314401269,
        0.01568147912621498,
        0.0009845288004726171,
        -0.0010878455359488726,
        0.021280042827129364,
        -0.0009013671660795808,
        -0.004361867904663086,
        0.015143935568630695,
        0.002617869758978486,
        -0.0017468990990892053,
        0.0011910975445061922,
        -0.0016608844744041562,
        0.01658981665968895,
        -0.0004227114550303668,
        0.00020253588445484638,
        -1.822522608563304e-05,
        0.0003436089609749615,
        0.0004554353654384613,
        -0.0046938820742070675,
        -0.006082469597458839,
        -0.002654146868735552,
        0.000156911788508296,
        -0.00450847577303648,
        0.010618923231959343,
        0.0013909434201195836,
        0.00921807624399662,
        0.0053000254556536674,
        0.008987954817712307,
        0.0010185565333813429,
        -0.0068312399089336395,
        0.00545162009075284,
        -0.0017584568122401834,
        -0.0017540546832606196,
        0.012220929376780987,
        -0.0015836474485695362,
        0.004899500869214535,
        -0.0016161852981895208,
        0.015189777128398418,
        0.0009969108505174518,
        0.0011256480356678367,
        -0.0015633933944627643,
        -0.0005941012641415,
        -0.0011492621852084994,
        -0.0063498737290501595,
        0.004376351833343506,
        -0.006044434383511543,
        -0.0007350525702349842,
        0.0020355579908937216,
        0.0043886685743927956,
        0.0025633554905653,
        -0.0012489137006923556,
        -0.0032985766883939505,
        -0.003068918362259865,
        0.016590751707553864,
        0.0026491768658161163,
        -0.0015769003657624125,
        -0.0011333407601341605,
        0.01216866821050644,
        0.007514083292335272,
        0.0062468149699270725,
        0.005362181458622217,
        -0.0021632115822285414,
        -0.007393173407763243,
        -0.007200992666184902,
        0.012560393661260605,
        0.012401786632835865,
        -0.0025864262133836746,
        0.0025718535762280226,
        0.0036590509116649628,
        0.0016641084803268313,
        -8.382117084693164e-05,
        -0.002274341182783246,
        -0.004725920036435127,
        -0.001253203023225069,
        -0.0020200866274535656,
        9.48319211602211e-07,
        -0.0015023612650111318,
        0.00014774271403439343,
        -0.005552477668970823,
        0.0064561027102172375,
        -0.000998336123302579,
        0.01374705508351326,
        -0.0017326610395684838,
        0.0004469685081858188,
        0.00464423606172204,
        0.0013529531424865127,
        0.01427450217306614,
        -0.0050377994775772095,
        0.0020308750681579113,
        0.0006238286150619388,
        -0.005781195126473904,
        -0.0015000425046309829,
        -0.004298657178878784,
        0.005384884774684906,
        -0.0007440486224368215,
        -0.0018877312541007996,
        -0.0018356331856921315,
        0.01562616229057312,
        0.010978697799146175,
        0.017420977354049683,
        0.006573611870408058,
        0.0006805089651606977,
        0.007623990066349506,
        0.00796040240675211,
        -0.0015024127205833793,
        0.0003303036792203784,
        0.00040512275882065296,
        0.004036864265799522,
        -0.0014323657378554344,
        -0.003118659369647503,
        0.005593802314251661,
        0.015552698634564877,
        -0.0012687657726928592,
        6.0410064179450274e-05,
        0.006654055323451757,
        -0.0005621457239612937,
        -0.001850655535236001,
        -0.003532595233991742,
        0.01619667559862137,
        -0.0014848586870357394,
        0.010657361708581448,
        0.0013094053138047457,
        0.003446077462285757,
        -0.0005672258557751775,
        0.0008065758738666773,
        0.005173605401068926,
        0.012694411911070347,
        0.01563037745654583,
        0.010417476296424866,
        0.014856433495879173,
        0.0010725490283221006,
        0.0011275598080828786,
        0.016802353784441948,
        0.001317136804573238,
        0.01571805216372013,
        0.020393796265125275,
        0.004002175759524107,
        -0.0011873871553689241,
        -0.007533879950642586,
        0.0013747322373092175,
        0.010346169583499432,
        -0.0017502282280474901,
        -0.00019537073967512697,
        -0.0023557189851999283,
        0.00272560422308743,
        0.008853316307067871,
        0.007639077492058277,
        0.010864496231079102,
        0.011219095438718796,
        -0.00031013769330456853,
        -0.004131052177399397,
        0.013723323121666908,
        0.02109021134674549,
        -0.0024475534446537495,
        0.0010542768286541104,
        -0.0005865679122507572,
        0.014327965676784515,
        0.0005662189796566963,
        0.011837881989777088,
        -0.004243106581270695,
        0.005566013511270285,
        0.0008594183018431067,
        3.1245945137925446e-05,
        0.006747926585376263,
        0.0012467727065086365,
        0.00970927532762289,
        0.003582834266126156,
        -0.0017473341431468725,
        0.012263784185051918,
        -0.0002657310396898538,
        0.006243823561817408,
        0.0031240854877978563,
        -0.002258731983602047,
        0.007711956277489662,
        -0.0012578603345900774,
        0.0003245252009946853,
        0.002033836441114545,
        0.006249685771763325,
        0.0010589302983134985,
        -0.0009025714243762195,
        0.0007506721303798258,
        0.007365550380200148,
        -0.001215039985254407,
        -0.000778006506152451,
        0.011927505023777485,
        0.0013705973979085684,
        0.00014206045307219028,
        0.005786836612969637,
        -0.0011622158344835043,
        0.0021123953629285097,
        0.0017215405823662877,
        0.0011172477388754487,
        0.004397767595946789,
        0.004398157820105553,
        0.00022831492242403328,
        0.0022714172955602407,
        -0.0017952709458768368,
        0.009753345511853695,
        0.002384508727118373,
        0.01090107299387455,
        0.0006660493090748787,
        0.001116470550186932,
        0.0010378803126513958,
        0.00458527822047472,
        0.011155844666063786,
        0.0031167587731033564,
        0.004769937135279179,
        0.0033148222137242556,
        0.0005485343863256276,
        0.0017436728812754154,
        0.001795782009139657,
        0.004578757099807262,
        0.005317361559718847,
        -0.0005368043202906847,
        0.0019206288270652294,
        0.004055649973452091,
        0.00414155051112175,
        0.0014122368302196264,
        0.0018078610301017761,
        -0.0016168401343747973,
        0.0005116155371069908,
        0.0024630760308355093,
        -0.0012814919464290142,
        0.000592081225477159,
        0.012255089357495308,
        0.0035470251459628344,
        -0.002041229512542486,
        -8.530286140739918e-05,
        0.0006504275952465832,
        0.00542076351121068,
        -0.0013338474091142416,
        0.010096418671309948,
        -0.0012303441762924194,
        -0.0004397451411932707,
        0.004024028778076172,
        0.008158886805176735,
        0.00011803492088802159,
        0.006175171118229628,
        0.011390607804059982,
        0.007888073101639748,
        0.0028244182467460632,
        -0.0020106518641114235,
        0.01780106872320175,
        0.0066079129464924335,
        -5.070939369034022e-05,
        0.003339236369356513,
        -2.1005485905334353e-05,
        0.0036153204273432493,
        -0.0002526070747990161,
        0.0012069321237504482,
        0.00044673809316009283,
        3.3124135370599106e-05,
        0.0009173201979137957,
        0.0024126037023961544,
        0.005385361146181822,
        -0.0013215243816375732,
        -0.00021076196571812034,
        0.0031167527195066214,
        0.0027505841571837664,
        0.0032287936192005873,
        0.011556333862245083,
        0.0046725524589419365,
        -0.0010698024416342378,
        0.003571276320144534,
        0.0027495839167386293,
        0.006351588759571314,
        0.0075925253331661224,
        0.00933411531150341,
        0.007130824960768223,
        0.001516148098744452,
        0.0032195390667766333,
        0.0066453577019274235,
        -0.0012228568084537983,
        -0.0011177734704688191,
        0.01282320637255907,
        -0.001140089938417077,
        0.0021108256187289953,
        0.006672414019703865,
        0.00114720338024199,
        0.004275521729141474,
        -0.0017005152767524123,
        0.00017167138867080212,
        0.005736463703215122,
        -6.2404724303632975e-06,
        0.00021930335788056254,
        -0.0007876988966017962,
        0.0013060973724350333,
        -0.0005243332125246525,
        0.0045360238291323185,
        0.006160791963338852,
        0.00681252870708704,
        0.0005106970202177763,
        0.005363859236240387,
        0.0032529078889638186,
        -0.0009303028928115964,
        0.008847147226333618,
        0.0021173888817429543,
        0.0016334729734808207,
        -0.00010301086877007037,
        0.003362801158800721,
        0.00948326662182808,
        -0.0001511458249296993,
        -0.0009378439863212407,
        0.009848413057625294,
        0.00024255874450318515,
        0.00012273310858290642,
        -8.75951664056629e-05,
        0.0068108877167105675,
        -0.0008825580589473248,
        -0.0018888898193836212,
        -0.0013242388376966119,
        -0.0014219036092981696,
        4.7724752221256495e-05,
        0.004693975206464529,
        0.005376054905354977,
        0.006686283741146326,
        0.0026288428343832493,
        0.007220490835607052,
        0.003605279140174389,
        0.007376972120255232,
        -0.0009300003293901682,
        0.005297941155731678,
        0.0022693127393722534,
        0.005317965988069773,
        0.001281525706872344,
        0.0015441568102687597,
        -0.0019732757937163115,
        0.013762475922703743,
        0.012029695324599743,
        0.001098159234970808,
        0.006091955583542585,
        0.0003577105817385018,
        0.005609564948827028,
        0.0014473982155323029,
        0.0025984710082411766,
        0.004324774723500013,
        0.0037383981980383396,
        0.004823147319257259,
        0.0017477397341281176,
        0.006239513400942087,
        0.004614272154867649,
        0.0007903582882136106,
        0.005385455675423145,
        -0.000423631863668561,
        0.004821775946766138,
        0.0007280114223249257,
        0.0007128320867195725,
        -0.0016427719965577126,
        0.004005919676274061,
        0.0067245857790112495,
        0.0007373830303549767,
        0.00489345658570528,
        -0.0013251991476863623,
        0.0004272337246220559,
        0.0034523499198257923,
        -0.0011959337862208486,
        0.006603563204407692,
        0.003595946589484811,
        0.0015580994077026844,
        0.0031456509605050087,
        0.00921534188091755,
        -0.00169446412473917,
        0.003722002962604165,
        0.010708759538829327,
        -0.001605470897629857,
        0.0007491318392567337,
        -0.001893674023449421,
        0.002641466213390231,
        0.0017876713536679745,
        0.009609231725335121,
        0.0027104502078145742,
        0.0017759116599336267,
        0.0027969975490123034,
        0.007677140645682812,
        -0.000585016910918057,
        0.00045732164289802313,
        0.0013180752284824848,
        0.0009239618666470051,
        -6.068148650228977e-07,
        0.004984055645763874,
        0.002014634432271123,
        0.002717411844059825,
        0.01030945684760809,
        -0.001227713655680418,
        0.005778941325843334,
        -0.0010834209388121963,
        -0.0018408140167593956,
        0.0025699976831674576,
        0.005829711444675922,
        -0.0005562807200476527,
        0.003162085311487317,
        0.009749541990458965,
        0.008233549073338509,
        -0.001141729881055653,
        -0.0018421441782265902,
        0.006078490987420082,
        0.011775849387049675,
        0.007514659781008959,
        0.0037301555275917053,
        0.006300241686403751,
        -0.0006282603135332465,
        -0.0017338884063065052,
        0.008678346872329712,
        0.004049584735184908,
        0.003314635716378689,
        0.006048381328582764,
        0.0005290434928610921,
        0.000141553784487769,
        0.0030619867611676455,
        -0.0014206103514879942,
        0.01054292917251587,
        0.00016491897986270487,
        0.0006375077646225691,
        0.00957701075822115,
        -0.0005477368249557912,
        0.01217158418148756,
        0.007548488210886717,
        0.007593195885419846,
        0.017956169322133064,
        -0.000722413242328912,
        0.0036264818627387285,
        0.0004960609949193895,
        0.006160113029181957,
        -0.0028282448183745146,
        -0.001509621273726225,
        -0.0008807322010397911,
        0.004027599934488535,
        -0.0010583193507045507,
        0.0006961093167774379,
        0.0050560482777655125,
        0.013859575614333153,
        -0.0005117491818964481,
        -0.00020201210281811655,
        0.00738444272428751,
        -0.0013810052769258618,
        0.006935757584869862,
        0.0012403465807437897,
        0.0013124789111316204,
        0.005874925293028355,
        0.0006681451923213899,
        0.00268500461243093,
        0.00438266433775425,
        0.001442454056814313,
        0.003487024223431945,
        0.001914879190735519,
        0.00242979871109128,
        0.003397796768695116,
        0.0043779476545751095,
        -0.001103660324588418,
        0.0020116467494517565,
        -0.00044226471800357103,
        0.0037860930897295475,
        0.0011504609137773514,
        0.0032016069162636995,
        0.006633759010583162,
        0.003658207133412361,
        6.575652514584363e-05,
        0.0015938065480440855,
        -0.0005417602369561791,
        0.004430836532264948,
        0.0016552904853597283,
        -0.0007853072602301836,
        0.0027721624355763197,
        0.0017111775232478976,
        0.003631607163697481,
        -0.000551871198695153,
        0.0012854329543188214,
        0.008551224134862423,
        0.005628443323075771,
        0.006605413742363453,
        0.0014099865220487118,
        0.0012433252995833755,
        -0.000335027405526489,
        0.0032161055132746696,
        0.0062379916198551655,
        0.001050852588377893,
        0.004369722679257393,
        0.00228284765034914,
        -0.0004904276574961841,
        0.0008412093739025295,
        -0.0003660791553556919,
        -1.879309093055781e-05,
        0.005655928514897823,
        -0.0014361420180648565,
        0.0020524554420262575,
        0.007465074770152569,
        -0.0008027831208892167,
        0.0005921500851400197,
        0.003951424267143011,
        0.0006283572874963284,
        0.0026589573826640844,
        0.004717889241874218,
        9.108590165851638e-05,
        0.0019062025239691138,
        0.007139156572520733,
        0.003054511733353138,
        0.00021283573005348444,
        -0.00019441134645603597,
        -0.0010950160212814808,
        0.0048902216367423534,
        -0.0010240775300189853,
        0.004371670074760914,
        0.002142805838957429,
        -0.0008697642479091883,
        0.0010202353587374091,
        0.0016912863356992602,
        0.0019362712046131492,
        0.0018239335622638464,
        0.004625772591680288,
        0.007403943687677383,
        0.0043136863969266415,
        0.0011800596257671714,
        0.007827695459127426,
        0.0009672591695562005,
        0.00126456911675632,
        0.0015475733671337366,
        0.001129343407228589,
        0.0046364073641598225,
        0.004946419503539801,
        0.007438329514116049,
        -0.0001499444042565301,
        0.0007990069570951164,
        0.0006310213939286768,
        0.0069572944194078445,
        0.0006857830449007452,
        0.002226464916020632,
        -0.0011463165283203125,
        0.003355389926582575,
        0.005232629831880331,
        0.0029944295529276133,
        0.005771175492554903,
        0.003247013548389077,
        0.0023471438325941563,
        0.0003145337395835668,
        0.0025273929350078106,
        0.0014255965361371636,
        0.0031651535537093878,
        0.01031467504799366,
        0.006222828291356564,
        0.0012400508858263493,
        0.0010222948621958494,
        0.007529781199991703,
        0.0005705366493202746,
        -0.00033144972985610366,
        0.009234083816409111,
        0.00011131278006359935,
        0.0013025945518165827,
        0.008235899731516838,
        0.0038430069107562304,
        0.00035134234349243343,
        -7.289911445695907e-05,
        0.0013684405712410808,
        0.008349570445716381,
        -0.001083094859495759,
        0.0007005923544056714,
        0.0008444449631497264,
        0.0013240171829238534,
        -0.0014189583016559482,
        0.0029679075814783573,
        -0.0004238541587255895,
        0.0022735020611435175,
        -0.0007404363714158535,
        0.00042748282430693507,
        0.003935437183827162,
        5.714471626561135e-05,
        0.006009582430124283,
        0.0021992959082126617,
        0.004053854383528233,
        -0.0008015692001208663,
        -3.529255263856612e-05,
        0.004772210028022528,
        0.001988331088796258,
        0.0018020578427240252,
        0.007443039678037167,
        0.00043122604256495833,
        0.004104448948055506,
        0.001619578804820776,
        0.005900828633457422,
        -0.000587124319281429,
        0.00010635826765792444,
        0.0004758665745612234,
        0.000291627598926425,
        0.0002207421202911064,
        0.0033248583786189556,
        0.003105641109868884,
        0.0014086796436458826,
        0.0005667325458489358,
        0.0055918763391673565,
        0.003292877459898591,
        0.0025610695593059063,
        0.001309112412855029,
        0.0008231352549046278,
        -0.0004778900183737278,
        0.0054435720667243,
        9.826516361499671e-06,
        0.0017865009140223265,
        -0.0009302170947194099,
        0.008435756899416447,
        0.009134717285633087,
        0.003272392088547349,
        0.005159622523933649,
        0.002360214712098241,
        -0.0005110068595968187,
        0.0004925698158331215,
        0.005322349723428488,
        0.005806420464068651,
        0.0002214351698057726,
        0.004992184694856405,
        0.0011098977411165833,
        0.00552577106282115,
        0.0020313886925578117,
        2.4460832719341852e-05,
        0.0010518513154238462,
        0.0011796581093221903,
        0.002480862895026803,
        -0.0006479992880485952,
        -0.00033495519892312586,
        -0.0013951363507658243,
        -0.0005615038680844009,
        0.00394294923171401,
        -0.0012873179512098432,
        0.00458046980202198,
        0.0013650465989485383,
        0.0011267948430031538,
        0.0030295844189822674,
        -0.0007078631897456944,
        0.006223936565220356,
        0.0015004108427092433,
        0.0015437473775818944,
        0.0021311992313712835,
        0.004254370462149382,
        -0.0002938740362878889,
        1.9833278201986104e-05,
        0.006740631069988012,
        -0.0005521929124370217,
        0.0022320584394037724,
        -0.0014663904439657927,
        0.006601984612643719,
        0.004866417031735182,
        0.010047072544693947,
        0.0018682171357795596,
        0.0031437210272997618,
        0.0024538037832826376,
        0.006265976466238499,
        -0.0007999596418812871,
        0.0013458675239235163,
        0.0004856405721511692,
        0.002919696271419525,
        0.00040564179653301835,
        0.003040347481146455,
        0.003906087949872017,
        0.006199927069246769,
        0.0032623610459268093,
        0.0008829719736240804,
        0.003032076871022582,
        0.0017246550414711237,
        0.001600820105522871,
        0.0024995908606797457,
        0.005297206342220306,
        0.0016671707853674889,
        0.004870538134127855,
        0.005315638147294521,
        0.0044045960530638695,
        8.246747893281281e-05,
        0.0018259165808558464,
        0.00628602085635066,
        0.007958514615893364,
        0.008911894634366035,
        0.004318945575505495,
        0.00546985911205411,
        0.0008968053152784705,
        -9.879318531602621e-05,
        0.006789470091462135,
        0.001077338820323348,
        0.0070760417729616165,
        0.007950631901621819,
        0.0014794545713812113,
        -0.0007436686428263783,
        -0.0011589617934077978,
        0.00036897583049722016,
        0.00841012317687273,
        -0.000974001013673842,
        1.975979103008285e-05,
        0.0034532316494733095,
        0.0019789664074778557,
        0.007988947443664074,
        0.00667597446590662,
        0.006958655547350645,
        0.009189540520310402,
        3.115502477157861e-05,
        0.0007322764140553772,
        0.005002985708415508,
        0.01046257745474577,
        -0.0005172070814296603,
        -0.0010288343764841557,
        -0.0016079421620815992,
        0.005473643075674772,
        0.0007041363278403878,
        0.0029608472250401974,
        0.0004716066177934408,
        0.006660226732492447,
        0.001880033640190959,
        -0.00028183156973682344,
        -0.00046006121556274593,
        -0.001992967678233981,
        0.01420682854950428,
        0.008465114049613476,
        -0.0005762705113738775,
        0.018549161031842232,
        0.003547907108440995,
        0.013088750652968884,
        -0.008151430636644363,
        -0.0021288881544023752,
        0.015238255262374878,
        -0.0006471673841588199,
        -0.006298894062638283,
        0.004878375679254532,
        0.005440170876681805,
        -0.00013595420750789344,
        -0.0015731565654277802,
        0.0006969854002818465,
        0.004253626335412264,
        -0.00011067508603446186,
        -0.0003611298161558807,
        0.015533681027591228,
        0.002380134304985404,
        -0.0013141939416527748,
        0.010674535296857357,
        -0.0016647325828671455,
        -0.00824450422078371,
        0.006901715416461229,
        -0.0012352311750873923,
        0.008133861236274242,
        0.006317613180726767,
        -0.005680538713932037,
        0.011939892545342445,
        0.00010514655150473118,
        0.0041387383826076984,
        -0.005445254035294056,
        0.012873186729848385,
        0.0006795632652938366,
        -0.0018063148017972708,
        -3.492343967081979e-05,
        0.00907101109623909,
        0.01960962824523449,
        0.004996681585907936,
        -0.00101350003387779,
        0.008677967824041843,
        -0.0017800786299631,
        -0.002897833473980427,
        0.0015196604654192924,
        0.012176294811069965,
        0.00984558742493391,
        -0.0010869731195271015,
        -0.005021326243877411,
        -0.005311298184096813,
        0.009075290523469448,
        4.749797881231643e-05,
        -0.00012919901928398758,
        -0.0004332198004703969,
        0.0026135866064578295,
        -0.004383321851491928,
        0.0004121276724617928,
        -6.453576497733593e-05,
        0.02053450047969818,
        -0.005058296490460634,
        -0.0019779466092586517,
        -0.00017454370390623808,
        -4.6459375880658627e-05,
        -0.005944328382611275,
        -0.001222680089995265,
        0.010342876426875591,
        -0.0016755512915551662,
        -0.0010048184776678681,
        0.00977263879030943,
        0.017056189477443695,
        3.108635428361595e-05,
        0.008905807510018349,
        0.018374964594841003,
        0.0020325379446148872,
        -0.0035148165188729763,
        -0.0015165825607255101,
        0.02461039461195469,
        0.016652440652251244,
        -0.00012246034748386592,
        0.010207487270236015,
        -7.707098848186433e-05,
        0.008810266852378845,
        -0.007994473911821842,
        -0.005865156650543213,
        0.0010533405002206564,
        0.002981228055432439,
        -0.003425822826102376,
        -0.004609427414834499,
        0.009274983778595924,
        0.0011792166624218225,
        -0.0020218936260789633,
        -0.004777764435857534,
        -0.0036378903314471245,
        -0.005654148757457733,
        0.017863040789961815,
        0.0079171909019351,
        -0.00662658317014575,
        0.015449021942913532,
        -0.005095329135656357,
        0.010310117155313492,
        0.011578280478715897,
        0.00020324352954048663,
        0.014560738578438759,
        -0.0012780409306287766,
        0.0049293674528598785,
        -0.003612512955442071,
        0.0007749675423838198,
        -0.001938020228408277,
        0.002774166874587536,
        0.0012345699360594153,
        0.007295921444892883,
        0.0002043657295871526,
        0.001732847187668085,
        0.009115898981690407,
        -0.0006198295159265399,
        0.001628007390536368,
        -0.006479006260633469,
        -0.0018446793546900153,
        0.0012461567530408502,
        0.0001726569316815585,
        7.777204154990613e-05,
        -0.0020425475668162107,
        0.01530550792813301,
        0.013234629295766354,
        0.012062334455549717,
        -0.0002017337828874588,
        0.008590701036155224,
        -0.003986845258623362,
        0.0013203498674556613,
        0.006047145929187536,
        -0.0006396918324753642,
        -0.004022696521133184,
        -0.0012354427017271519,
        0.012214582413434982,
        0.015724370256066322,
        -0.0014315780717879534,
        0.00041816604789346457,
        0.005010934080928564,
        -0.00017083334387280047,
        -0.0014387081610038877,
        0.0005510109476745129,
        0.005646420642733574,
        -2.811670674418565e-05,
        -0.0007206245791167021,
        -0.0014891840983182192,
        -0.0010665557347238064,
        0.000666270381771028,
        0.013859947212040424,
        0.001641807146370411,
        0.017269011586904526,
        0.002573066158220172,
        0.013871360570192337,
        0.0029493155889213085,
        0.011194241233170033,
        -0.0018640031339600682,
        0.016093594953417778,
        0.005261933896690607,
        -0.0029611263889819384,
        0.00012173575669294223,
        -0.0005682649789378047,
        -0.0001429477269994095,
        0.013294250704348087,
        0.017757577821612358,
        -0.0023194134701043367,
        0.005806019064038992,
        0.004646236542612314,
        0.011880367994308472,
        0.008091539144515991,
        -0.0015796739608049393,
        -0.00018118751177098602,
        0.006446918938308954,
        0.008384870365262032,
        -0.00021189762628637254,
        0.005910007283091545,
        0.010064068250358105,
        0.0017528242897242308,
        0.012768326327204704,
        -0.0007615468348376453,
        0.013427910394966602,
        0.0006403179140761495,
        0.004553277511149645,
        0.0007301528239622712,
        0.006724007893353701,
        0.007079521659761667,
        0.0006383704021573067,
        -0.004429252818226814,
        0.0007963459356687963,
        -0.0011630358640104532,
        -0.0030335038900375366,
        -0.0011434579500928521,
        -0.0005925320438109338,
        0.013247641734778881,
        -0.0011689132079482079,
        0.006506077479571104,
        0.019321255385875702,
        -0.0015194329898804426,
        0.009353508241474628,
        0.017409874126315117,
        0.00021964393090456724,
        -0.00021817098604515195,
        0.0008958759135566652,
        -0.007464463356882334,
        -0.002724915510043502,
        0.005556337535381317,
        0.002496065106242895,
        0.0025867943186312914,
        -0.0038551059551537037,
        0.008379058912396431,
        -0.0016602773685008287,
        -0.0006075810524635017,
        0.0011454327031970024,
        -0.0018018463160842657,
        -0.0015588279347866774,
        0.009518707171082497,
        -0.0004052112635690719,
        -0.007562114391475916,
        0.020403508096933365,
        0.00017326150555163622,
        0.0028908138629049063,
        -0.00024097759160213172,
        0.0012143868952989578,
        0.004440744873136282,
        -0.002829116303473711,
        0.0006224149838089943,
        -0.004110317211598158,
        0.014202105812728405,
        0.00862819328904152,
        0.0006513199186883867,
        4.5887980377301574e-05,
        0.007551030721515417,
        0.008216251619160175,
        0.003012316767126322,
        -0.004221739713102579,
        -0.004430494736880064,
        0.0016727031907066703,
        0.0003162333741784096,
        0.00035584470606409013,
        0.002918617334216833,
        -0.002361735561862588,
        -0.0014584442833438516,
        0.002068938687443733,
        -0.0001244829036295414,
        0.010938008315861225,
        0.0008614918915554881,
        0.010621077381074429,
        -0.0005773219745606184,
        3.0777882784605026e-05,
        0.019143665209412575,
        -0.00039292871952056885,
        0.015539448708295822,
        0.008521948009729385,
        0.008644267916679382,
        0.02256966382265091,
        -0.0012688534334301949,
        0.011354552581906319,
        -0.006795927416533232,
        -0.0029990151524543762,
        -0.0013376671122387052,
        -0.00016440398758277297,
        0.00024663814110681415,
        -0.008304973132908344,
        0.0015671150758862495,
        -0.00768695306032896,
        0.016096491366624832,
        0.020266104489564896,
        0.0012398110702633858,
        -0.00010499281052034348,
        0.009836713783442974,
        -0.0003318249946460128,
        0.0003917735302820802,
        -0.003558712312951684,
        0.000878774793818593,
        -0.0004052443546243012,
        0.0020943365525454283,
        -0.00433715432882309,
        0.012097385711967945,
        0.0021286089904606342,
        -0.004537418484687805,
        -0.00010555525659583509,
        0.010365860536694527,
        0.0040421755984425545,
        0.0016644973075017333,
        -0.0013487652176991105,
        0.0022575261536985636,
        -0.000977722811512649,
        0.006132877431809902,
        -0.0009579831967130303,
        0.0021750463638454676,
        0.0003723961126524955,
        0.002317671664059162,
        0.00046851375373080373,
        -0.004574551247060299,
        -0.0003730934695340693,
        0.012770026922225952,
        -0.0006814631051383913,
        0.0006680333171971142,
        -2.946072163467761e-05,
        -0.0002383398386882618,
        0.009963019751012325,
        -0.005148427095264196,
        0.00025177281349897385,
        0.009591586887836456,
        0.008883119560778141,
        0.005868173204362392,
        -8.174782851710916e-05,
        -0.0011308337561786175,
        0.0012148522073403,
        -0.002099738223478198,
        -0.00019418173178564757,
        -0.0007925384561531246,
        0.00960620492696762,
        -0.005421838723123074,
        -0.0005703048664145172,
        0.0064916424453258514,
        9.557201701682061e-05,
        -0.007169005926698446,
        0.0029558567330241203,
        0.00047903761151246727,
        0.006661655846983194,
        0.013655789196491241,
        -0.003298677271232009,
        0.00444223964586854,
        0.008966307155787945,
        -0.0009429189958609641,
        -0.0006334080244414508,
        0.010995164513587952,
        0.001533453818410635,
        0.0002984292805194855,
        -0.0026658300776034594,
        0.009915925562381744,
        0.0007257420802488923,
        0.00041019305353984237,
        0.0018797400407493114,
        0.015201039612293243,
        0.0021877740509808064,
        0.0076326848939061165,
        0.0005079965922050178,
        0.0012875475222244859,
        -0.0011101386044174433,
        -0.003092312952503562,
        0.0017131761414930224,
        -0.0004955567419528961,
        0.0001147156217484735,
        0.00905095599591732,
        0.008093541488051414,
        0.0007781772292219102,
        0.003733732970431447,
        -0.005891535431146622,
        -0.00030390644678846,
        -0.002042170614004135,
        0.002255753381177783,
        -0.0017051229951903224,
        0.010789068415760994,
        0.014065854251384735,
        0.0014099678955972195,
        0.00017643604951445013,
        0.005340453237295151,
        0.010745775885879993,
        -0.0020965237636119127,
        0.0004319486324675381,
        0.001989650307223201,
        0.007657830137759447,
        0.0121847465634346,
        0.007593842688947916,
        0.0026095728389918804,
        0.00012424480519257486,
        0.011372583918273449,
        -0.007687217090278864,
        0.00966689269989729,
        -0.0018908274360001087,
        -0.0036231123376637697,
        0.01866833306849003,
        -0.0004054386226925999,
        0.007420461159199476,
        -0.00021533985272981226,
        0.012631969526410103,
        0.0016179970698431134,
        0.0011941858101636171,
        0.0177314393222332,
        -0.00020642236631829292,
        -0.0037964482326060534,
        0.011662326753139496,
        0.0023857257328927517,
        5.224174674367532e-05,
        0.0020713922567665577,
        0.001218951540067792,
        0.015348494984209538,
        0.0021881931461393833,
        -0.0009086836944334209,
        0.0020217718556523323,
        0.0008003546390682459,
        0.0006610561977140605,
        -0.006479319650679827,
        -0.004178982228040695,
        -0.002308528171852231,
        0.0008508213795721531,
        -0.0031729505863040686,
        0.010554913431406021,
        -0.0006045485497452319,
        0.005102694500237703,
        0.002525415737181902,
        0.008446256630122662,
        0.001669407938607037,
        -0.005967622622847557,
        0.0003333644999656826,
        0.0012215824099257588,
        0.0015530857490375638,
        0.011478752829134464,
        3.84161394322291e-05,
        0.0031429524533450603,
        0.0015650357818230987,
        0.011157878674566746,
        -0.0009376356028951705,
        -0.0011659188894554973,
        -0.0007253889925777912,
        -0.00013883941574022174,
        0.00025588340940885246,
        -0.0062426310032606125,
        0.004087628331035376,
        -0.0044584330171346664,
        0.0010561130475252867,
        0.0013108865823596716,
        0.0036970884539186954,
        0.0007025872473604977,
        0.0005519874976016581,
        -0.00326257455162704,
        -0.003547671949490905,
        0.015185751020908356,
        -0.0003925201017409563,
        -0.0009354011854156852,
        -9.17059660423547e-05,
        0.008745696395635605,
        0.0026248940266668797,
        0.007972539402544498,
        0.00489353621378541,
        -0.00013469922123476863,
        -0.005272805690765381,
        -0.005526418797671795,
        0.010037136264145374,
        0.009227985516190529,
        -0.0028201600071042776,
        0.0025426275096833706,
        0.002324143424630165,
        0.0006147176027297974,
        -0.0013719084672629833,
        -0.002116231480613351,
        -0.006686509121209383,
        -0.0009319544187746942,
        -6.494699482573196e-05,
        -0.0002817408530972898,
        -0.0009043041500262916,
        0.0003958639281336218,
        -0.002446128288283944,
        0.005660684779286385,
        0.00015236418403219432,
        0.013429561629891396,
        -0.0012570731341838837,
        0.001423139008693397,
        0.005127984099090099,
        0.0011795914033427835,
        0.010146236047148705,
        -0.004784576594829559,
        0.002139915246516466,
        0.0024212030693888664,
        -0.006804711185395718,
        0.001404274720698595,
        -0.0057856012135744095,
        0.0005082311690784991,
        0.00129200448282063,
        0.0007598203956149518,
        0.0013815584825351834,
        0.013224788010120392,
        0.006777843926101923,
        0.012462730519473553,
        0.004568904172629118,
        0.003157289931550622,
        0.010220435447990894,
        0.004521640948951244,
        -0.0008810321451164782,
        0.0004150461754761636,
        0.000509166216943413,
        0.002348165027797222,
        0.0005930879269726574,
        -0.002272651996463537,
        0.005076038651168346,
        0.01495408546179533,
        -0.004491291008889675,
        -0.00020110359764657915,
        0.0050153667107224464,
        -0.001227206434123218,
        0.0021066158078610897,
        0.00045866722939535975,
        0.014979761093854904,
        0.000958200020249933,
        0.008587638847529888,
        -0.0032729324884712696,
        0.0025101732462644577,
        -0.0012764305574819446,
        0.0006029606447555125,
        0.00376274436712265,
        0.008620339445769787,
        0.011429890990257263,
        0.007184116635471582,
        0.0135805020108819,
        -0.0006553735001944005,
        0.00045503536239266396,
        0.011692416854202747,
        0.0012691626325249672,
        0.012129651382565498,
        0.015110604465007782,
        0.00539133045822382,
        -0.0006809297483414412,
        -0.00537250516936183,
        0.0022581450175493956,
        0.0055946242064237595,
        0.0015917548444122076,
        0.0003719802771229297,
        -0.0037266479339450598,
        0.004460576921701431,
        0.0055243633687496185,
        0.0064788381569087505,
        0.006635565776377916,
        0.0062609510496258736,
        0.002021299209445715,
        -0.002639317885041237,
        0.011908241547644138,
        0.017649902030825615,
        -0.0007431671838276088,
        0.00032953935442492366,
        -0.0006141486228443682,
        0.013830357231199741,
        0.0022979439236223698,
        0.012719125486910343,
        -0.004822707735002041,
        0.002729527186602354,
        0.000853146833833307,
        0.001850808854214847,
        0.015370488166809082,
        -0.0004753697430714965,
        0.0012085114140063524,
        -0.007725118659436703,
        0.0038823315408080816,
        0.00018045221804641187,
        0.0012526739155873656,
        -0.00825560837984085,
