{
  "hiddenActivationType": "RecLinear",
  "hiddenLayers": [
    {
      "biasWeights": [
        0.019034547731280327,
        0.012936333194375038,
        -0.15116308629512787,
        0.026281099766492844,
        -0.03865126147866249,
        -0.14917342364788055,
        0.022311264649033546,
        0.018314562737941742,
        0.006083027925342321,
        0.011607261374592781,
        0.027743345126509666,
        0.02687450498342514,
        0.02427593246102333,
        0.01706005446612835,
        0.028372442349791527,
        -0.08097360283136368,
        0.019635824486613274,
        0.05244143307209015,
        0.023935038596391678,
        0.027031805366277695,
        -0.004481956362724304,
        -0.05789228901267052,
        -0.19270317256450653,
        -0.06519892811775208,
        0.01616581715643406,
        0.018264688551425934,
        -0.03355267271399498,
        -0.0029038526117801666,
        0.05807536840438843,
        0.03301906958222389,
        -0.16670167446136475,
        0.041152194142341614,
        0.027509178966283798,
        0.061174649745225906,
        0.04531002789735794,
        0.06669887155294418,
        -0.18729417026042938,
        -0.03986559063196182,
        -0.21882978081703186,
        0.03733207657933235,
        0.037603434175252914,
        0.044984977692365646,
        -0.27224063873291016,
        0.06292787939310074,
        0.026900021359324455,
        0.02482825145125389,
        0.07399612665176392,
        0.05814248323440552,
        0.06556985527276993,
        0.031697485595941544,
        -0.1268155425786972,
        0.06439081579446793,
        0.030578628182411194,
        0.0150139220058918,
        0.05357721820473671,
        0.013903569430112839,
        -0.03636225685477257,
        0.03956227749586105,
        0.047849882394075394,
        0.02597699500620365,
        -0.019504038617014885,
        0.022782986983656883,
        0.04262711480259895,
        0.003797123208642006,
        0.0531693696975708,
        0.0021191241685301065,
        0.0709090530872345,
        -0.2799295485019684,
        0.04979945719242096,
        0.0859353244304657,
        -0.027143726125359535,
        0.07421113550662994,
        -0.004256776534020901,
        -0.008231356739997864,
        0.0031637377105653286,
        0.004779360722750425,
        0.030733000487089157,
        0.041915517300367355,
        0.022207772359251976,
        0.01277114823460579,
        0.021563967689871788,
        0.006062292493879795,
        0.07290734350681305,
        0.019811803475022316,
        0.021790478378534317,
        0.09134882688522339,
        0.01722835749387741,
        0.028293950483202934,
        0.03864274173974991,
        -0.20046009123325348,
        0.06684435904026031,
        -0.04774847254157066,
        -0.15613600611686707,
        0.025811322033405304,
        -0.216105118393898,
        0.002877522027119994,
        0.05595316365361214,
        0.01334458775818348,
        0.047694072127342224,
        0.026569891721010208,
        0.0342581570148468,
        0.046934206038713455,
        0.07119787484407425,
        -0.04071366786956787,
        0.10329917818307877,
        0.1012798398733139,
        0.04480094462633133,
        0.010633482597768307,
        -0.1043020710349083,
        0.050629112869501114,
        -0.030155321583151817,
        -0.2640725374221802,
        -0.1340802162885666,
        0.02371637336909771,
        -0.10663177073001862,
        -0.05662430822849274,
        0.028382383286952972,
        0.07677654922008514,
        -0.21872402727603912,
        0.016903379932045937,
        -0.1294248104095459,
        -0.010081300511956215,
        0.00873017031699419,
        0.050374433398246765,
        0.02688511647284031,
        0.0386706180870533,
        -0.06472144275903702,
        -0.009433098137378693,
        0.02158411405980587,
        0.08021041005849838,
        -0.13611648976802826,
        0.020743990316987038,
        -0.09054386615753174,
        0.029024725779891014,
        -0.1744982749223709,
        0.07350772619247437,
        0.030523166060447693,
        -0.035651713609695435,
        -0.0010778368450701237,
        0.032027434557676315,
        0.05455615743994713,
        0.04158497601747513,
        -0.05227000638842583,
        0.04169353470206261,
        0.023654824122786522,
        0.0494433268904686,
        0.03126945346593857,
        -0.18331606686115265,
        -0.1729249656200409,
        -0.010119503363966942,
        -0.054070085287094116,
        -0.1850963830947876,
        0.026436101645231247,
        -0.004473618231713772,
        0.03026069886982441,
        0.025381729006767273,
        -0.3107243478298187,
        -0.40586918592453003,
        0.058188296854496,
        -0.15610741078853607,
        0.020990040153265,
        0.06038130819797516,
        0.013243023306131363,
        0.07455918192863464,
        0.0266595259308815,
        0.05318320170044899,
        -0.09182414412498474,
        0.01537257805466652,
        0.03695618733763695,
        0.019715063273906708,
        0.011398670263588428,
        0.013831148855388165,
        0.036725252866744995,
        0.055161960422992706,
        0.03946178779006004,
        -9.373484499519691e-05,
        0.034725550562143326,
        0.02741144970059395,
        0.046557698398828506,
        0.07146430015563965,
        -0.21192893385887146,
        0.05404968559741974,
        -0.0436372309923172,
        0.058107536286115646,
        0.0062912581488490105,
        0.02310444600880146,
        0.017587002366781235,
        -0.08145260810852051,
        0.07951601594686508,
        0.06630592048168182,
        0.01832888089120388,
        0.02808256819844246,
        0.018856316804885864,
        0.06579028815031052,
        0.07459621131420135,
        0.01756436377763748,
        -0.2136024534702301,
        0.03185608610510826,
        0.040466614067554474,
        -0.10585658997297287,
        -0.08738784492015839,
        -0.08134641498327255,
        0.02349846065044403,
        0.061619833111763,
        0.02688981033861637,
        -0.0376606285572052,
        0.027553269639611244,
        0.02427235059440136,
        -0.001473518437705934,
        0.02136571705341339,
        0.005833403207361698,
        0.030533799901604652,
        -0.06441090255975723,
        -0.11089753359556198,
        0.031595274806022644,
        -0.0047674598172307014,
        0.03605290874838829,
        -0.13520191609859467,
        -0.07393911480903625,
        -0.09684775769710541,
        0.025875598192214966,
        -0.18281887471675873,
        0.013887940905988216,
        0.01799774169921875,
        0.04202301800251007,
        0.05952124670147896,
        -0.004545074887573719,
        0.023530155420303345,
        0.06081266701221466,
        0.02702406980097294,
        0.0291176438331604,
        -0.22357948124408722,
        0.04276006668806076,
        0.06487555056810379,
        -0.16440638899803162,
        -0.29875287413597107,
        -0.03822172433137894,
        0.0235908143222332,
        0.06456661969423294,
        0.08709932863712311,
        0.04393107444047928,
        0.06517761945724487,
        0.053031835705041885,
        0.10147633403539658,
        0.016377046704292297,
        0.03811345249414444,
        -0.10191050916910172,
        -0.21629878878593445,
        0.006737810559570789,
        0.08161185681819916,
        0.06512536108493805,
        -0.003207603469491005,
        0.006151067558676004,
        0.0315396748483181,
        0.012735577300190926,
        0.03269020467996597,
        0.0395001545548439,
        0.04253550246357918,
        0.03778623789548874,
        0.06512705981731415,
        -0.17347213625907898,
        -0.044313523918390274,
        -0.23229414224624634,
        -0.09193825721740723,
        -0.04540940746665001,
        0.09154465794563293,
        0.018410108983516693,
        0.0026128978934139013,
        -0.18163098394870758,
        0.09353655576705933
      ],
      "weights": [
        -0.001373972394503653,
        0.0030194197315722704,
        -0.011939382180571556,
        0.008819622918963432,
        -0.0034177573397755623,
        -0.0020721820183098316,
        0.0021433939691632986,
        -0.0011695214780047536,
        0.0035980951506644487,
        -7.223693046398694e-06,
        -0.00011899365927092731,
        -0.0013254412915557623,
        -0.0005432170582935214,
        0.00014222257595974952,
        -0.000595457328017801,
        -0.006902844645082951,
        0.00012425988097675145,
        0.00461943494156003,
        -0.0006385974702425301,
        0.0010859956964850426,
        0.006486780010163784,
        0.0032022264786064625,
        -0.008757288567721844,
        -0.0028040867764502764,
        0.006732854526489973,
        0.005301122087985277,
        -0.002810872159898281,
        0.005626475438475609,
        0.005948872771114111,
        0.0022532774601131678,
        -0.008904228918254375,
        0.006847572512924671,
        0.00117668102029711,
        0.005476741120219231,
        0.007237368728965521,
        0.0073072356171905994,
        -0.011723370291292667,
        -0.0003277606738265604,
        -0.014437109231948853,
        0.0032696279231458902,
        0.0010144769912585616,
        0.005863876082003117,
        -0.017550166696310043,
        0.004142347723245621,
        -0.0006112669943831861,
        0.0009837577817961574,
        0.011563156731426716,
        0.0066606937907636166,
        0.004759330302476883,
        0.00572420796379447,
        -0.0029749644454568624,
        0.008095395751297474,
        0.0038958287332206964,
        0.0007458296022377908,
        0.006599431857466698,
        0.0017035307828336954,
        -0.0023411281872540712,
        0.005188705399632454,
        0.006070507224649191,
        0.0015977559378370643,
        0.00649255933240056,
        0.0010321984300389886,
        0.008638789877295494,
        0.005406085401773453,
        0.006676729768514633,
        0.0009045337792485952,
        0.007602721452713013,
        -0.018307656049728394,
        0.005354894325137138,
        0.007113527040928602,
        -0.0006710694287903607,
        0.010421333834528923,
        0.00470847450196743,
        0.0005324259982444346,
        0.0027730995789170265,
        -0.0010156615171581507,
        0.0009783348068594933,
        0.0028891481924802065,
        0.001564175821840763,
        -0.00018457489204593003,
        0.00019893048738595098,
        0.0023733789566904306,
        0.010789663530886173,
        0.001688392017967999,
        0.003684103488922119,
        0.010171374306082726,
        0.000914623262360692,
        0.00730794807896018,
        0.007309434935450554,
        -0.009609444998204708,
        0.009428028017282486,
        -0.004583810921758413,
        -0.01108735240995884,
        -0.0009797492530196905,
        -0.009708398953080177,
        0.0022312921937555075,
        0.006364365108311176,
        0.005602899007499218,
        0.007975354790687561,
        -0.0008741541532799602,
        0.006633237469941378,
        0.006395096890628338,
        0.006798282731324434,
        0.0006633462617173791,
        0.017250485718250275,
        0.014844815246760845,
        0.002365543507039547,
        -0.0015975256683304906,
        -0.007872686721384525,
        0.009915531612932682,
        -0.0008508149767294526,
        -0.017541935667395592,
        -0.00827906932681799,
        0.0008519758121110499,
        -0.0074648079462349415,
        -0.0038046431727707386,
        0.0014706057263538241,
        0.007579058408737183,
        -0.015903634950518608,
        -0.0006719041266478598,
        -0.006024624686688185,
        -0.0008336297469213605,
        0.006215978879481554,
        0.010680611245334148,
        0.003616837551817298,
        0.005558592267334461,
        -0.0009124740608967841,
        0.003990561701357365,
        -0.001753816963173449,
        0.007929118350148201,
        -0.008016491308808327,
        0.001160154351964593,
        -0.0038679735735058784,
        0.004638196900486946,
        -0.012058096937835217,
        0.005123254377394915,
        0.0016283470904454589,
        0.004677855875343084,
        -0.004632947966456413,
        0.000224621151573956,
        0.007756477687507868,
        0.0077462149783968925,
        -0.002495967550203204,
        0.00886794738471508,
        0.0008448280859738588,
        0.007991216145455837,
        -0.0010252431966364384,
        -0.014225335791707039,
        -0.011736596934497356,
        0.008096094243228436,
        0.003946850076317787,
        -0.015290613286197186,
        0.00213833199813962,
        0.009476719424128532,
        -9.030229557538405e-05,
        0.0018109800294041634,
        -0.021303951740264893,
        -0.0259702205657959,
        0.005938130896538496,
        -0.00854247622191906,
        -0.0007556798518635333,
        0.00897012185305357,
        0.0016120080836117268,
        0.008756129071116447,
        0.0004548770375549793,
        0.00855561438947916,
        0.0026792362332344055,
        -0.0013824265915900469,
        0.007243302185088396,
        0.005645923316478729,
        -0.0005712676211260259,
        0.0075624561868608,
        0.004209965001791716,
        0.0045764087699353695,
        0.000569378724321723,
        0.00543186254799366,
        0.0046424055472016335,
        0.011076400987803936,
        0.003280367236584425,
        0.008566929958760738,
        -0.013901006430387497,
        0.007207426242530346,
        0.005565997213125229,
        0.00742632569745183,
        -0.0001833980204537511,
        0.0015595104778185487,
        0.0015343293780460954,
        -0.004479009658098221,
        0.012345155701041222,
        0.011782605201005936,
        -0.0005233157426118851,
        -0.001400696113705635,
        0.0011982687283307314,
        0.00647213589400053,
        0.010219266638159752,
        0.000716445327270776,
        -0.016272328794002533,
        -8.831015293253586e-05,
        0.002495186636224389,
        -0.010057573206722736,
        -0.008333740755915642,
        -0.005156849976629019,
        -0.0014357686741277575,
        0.007589326705783606,
        -0.0012677039485424757,
        0.0009038284770213068,
        -0.00013001840852666646,
        -0.0005125509342178702,
        0.005610969383269548,
        0.00033211149275302887,
        0.0016783488681539893,
        -0.0007969184080138803,
        -0.002183635486289859,
        -0.009680455550551414,
        0.002370802452787757,
        -0.0021109257359057665,
        0.006286528892815113,
        -0.004867142532020807,
        -0.002906937152147293,
        -0.0014777544420212507,
        -0.00038130825851112604,
        -0.014540130272507668,
        -0.0023139456752687693,
        -0.0014131231000646949,
        0.0021239232737571,
        0.012530380859971046,
        0.0074643781408667564,
        -0.00019389571389183402,
        0.012813905254006386,
        0.004170415922999382,
        0.0013266445603221655,
        -0.016143733635544777,
        0.005009738728404045,
        0.008614704944193363,
        -0.004250751342624426,
        -0.017484355717897415,
        -0.0018310366431251168,
        0.008873491548001766,
        0.008739054203033447,
        0.013061299920082092,
        0.00587985385209322,
        0.007470485754311085,
        0.00707359379157424,
        0.01143440417945385,
        0.004004774149507284,
        -0.001312876120209694,
        -0.0010077868355438113,
        -0.016322050243616104,
        -0.0007454509031958878,
        0.005994786508381367,
        0.007995662279427052,
        0.00021409841428976506,
        0.003700679400935769,
        0.0027849129401147366,
        -0.001194528304040432,
        0.001069593708962202,
        0.009336878545582294,
        0.00674497801810503,
        0.002685709623619914,
        0.007292118854820728,
        -0.00911935605108738,
        0.0011478792876005173,
        -0.01655614748597145,
        -0.0018376944353803992,
        -0.0006922843749634922,
        0.009947036392986774,
        0.00015253225865308195,
        -0.0033661145716905594,
        -0.013491401448845863,
        0.00913164857774973,
        8.158267883118242e-05,
        0.0022042030468583107,
        -0.017071502283215523,
        0.006375941447913647,
        -0.0040745423175394535,
        -0.007052665110677481,
        7.193790224846452e-05,
        -0.0012430845526978374,
        0.0031559171620756388,
        0.001448463648557663,
        0.0008873661863617599,
        0.00027485721511766315,
        0.0012154473224654794,
        0.0019208801677450538,
        -0.0012496047420427203,
        -0.010211319662630558,
        -0.00021350452152546495,
        0.006785614416003227,
        4.200601688353345e-05,
        -9.099494491238147e-05,
        0.0056272405199706554,
        -0.00257475720718503,
        -0.015291653573513031,
        -0.007814494892954826,
        0.008183036930859089,
        0.005521269980818033,
        -0.0057421899400651455,
        0.0072874585166573524,
        0.005889912601560354,
        0.002541684079915285,
        -0.01522186677902937,
        0.009288767352700233,
        0.0020234871190041304,
        0.003492950461804867,
        0.009722083806991577,
        0.009285756386816502,
        -0.021162809804081917,
        -0.001645462354645133,
        -0.021578706800937653,
        0.005705644376575947,
        -0.0001252707006642595,
        0.00784726720303297,
        -0.027235854417085648,
        0.007194161880761385,
        0.00037221977254375815,
        0.0003919447190128267,
        0.01200818456709385,
        0.009283465333282948,
        0.007552178576588631,
        0.005803728010505438,
        -0.008908338844776154,
        0.011986237950623035,
        0.002216183580458164,
        0.0017780318157747388,
        0.007902736775577068,
        -0.0009944199118763208,
        -0.004627655725926161,
        0.0049489811062812805,
        0.005237496457993984,
        0.00022434385027736425,
        0.003992089536041021,
        0.001167983515188098,
        0.008498122915625572,
        0.005069906823337078,
        0.009820178151130676,
        0.0007812376716174185,
        0.012222404591739178,
        -0.02787386067211628,
        0.005279702600091696,
        0.01181020773947239,
        -0.000670046778395772,
        0.010893100872635841,
        0.0026424347888678312,
        -0.0003388519980944693,
        0.0007414293359033763,
        0.0016449203249067068,
        -0.00029720491147600114,
        0.0060050878673791885,
        0.002080801874399185,
        0.0018237066688016057,
        0.0029549894388765097,
        0.0011611630907282233,
        0.010643913410604,
        0.0006095157004892826,
        0.005097561981528997,
        0.011338955722749233,
        0.001284715486690402,
        0.0077838958241045475,
        0.005182569846510887,
        -0.017648184671998024,
        0.011113557033240795,
        -0.003249101573601365,
        -0.0166707132011652,
        0.0013706100871786475,
        -0.020503591746091843,
        0.0017126458697021008,
        0.007562222890555859,
        0.004717026371508837,
        0.010766071267426014,
        -0.00014377365005202591,
        0.008393327705562115,
        0.010490495711565018,
        0.007944314740598202,
        -0.0006455322145484388,
        0.02148251421749592,
        0.017433002591133118,
        0.0059278421103954315,
        -0.0007188133895397186,
        -0.01013745553791523,
        0.007663636468350887,
        -0.004129441455006599,
        -0.02952399104833603,
        -0.01414697989821434,
        0.00034633695031516254,
        -0.011747299693524837,
        -0.006253678817301989,
        0.0014593233354389668,
        0.00838713813573122,
        -0.025678489357233047,
        -0.0010950290597975254,
        -0.014532442204654217,
        -0.0018146851798519492,
        0.0035196614917367697,
        0.010224226862192154,
        0.003298742463812232,
        0.008233295753598213,
        -0.0035889851860702038,
        0.005106886848807335,
        0.0018793470226228237,
        0.012469541281461716,
        -0.01353453565388918,
        0.0016196490032598376,
        -0.0067148166708648205,
        0.006108956877142191,
        -0.01989271678030491,
        0.006907664239406586,
        0.0018321136012673378,
        0.0050609540194272995,
        -0.005788910202682018,
        0.00047352377441711724,
        0.008668246679008007,
        0.005479444283992052,
        -0.0047319186851382256,
        0.010118875652551651,
        -0.0009663793607614934,
        0.009189474396407604,
        0.0009644498350098729,
        -0.01889864355325699,
        -0.01872539333999157,
        0.004415859002619982,
        0.002420027507469058,
        -0.019402794539928436,
        0.0016553180757910013,
        0.006985544227063656,
        0.0011355618480592966,
        0.000706049962900579,
        -0.029282869771122932,
        -0.04027457535266876,
        0.008496053516864777,
        -0.01338273286819458,
        -0.0012859206181019545,
        0.010753892362117767,
        0.0013361972523853183,
        0.01277284324169159,
        0.003979146014899015,
        0.009767713956534863,
        -0.0009104886557906866,
        0.0009289043373428285,
        0.009223421104252338,
        0.007325493730604649,
        0.0002271536795888096,
        0.0045587592758238316,
        0.006590209901332855,
        0.005505412817001343,
        0.0016153417527675629,
        0.004207014571875334,
        0.008005751296877861,
        0.010758230462670326,
        0.0075151193886995316,
        0.010791085660457611,
        -0.022093821316957474,
        0.008701636455953121,
        0.002827916294336319,
        0.009986876510083675,
        0.00041416881140321493,
        0.0027651044074445963,
        0.001929289661347866,
        -0.007853016257286072,
        0.0164381992071867,
        0.012258293107151985,
        0.00029598193941637874,
        0.0008875808562152088,
        0.0015585314249619842,
        0.00893472321331501,
        0.010911410674452782,
        -0.0002827293355949223,
        -0.024357281625270844,
        -0.0007891632267273962,
        0.0017346225213259459,
        -0.01173496339470148,
        -0.010764065198600292,
        -0.0055881221778690815,
        -0.0010954338358715177,
        0.009565676562488079,
        -0.0013235154328867793,
        0.0018374136416241527,
        0.00010386025678599253,
        0.001993297366425395,
        0.006082445383071899,
        0.0008430057787336409,
        0.0015910965157672763,
        -0.0009616977185942233,
        -0.00687818368896842,
        -0.012403016909956932,
        0.0029010013677179813,
        -0.003041375195607543,
        0.008860902860760689,
        -0.010624703951179981,
        -0.006364696659147739,
        -0.0057515110820531845,
        -0.0010708185145631433,
        -0.020407089963555336,
        -0.00241831480525434,
        0.0013639177195727825,
        0.0024260233622044325,
        0.014456748962402344,
        0.004556831903755665,
        0.0019844286143779755,
        0.012608599849045277,
        0.006620649714022875,
        0.0012325694551691413,
        -0.02239772491157055,
        0.0085108308121562,
        0.01152388472110033,
        -0.012128633446991444,
        -0.029531240463256836,
        -0.005312902852892876,
        0.00763868261128664,
        0.012235015630722046,
        0.015015535987913609,
        0.0045403665862977505,
        0.008847267366945744,
        0.008105241693556309,
        0.015269084833562374,
        0.004787604324519634,
        -0.00023944396525621414,
        -0.0062538920901715755,
        -0.021999483928084373,
        0.0008018515654839575,
        0.011090920306742191,
        0.009168567135930061,
        0.00011756040476029739,
        0.002847451949492097,
        0.006514701060950756,
        -0.0029866204131394625,
        -0.0006208590930327773,
        0.006789080332964659,
        0.009252249263226986,
        0.003267599269747734,
        0.01235246006399393,
        -0.017410773783922195,
        -0.0014778634067624807,
        -0.026293529197573662,
        -0.006693798117339611,
        -0.001483845990151167,
        0.012454411946237087,
        -0.0010699231643229723,
        -0.0011420759838074446,
        -0.01859779842197895,
        0.012380489148199558,
        0.0006636909674853086,
        0.0032610222697257996,
        -0.008101473562419415,
        0.006948420777916908,
        9.06385321286507e-05,
        -0.0014137232210487127,
        0.0031355065293610096,
        -0.0009409341146238148,
        0.0014399780193343759,
        0.00012663834786508232,
        -0.0010699949925765395,
        -0.0005727990064769983,
        -0.0016974875470623374,
        0.0015306638088077307,
        -0.00039127920172177255,
        -0.00742430379614234,
        -0.0006708552245981991,
        0.003851725719869137,
        -0.0007818806916475296,
        -0.0016221741680055857,
        0.006426512263715267,
        0.0006742520490661263,
        -0.007279457990080118,
        -0.004547847434878349,
        0.0071192155592143536,
        0.004900204949080944,
        -0.0023006920237094164,
        0.006185123231261969,
        0.004152293317019939,
        0.0008692123228684068,
        -0.004615802317857742,
        0.006342635490000248,
        8.777927723713219e-05,
        0.002183003118261695,
        0.008953594602644444,
        0.006835428066551685,
        -0.009142723865807056,
        -8.898397209122777e-05,
        -0.014480075798928738,
        0.004412963520735502,
        0.0019004191271960735,
        0.006066426634788513,
        -0.016367390751838684,
        0.004578486550599337,
        0.00038115045754238963,
        0.0007000293699093163,
        0.011379431001842022,
        0.006215160712599754,
        0.005018162075430155,
        0.005077209789305925,
        -0.005294982809573412,
        0.010244602337479591,
        0.001952201360836625,
        -0.0011556035606190562,
        0.004644481930881739,
        -0.0005482022534124553,
        -0.0021304257679730654,
        0.004434939008206129,
        0.003042543539777398,
        0.0017287555383518338,
        0.005798940546810627,
        0.0014087781310081482,
        0.0072655342519283295,
        0.004667531233280897,
        0.0067282444797456264,
        0.0010762835154309869,
        0.00901514571160078,
        -0.0145316943526268,
        0.005493117030709982,
        0.009288324974477291,
        0.002714597387239337,
        0.008323621936142445,
        0.001847101142629981,
        0.0005050002946518362,
        0.00279611861333251,
        0.0013292202493175864,
        -0.0004273153899703175,
        0.003761368105188012,
        0.0019433388952165842,
        0.0013200545217841864,
        0.002062505343928933,
        0.0013669219333678484,
        0.011118954047560692,
        0.0013574680779129267,
        0.003959435969591141,
        0.00968201458454132,
        0.0009933868423104286,
        0.004737338051199913,
        0.004000905901193619,
        -0.00955097284168005,
        0.008971107192337513,
        -0.0031080502085387707,
        -0.010194284841418266,
        0.0012554358690977097,
        -0.009734000079333782,
        0.005601422395557165,
        0.00697550643235445,
        0.003992992918938398,
        0.007810809183865786,
        -0.00034365843748673797,
        0.008544845506548882,
        0.008542045950889587,
        0.008196908049285412,
        -0.00024047288752626628,
        0.01760794408619404,
        0.011409197933971882,
        0.002951110014691949,
        0.0013029309920966625,
        -0.006087129935622215,
        0.008445448242127895,
        -0.00384874502196908,
        -0.015654083341360092,
        -0.008457781746983528,
        0.001591946347616613,
        -0.004984267987310886,
        -0.0024449897464364767,
        -0.001576369977556169,
        0.007933655753731728,
        -0.013422333635389805,
        0.001109040342271328,
        -0.005598030984401703,
        0.002763529075309634,
        0.005320735741406679,
        0.00979869719594717,
        0.00375462812371552,
        0.0037845969200134277,
        0.0004008540417999029,
        0.0037440843880176544,
        0.0006689903093501925,
        0.006904810667037964,
        -0.00623083533719182,
        0.0017878123326227069,
        -0.0019383793696761131,
        0.002782669384032488,
        -0.009846345521509647,
        0.005682310089468956,
        0.0010192734189331532,
        0.003114633960649371,
        -0.0016514909220859408,
        0.0008575015817768872,
        0.006885340437293053,
        0.004488395061343908,
        -0.002752861939370632,
        0.0051993015222251415,
        0.0006939598242752254,
        0.005151745863258839,
        0.00021287368144840002,
        -0.011647607199847698,
        -0.008249974809587002,
        0.005064358003437519,
        0.0028375450056046247,
        -0.012313642539083958,
        0.0020868396386504173,
        0.009094424545764923,
        -0.0001761898020049557,
        -0.0008651052485220134,
        -0.018801072612404823,
        -0.02322516404092312,
        0.005979590583592653,
        -0.008582992479205132,
        0.001759745879098773,
        0.007222726475447416,
        0.00015713019820395857,
        0.008664317429065704,
        0.0038241876754909754,
        0.00915407482534647,
        0.0026476013008505106,
        -0.0003159059851896018,
        0.0072734602726995945,
        0.006604759022593498,
        0.001274798414669931,
        0.004214564338326454,
        0.00708274869248271,
        0.003710168646648526,
        0.0009644064703024924,
        0.005252185743302107,
        0.007030192296952009,
        0.008281915448606014,
        0.005470024421811104,
        0.00792520958930254,
        -0.013174384832382202,
        0.004694747272878885,
        0.006730849854648113,
        0.00915354024618864,
        -0.00012079816951882094,
        0.0033283063676208258,
        0.0010255237575620413,
        -0.005176234524697065,
        0.012752436101436615,
        0.010305622592568398,
        0.0013107716804370284,
        0.0007523421663790941,
        -0.001297969021834433,
        0.0057274275459349155,
        0.0072807506658136845,
        0.0020110593177378178,
        -0.015330902300775051,
        0.0019415365532040596,
        0.0011010286398231983,
        -0.006298758555203676,
        -0.007867071777582169,
        -0.0021191623527556658,
        -0.0013764945324510336,
        0.009273670613765717,
        0.0009284907719120383,
        0.001268133637495339,
        0.0016134451143443584,
        0.0015594006981700659,
        0.0053033712320029736,
        0.0006488482467830181,
        0.0023844100069254637,
        -0.000303196778986603,
        -0.0014543230645358562,
        -0.007954045198857784,
        0.0023929220624268055,
        0.0002451104228384793,
        0.007829902693629265,
        -0.005605991464108229,
        -0.003113706363365054,
        -0.0010217864764854312,
        0.001683241338469088,
        -0.011289112269878387,
        -0.0021648043766617775,
        -0.0002515926898922771,
        0.0050001805648207664,
        0.011593577452003956,
        0.004642372019588947,
        -0.0007135390187613666,
        0.013109534978866577,
        0.003725160378962755,
        0.0019168833969160914,
        -0.012140621431171894,
        0.0048870304599404335,
        0.008367876522243023,
        -0.0025852080434560776,
        -0.015545332804322243,
        -0.0036554241087287664,
        0.007938355207443237,
        0.00926908664405346,
        0.010296710766851902,
        0.003417608328163624,
        0.005358314141631126,
        0.007223441731184721,
        0.011500452645123005,
        0.004364684224128723,
        0.0021418530959635973,
        -0.001885108300484717,
        -0.014452486298978329,
        0.0011797932675108314,
        0.007480343338102102,
        0.007759533356875181,
        0.0007286635809578001,
        0.004703626502305269,
        0.005271553061902523,
        0.0005513365031220019,
        0.0009924846235662699,
        0.00867523904889822,
        0.005955725442618132,
        0.0006008666241541505,
        0.0075241569429636,
        -0.010642253793776035,
        0.0013491575373336673,
        -0.01532796025276184,
        -0.00045621683239005506,
        0.0012390960473567247,
        0.009211203083395958,
        -0.00016088651318568736,
        0.0001482979132561013,
        -0.011301562190055847,
        0.009602850303053856,
        0.0011332930298522115,
        0.003222055733203888,
        -0.005495263263583183,
        0.00703662633895874,
        -0.002020813524723053,
        0.0002384365798207,
        0.0007738167187198997,
        -0.00041909608989953995,
        0.0029032640159130096,
        0.0008087389869615436,
        -0.000798727385699749,
        0.001969878328964114,
        -0.00022890754917170852,
        -0.00038842647336423397,
        -0.0009312182664871216,
        -0.00624576723203063,
        0.002719008829444647,
        0.005079719237983227,
        0.000774328364059329,
        -0.0014433253090828657,
        0.0072901612147688866,
        0.0033403029665350914,
        -0.005138189997524023,
        -0.0035683666355907917,
        0.006976153701543808,
        0.0035634858068078756,
        -0.003199886530637741,
        0.0062519703060388565,
        0.0067497375421226025,
        0.004074473865330219,
        -0.002506951102986932,
        0.005774919409304857,
        -0.0009166061063297093,
        0.0019820877350866795,
        0.0054435147903859615,
        0.008972982876002789,
        -0.00870460644364357,
        0.0009878691053017974,
        -0.011464239098131657,
        0.005269249901175499,
        0.0011451899772509933,
        0.005322262644767761,
        -0.012566288001835346,
        0.003904525190591812,
        -0.0007523999083787203,
        0.00013691523054149002,
        0.007346705067902803,
        0.004791338462382555,
        0.002899558050557971,
        0.005467248614877462,
        -0.0036434317007660866,
        0.006949073635041714,
        0.003535337746143341,
        -0.0010883040959015489,
        0.005629105493426323,
        -0.0016005301149562001,
        -0.000601951265707612,
        0.0039008199237287045,
        0.005304030142724514,
        0.00045454659266397357,
        0.004943883046507835,
        0.0011577162658795714,
        0.00956756342202425,
        0.0030279336497187614,
        0.007267779670655727,
        0.0011880933307111263,
        0.005823022685945034,
        -0.011778229847550392,
        0.0028334278613328934,
        0.008421149104833603,
        0.0009484468610025942,
        0.008234189823269844,
        0.004288312513381243,
        0.0015439591370522976,
        0.004420944023877382,
        0.0014859305229038,
        -0.000457134039606899,
        0.002757105976343155,
        0.0023013600148260593,
        0.00042863740236498415,
        -3.161865606671199e-05,
        0.0013779581058770418,
        0.010017350316047668,
        -0.0008354571182280779,
        0.002367251319810748,
        0.009310089983046055,
        0.001745787332765758,
        0.0070531959645450115,
        0.004412837792187929,
        -0.00798031222075224,
        0.008502088487148285,
        -0.002118612639605999,
        -0.007873998954892159,
        0.001074560103006661,
        -0.0064467862248420715,
        0.0028633815236389637,
        0.0047994339838624,
        0.004889296367764473,
        0.00771168852224946,
        0.0003532713162712753,
        0.0062185777351260185,
        0.004921188578009605,
        0.005679989233613014,
        0.0014441226376220584,
        0.013833434320986271,
        0.011895784176886082,
        0.004797333385795355,
        -0.0005555838579311967,
        -0.004508017562329769,
        0.006953877862542868,
        -0.0006258948124013841,
        -0.011924540624022484,
        -0.00608633691444993,
        0.001739584025926888,
        -0.003520124824717641,
        -0.002627025591209531,
        -0.0010741290170699358,
        0.008508477360010147,
        -0.009459687396883965,
        0.0018618772737681866,
        -0.0045057362876832485,
        0.001413954421877861,
        0.004249565303325653,
        0.007491284981369972,
        0.004279798362404108,
        0.005956029985100031,
        0.00033018828253261745,
        0.003917761147022247,
        -3.361997369211167e-05,
        0.008491006679832935,
        -0.0035375645384192467,
        0.000947178399655968,
        -0.0006847761105746031,
        0.00452963775023818,
        -0.005965470336377621,
        0.006453181151300669,
        0.0016749731730669737,
        0.005190409719944,
        -0.00016258892719633877,
        -0.0007930948049761355,
        0.007581525482237339,
        0.005468841642141342,
        -0.002431039698421955,
        0.0050093308091163635,
        0.001504510291852057,
        0.006758089642971754,
        -0.0003089621604885906,
        -0.007364845369011164,
        -0.005791512317955494,
        0.006772730499505997,
        0.005086269695311785,
        -0.009546098299324512,
        0.002233975101262331,
        0.0072218626737594604,
        0.0019039319595322013,
        -0.0001651939528528601,
        -0.012775531969964504,
        -0.01714683324098587,
        0.005961345974355936,
        -0.004700344521552324,
        -0.0013173917541280389,
        0.005410417448729277,
        0.0001182577179861255,
        0.007950927130877972,
        0.0012887995690107346,
        0.008168702013790607,
        0.001716405968181789,
        -0.0011084043653681874,
        0.006007844116538763,
        0.00496089830994606,
        -0.00038984991260804236,
        0.006114724092185497,
        0.005933630745857954,
        0.004009590484201908,
        -0.000489753030706197,
        0.005672768224030733,
        0.0033449605107307434,
        0.009420817717909813,
        0.004815741442143917,
        0.010145573876798153,
        -0.008944009430706501,
        0.0029912397731095552,
        0.006554026622325182,
        0.0059575606137514114,
        -0.0009083490003831685,
        0.0035601540002971888,
        -0.0003114096762146801,
        -0.0030366836581379175,
        0.011349331587553024,
        0.010559819638729095,
        -0.0006573720602318645,
        -0.0003251427551731467,
        -0.0006499502342194319,
        0.005757324863225222,
        0.0057218316942453384,
        -0.0007885188097134233,
        -0.011571294628083706,
        -0.00012540150783024728,
        0.003486545756459236,
        -0.005277893505990505,
        -0.0030329532455652952,
        -0.0031796812545508146,
        0.00031878455774858594,
        0.006955594755709171,
        0.0018591438420116901,
        0.0031839811708778143,
        -0.0005750380805693567,
        0.00018534880655352026,
        0.004434722475707531,
        -0.0001646906603127718,
        0.004207333084195852,
        -0.0013277992838993669,
        -0.0005357895279303193,
        -0.003875462803989649,
        0.0022172199096530676,
        0.0010998343350365758,
        0.005970621481537819,
        -0.004633109550923109,
        -0.0032469243742525578,
        -0.0012235338799655437,
        0.001900318544358015,
        -0.00831407867372036,
        -0.002426551654934883,
        0.0006385067827068269,
        0.004774897359311581,
        0.009057500399649143,
        0.006613997742533684,
        -0.0008416316704824567,
        0.010205740109086037,
        0.00379034667275846,
        0.0016465442022308707,
        -0.010769560001790524,
        0.005402496550232172,
        0.0076823849231004715,
        -0.003342257346957922,
        -0.01078186184167862,
        -0.0015052129747346044,
        0.006288511678576469,
        0.006939140614122152,
        0.011428751982748508,
        0.005743459332734346,
        0.006870256271213293,
        0.005511511117219925,
        0.007732437923550606,
        0.005150993354618549,
        -0.0011481971014291048,
        -0.0004576180945150554,
        -0.00908290222287178,
        0.0003420104330871254,
        0.0051777842454612255,
        0.006982648279517889,
        0.0018786154687404633,
        0.0018643491202965379,
        0.0025466058868914843,
        0.000751385698094964,
        0.0006077535217627883,
        0.006056159734725952,
        0.0070254867896437645,
        0.0028543174266815186,
        0.006301303394138813,
        -0.005255092401057482,
        0.0007732567028142512,
        -0.011098749004304409,
        0.00034183336538262665,
        0.000864241796080023,
        0.008454222232103348,
        7.21258475095965e-05,
        -0.0017541771521791816,
        -0.006010766606777906,
        0.0078515550121665,
        0.002236564178019762,
        0.003854856826364994,
        -0.014009281992912292,
        0.005840167868882418,
        -0.0041283173486590385,
        -0.003601508215069771,
        0.0021068083588033915,
        0.0019023999338969588,
        0.002785516669973731,
        0.0011029746383428574,
        0.0018790297908708453,
        0.0011529442854225636,
        0.00012799636169802397,
        0.0005676771397702396,
        0.00030555675039067864,
        -0.007058531511574984,
        0.0024390381295233965,
        0.00404419144615531,
        0.002044207649305463,
        0.0005342919612303376,
        0.004807550925761461,
        0.0005040981923229992,
        -0.009240017272531986,
        -0.005900443531572819,
        0.006145227234810591,
        0.0030890193302184343,
        -0.0028369484934955835,
        0.005916360765695572,
        0.0042930408380925655,
        0.004078827332705259,
        -0.01186230219900608,
        0.007179264910519123,
        0.000728577608242631,
        0.002347879810258746,
        0.007114255800843239,
        0.007412992417812347,
        -0.0136001231148839,
        0.0008284192299470305,
        -0.015603020787239075,
        0.006594319362193346,
        -0.0008404841064475477,
        0.003932211548089981,
        -0.020645661279559135,
        0.006928396411240101,
        -0.0010025660740211606,
        0.002326879883185029,
        0.008545172400772572,
        0.004957524593919516,
        0.005748075433075428,
        0.00302703445777297,
        -0.00541757931932807,
        0.007248525507748127,
        0.0018557989969849586,
        0.00041946431156247854,
        0.004149500280618668,
        -0.0010094463359564543,
        -0.003718223189935088,
        0.004818945657461882,
        0.003839043201878667,
        0.0005460313986986876,
        0.004207788035273552,
        0.0015870325732976198,
        0.009530066512525082,
        0.005083220545202494,
        0.006709728389978409,
        0.0015401151031255722,
        0.00848148763179779,
        -0.020449846982955933,
        0.006982961669564247,
        0.008535108529031277,
        -8.867854376148898e-06,
        0.009772246703505516,
        0.0014984231675043702,
        -0.0012222490040585399,
        0.003325356636196375,
        -0.0010142417158931494,
        -6.991698228375753e-06,
        0.004835157655179501,
        0.0007482978398911655,
        0.0006594895385205746,
        0.0007501713698729873,
        0.0023560477420687675,
        0.011346633546054363,
        0.0004142539983149618,
        0.002777975285425782,
        0.010966196656227112,
        0.003076073480769992,
        0.0053967926651239395,
        0.0055211917497217655,
        -0.013204453513026237,
        0.009474759921431541,
        -0.004216211382299662,
        -0.0126894386485219,
        0.000886311405338347,
        -0.014544797129929066,
        0.0026072601322084665,
        0.006087611895054579,
        0.0031506372615695,
        0.009046346880495548,
        0.002146545797586441,
        0.007896077819168568,
        0.00898115336894989,
        0.007216681260615587,
        0.0005315390881150961,
        0.017266420647501945,
        0.012739271856844425,
        0.0057587088085711,
        -0.0010361230233684182,
        -0.009627639316022396,
        0.008970240131020546,
        -0.0007255751988850534,
        -0.022330746054649353,
        -0.01143453735858202,
        -0.0009647081606090069,
        -0.006917077116668224,
        -0.006406176835298538,
        0.002234398853033781,
        0.007121609523892403,
        -0.018816987052559853,
        0.0006095868302509189,
        -0.008865674957633018,
        0.0017842496745288372,
        0.005097974091768265,
        0.007625183556228876,
        0.004727015271782875,
        0.0041584656573832035,
        -0.0026457339990884066,
        0.0029412787407636642,
        0.0012358505045995116,
        0.007755191996693611,
        -0.009716667234897614,
        -0.0010945664253085852,
        -0.006990487687289715,
        0.003900360083207488,
        -0.01466593611985445,
        0.00505553325638175,
        0.0021582297049462795,
        0.0018574307905510068,
        -0.0044276900589466095,
        0.0015500281006097794,
        0.00836869329214096,
        0.004865752067416906,
        -0.003396993735805154,
        0.007789088413119316,
        0.0003825272433459759,
        0.008439779281616211,
        0.002227650722488761,
        -0.01574714668095112,
        -0.013035831972956657,
        0.0064976029098033905,
        0.0034384545870125294,
        -0.01712982915341854,
        0.004091098438948393,
        0.0059428028762340546,
        0.0026569312904030085,
        0.0013848711969330907,
        -0.023560747504234314,
        -0.030209723860025406,
        0.005385831464082003,
        -0.011591280810534954,
        0.000506132491864264,
        0.007073723245412111,
        -0.0003999271721113473,
        0.008887642063200474,
        0.001723977387882769,
        0.009816408157348633,
        -0.001194041920825839,
        0.0015302206156775355,
        0.004875632468611002,
        0.0068092355504632,
        -0.0013114999746903777,
        0.006412610877305269,
        0.005377357825636864,
        0.004812522791326046,
        0.0017120155971497297,
        0.005696444772183895,
        0.005135614424943924,
        0.009492187760770321,
        0.006192482076585293,
        0.009511247277259827,
        -0.01786312833428383,
        0.004379228688776493,
        0.004947550594806671,
        0.007483211345970631,
        0.0009522024774923921,
        0.0013617307413369417,
        0.0003703754919115454,
        -0.004967541433870792,
        0.012397296726703644,
        0.010743613354861736,
        0.0027332822792232037,
        0.0004076740297023207,
        0.0021268604323267937,
        0.007485398091375828,
        0.010499650612473488,
        -0.0012200381606817245,
        -0.016526002436876297,
        0.0010941027430817485,
        0.0013240139232948422,
        -0.009503355249762535,
        -0.006612780038267374,
        -0.004536824766546488,
        -0.0011794822057709098,
        0.008538753725588322,
        0.0016411053948104382,
        -0.0006016761180944741,
        -0.0003433070669416338,
        0.0004067986155860126,
        0.005395755171775818,
        0.001835079863667488,
        0.0032534110359847546,
        -0.0002630751405376941,
        -0.0034426371566951275,
        -0.008576064370572567,
        0.0025879782624542713,
        -0.0017116054659709334,
        0.005129970610141754,
        -0.006392679642885923,
        -0.00450882688164711,
        -0.002504195785149932,
        -0.0008424256229773164,
        -0.01338794082403183,
        -0.0007996628410182893,
        0.0005606593331322074,
        0.0038551478646695614,
        0.009583034552633762,
        0.004466201178729534,
        0.0018974337726831436,
        0.011599204502999783,
        0.006833376828581095,
        0.0014872560277581215,
        -0.016585949808359146,
        0.005824065767228603,
        0.007176095619797707,
        -0.006016826257109642,
        -0.022468803450465202,
        -0.0014735652366653085,
        0.007491277065128088,
        0.007971299812197685,
        0.01153559610247612,
        0.004359973128885031,
        0.007853532209992409,
        0.005879797972738743,
        0.012982373125851154,
        0.005020673852413893,
        0.0019046564120799303,
        -0.0049412609077990055,
        -0.017941726371645927,
        -0.0014606800395995378,
        0.00913090631365776,
        0.006650480907410383,
        0.0008167466730810702,
        0.0045593902468681335,
        0.004133798647671938,
        -0.001270965440198779,
        0.0015062897000461817,
        0.008027290925383568,
        0.0052754878997802734,
        0.001495330361649394,
        0.009925554506480694,
        -0.012375920079648495,
        -0.002445625839754939,
        -0.019625019282102585,
        -0.002332716016098857,
        5.8112218539463356e-05,
        0.00929579883813858,
        0.002403156366199255,
        -0.0019254448125138879,
        -0.015081183053553104,
        0.010898741893470287,
        0.0009369503241032362,
        0.0023588300682604313,
        -0.011056720279157162,
        0.0065705860033631325,
        -0.0009020190336741507,
        -0.000756255176384002,
        0.0017774645239114761,
        0.0007410571561194956,
        0.0046287416480481625,
        0.0010302115697413683,
        0.00011108402395620942,
        0.0016668566968291998,
        0.0012047913623973727,
        -0.0017527160234749317,
        0.0018227610271424055,
        -0.00877839233726263,
        0.0019556470215320587,
        0.006435391493141651,
        0.0011195652186870575,
        0.0014844969846308231,
        0.006968870759010315,
        0.0006716398638673127,
        -0.009078025817871094,
        -0.004262854345142841,
        0.009676216170191765,
        0.00628262385725975,
        -0.0017380660865455866,
        0.0065309093333780766,
        0.005037460010498762,
        0.0012046966003254056,
        -0.00767428707331419,
        0.0067776585929095745,
        0.0003266269632149488,
        0.0026428871788084507,
        0.007830285467207432,
        0.009828181006014347,
        -0.014558646827936172,
        -0.0005537603865377605,
        -0.016082480549812317,
        0.004123622085899115,
        0.0016034222207963467,
        0.0037808686029165983,
        -0.019891483709216118,
        0.00588972307741642,
        -0.0008624300826340914,
        0.0004031088901683688,
        0.012766064144670963,
        0.008273129351437092,
        0.0052822427824139595,
        0.00508749857544899,
        -0.003940854221582413,
        0.011248152703046799,
        0.0034238649532198906,
        -0.0004163446428719908,
        0.004752451088279486,
        0.0005275839939713478,
        -0.0008737366297282279,
        0.006242966745048761,
        0.005811545066535473,
        0.001498588128015399,
        0.00699840672314167,
        -0.00156378501560539,
        0.010343222878873348,
        0.005270970053970814,
        0.0068485792726278305,
        -0.0001997125946218148,
        0.010022124275565147,
        -0.02019306644797325,
        0.004288352560251951,
        0.009432436898350716,
        0.0005542060825973749,
        0.009868007153272629,
        0.003131918143481016,
        -0.000986576429568231,
        0.0036316663026809692,
        0.001083047711290419,
        0.000145580037496984,
        0.005316106136888266,
        0.003745697671547532,
        0.0003194017626810819,
        0.00018019472190644592,
        0.0004280832363292575,
        0.012104812078177929,
        -0.0009239107603207231,
        0.003750009462237358,
        0.01030522957444191,
        -0.0003182764630764723,
        0.00549005251377821,
        0.00468717934563756,
        -0.012689147144556046,
        0.008557033725082874,
        -0.004060302395373583,
        -0.012339767068624496,
        -0.00014424654364120215,
        -0.012001357972621918,
        0.002904657507315278,
        0.006200989242643118,
        0.005253172013908625,
        0.006938443519175053,
        -0.0014840664807707071,
        0.007504589390009642,
        0.007598312105983496,
        0.006666617467999458,
        6.756496441084892e-05,
        0.01955607160925865,
        0.015127035789191723,
        0.004285913892090321,
        0.0012816907837986946,
        -0.00919728446751833,
        0.0082516148686409,
        -0.0019648352172225714,
        -0.022518178448081017,
        -0.010811974294483662,
        0.0006913217366673052,
        -0.005631218198686838,
        -0.005330474115908146,
        0.00019333853560965508,
        0.010209722444415092,
        -0.018530970439314842,
        -5.4075811931397766e-05,
        -0.007974154315888882,
        -0.0007058712653815746,
        0.003390461904928088,
        0.011457385495305061,
        0.0051207151263952255,
        0.006473153363913298,
        -0.00248957728035748,
        0.0030070014763623476,
        -8.856317435856909e-05,
        0.008270647376775742,
        -0.011738543398678303,
        -0.0005661679897457361,
        -0.004434306174516678,
        0.0037228751461952925,
        -0.013721130788326263,
        0.005912836641073227,
        0.0007394251297228038,
        0.0022713416256010532,
        -0.004817938432097435,
        0.0003614909655880183,
        0.006225965451449156,
        0.005094804801046848,
        -0.005896426271647215,
        0.006711544003337622,
        -0.001375049352645874,
        0.006756396498531103,
        -9.10327162273461e-06,
        -0.015524069778621197,
        -0.012835569679737091,
        0.007884347811341286,
        0.005659354384988546,
        -0.015689734369516373,
        0.0006629839190281928,
        0.009901951998472214,
        0.0031128183472901583,
        -0.000463433243567124,
        -0.0228146780282259,
        -0.02894325740635395,
        0.007881427183747292,
        -0.009479534812271595,
        6.545192445628345e-05,
        0.007351670879870653,
        0.0002094498777296394,
        0.00985539611428976,
        0.0022048752289265394,
        0.009237774647772312,
        0.002155192894861102,
        -0.00015791720943525434,
        0.009766406379640102,
        0.004635203164070845,
        -0.0004083521489519626,
        0.007931754924356937,
        0.004557360894978046,
        0.0038919972721487284,
        -0.0008519411203451455,
        0.004231829196214676,
        0.0049786316230893135,
        0.00894487276673317,
        0.005032506305724382,
        0.010254794731736183,
        -0.016716765239834785,
        0.0038728469517081976,
        0.007010906469076872,
        0.0082431985065341,
        0.0004994701594114304,
        0.0010786515194922686,
        -0.0017608851194381714,
        -0.005537513643503189,
        0.012085233815014362,
        0.011337853036820889,
        0.0025951163843274117,
        0.0005926318699494004,
        -0.0003816558455582708,
        0.008849349804222584,
        0.007537348661571741,
        -0.0016656388761475682,
        -0.017997324466705322,
        0.000732220069039613,
        0.0025457534939050674,
        -0.010908178053796291,
        -0.009218566119670868,
        -0.004479664843529463,
        0.0008839149377308786,
        0.008657817728817463,
        0.0015266062691807747,
        0.0007501979707740247,
        -0.0005651761894114316,
        0.0014783148653805256,
        0.006628221366554499,
        -0.0016964866081252694,
        0.004479191731661558,
        -0.0004780681920237839,
        -0.0015371013432741165,
        -0.008807278238236904,
        0.002763288328424096,
        -0.0029806136153638363,
        0.0056306892074644566,
        -0.006370070390403271,
        -0.0034054075367748737,
        -0.0007820098544470966,
        0.0003803051949944347,
        -0.012658967636525631,
        -0.0006006035837344825,
        0.0015568147646263242,
        0.004716615192592144,
        0.012398041784763336,
        0.004988073371350765,
        -3.2079984521260485e-05,
        0.014057635329663754,
        0.007654683198779821,
        0.0006961591425351799,
        -0.015095588751137257,
        0.0072821155190467834,
        0.01072557084262371,
        -0.004781173076480627,
        -0.02203681506216526,
        -0.0015294553013518453,
        0.008989917114377022,
        0.008037296123802662,
        0.012413978576660156,
        0.006638816092163324,
        0.006731723435223103,
        0.007626190781593323,
        0.012011798098683357,
        0.0023278039880096912,
        0.0002374611794948578,
        -0.0019109839340671897,
        -0.018854277208447456,
        -0.00030740906368009746,
        0.0061589619144797325,
        0.006814137101173401,
        0.0002709922264330089,
        0.003783280961215496,
        0.004630774259567261,
        -0.0013884700601920485,
        -0.0010844097705557942,
        0.007766321767121553,
        0.005134804639965296,
        0.0007602808764204383,
        0.008858040906488895,
        -0.011295552365481853,
        0.0008726637461222708,
        -0.018642621114850044,
        -0.0026588686741888523,
        0.0008397680940106511,
        0.010876301676034927,
        0.00041099422378465533,
        -0.0033878155518323183,
        -0.015059944242238998,
        0.00938422791659832,
        -0.0014916113577783108,
        0.005228800233453512,
        -0.00880243256688118,
        0.009725270792841911,
        -0.0027991868555545807,
        -0.0007272640941664577,
        0.0030835075303912163,
        0.0014112296048551798,
        0.0030852528288960457,
        -0.0015140119940042496,
        7.427231321344152e-05,
        -0.00014426917186938226,
        0.0003972584963776171,
        0.00047574652126058936,
        -0.0002809218131005764,
        -0.004725445993244648,
        8.658946171635762e-05,
        0.006375652272254229,
        0.0017362271901220083,
        0.0007555183838121593,
        0.007147247903048992,
        0.0027326662093400955,
        -0.0037183782551437616,
        -0.0044435979798436165,
        0.00648054014891386,
        0.004476997070014477,
        -0.0011430629529058933,
        0.006703588645905256,
        0.005811449605971575,
        0.0014927289448678493,
        -0.002923509804531932,
        0.00808753166347742,
        0.0012290218146517873,
        0.004470528569072485,
        0.00833281222730875,
        0.00857514701783657,
        -0.007733554113656282,
        0.0009837151737883687,
        -0.01245814561843872,
        0.005747735500335693,
        -0.0010991159360855818,
        0.005733101163059473,
        -0.012144000269472599,
        0.0034222197718918324,
        0.000718262861482799,
        0.0004624103312380612,
        0.009446228854358196,
        0.00673314044252038,
        0.003835278330370784,
        0.003617765149101615,
        -0.0010150279849767685,
        0.010469503700733185,
        0.0009379244293086231,
        -0.0004504887037910521,
        0.004717207048088312,
        0.0008478525560349226,
        -0.0009661652729846537,
        0.00579131580889225,
        0.006138992961496115,
        0.0002278979663969949,
        0.004909489769488573,
        -0.001415344886481762,
        0.008782444521784782,
        0.006467831786721945,
        0.007462406996637583,
        -0.0011764573864638805,
        0.00834322813898325,
        -0.013122500851750374,
        0.006651216186583042,
        0.009302467107772827,
        0.0013003095518797636,
        0.011194233782589436,
        0.004885417874902487,
        -0.0003258666838519275,
        0.0033373991027474403,
        0.0007894447189755738,
        -0.0005266230436973274,
        0.002794169820845127,
        0.00032670641667209566,
        9.716204658616334e-05,
        0.0006269827135838568,
        0.004024202469736338,
        0.011961696669459343,
        -0.0006389913614839315,
        0.0030848230235278606,
        0.00870438665151596,
        0.0006398344412446022,
        0.00637034373357892,
        0.005599951837211847,
        -0.00812140665948391,
        0.007113415747880936,
        -0.001974926795810461,
        -0.007885134778916836,
        -0.0006793722277507186,
        -0.00656770309433341,
        0.005336497910320759,
        0.0070551238022744656,
        0.005738602951169014,
        0.008107899688184261,
        0.0014534826623275876,
        0.008454173803329468,
        0.006954961456358433,
        0.0058832247741520405,
        0.0020267332438379526,
        0.014710016548633575,
        0.013184627518057823,
        0.004092106129974127,
        0.0014750417321920395,
        -0.004827596712857485,
        0.008283589035272598,
        -0.0009172789286822081,
        -0.013260415755212307,
        -0.007119831163436174,
        0.0016776646953076124,
        -0.0022830870002508163,
        -0.0031754663214087486,
        -0.001367131364531815,
        0.008144562132656574,
        -0.013981758616864681,
        -0.001414096332155168,
        -0.005114517640322447,
        -0.00038037821650505066,
        0.004247406497597694,
        0.011544596403837204,
        0.0021501388400793076,
        0.005060433875769377,
        -0.0005574303213506937,
        0.004357348661869764,
        -0.0011419251095503569,
        0.00894845463335514,
        -0.007609919644892216,
        -0.0018552474211901426,
        -0.002277971711009741,
        0.005717047490179539,
        -0.010371166281402111,
        0.006661111023277044,
        0.0022464110516011715,
        0.0039871372282505035,
        -0.001263451878912747,
        0.00041899646748788655,
        0.00499760964885354,
        0.006558924913406372,
        -0.002728934632614255,
        0.007543903775513172,
        -0.001194068812765181,
        0.007323432248085737,
        0.00160304456949234,
        -0.008977356366813183,
        -0.007115276530385017,
        0.007613904308527708,
        0.003524151397868991,
        -0.011273129843175411,
        0.001541315228678286,
        0.008987067267298698,
        0.0027839376125484705,
        -0.0011273686541244388,
        -0.014276189729571342,
        -0.017125913873314857,
        0.0050168284215033054,
        -0.00518553052097559,
        0.0016772635281085968,
        0.006191760767251253,
        -0.0015380368568003178,
        0.011478330940008163,
        0.0021958413999527693,
        0.00867094099521637,
        0.002203304786235094,
        0.0007137058419175446,
        0.008778654038906097,
        0.005885856691747904,
        0.00101358606480062,
        0.006737786345183849,
        0.005165740381926298,
        0.006229333579540253,
        0.0011951212072744966,
        0.006005964707583189,
        0.0039430358447134495,
        0.00860286969691515,
        0.004011724144220352,
        0.008862568996846676,
        -0.01120777428150177,
        0.0030670547857880592,
        0.006610841955989599,
        0.008536335080862045,
        0.0006975706783123314,
        0.000574860954657197,
        -0.0013830113457515836,
        -0.0016488410765305161,
        0.00968201644718647,
        0.01231282576918602,
        0.0004994653863832355,
        -0.001998928841203451,
        0.0012082544853910804,
        0.0069800009950995445,
        0.0077385064214468,
        -0.0015197944594547153,
        -0.012834636494517326,
        1.7109061445808038e-05,
        0.0010093171149492264,
        -0.006235388573259115,
        -0.0057218922302126884,
        -0.0015347927110269666,
        -0.0008480108226649463,
        0.00896766409277916,
        0.0012779420940205455,
        0.0020809557754546404,
        -0.00024299134383909404,
        -0.0017231005476787686,
        0.005000882316380739,
        0.0003589642292354256,
        0.004254971630871296,
        -0.0017659737495705485,
        -0.0011039628880098462,
        -0.0057140071876347065,
        0.0029283345211297274,
        0.00017528994067106396,
        0.006978738587349653,
        -0.001923941308632493,
        -0.004901914857327938,
        0.0006544097559526563,
        0.0007235481170937419,
        -0.00827096588909626,
        -0.0032689941581338644,
        0.0010970616713166237,
        0.005030210129916668,
        0.010386795736849308,
        0.006633537355810404,
        -0.0006176158203743398,
        0.01050554495304823,
        0.005231112707406282,
        -0.001049201237037778,
        -0.009709440171718597,
        0.005894399248063564,
        0.008703544735908508,
        -0.0035593300126492977,
        -0.013031711801886559,
        -0.0013052462600171566,
        0.006411775015294552,
        0.008228602819144726,
        0.012310279533267021,
        0.004594283644109964,
        0.007195333018898964,
        0.00815829262137413,
        0.011269042268395424,
        0.005217304918915033,
        0.0020494821947067976,
        0.000653555616736412,
        -0.009762969799339771,
        0.000837448169477284,
        0.007375838700681925,
        0.006158078089356422,
        -0.00042630211100913584,
        0.004407137632369995,
        0.0025331403594464064,
        -0.002690607449039817,
        -0.0006069258088245988,
        0.006177750416100025,
        0.007536232005804777,
        0.0022069632541388273,
        0.008418401703238487,
        -0.007550838403403759,
        0.0024934320244938135,
        -0.01176792848855257,
        -0.0016694401856511831,
        -0.001401232904754579,
        0.009003765881061554,
        2.4728644348215312e-05,
        -0.0007117905770428479,
        -0.00989822018891573,
        0.00963334646075964,
        -0.0010968419956043363,
        -0.011450056917965412,
        0.08576076477766037,
        -0.0011299200123175979,
        0.014676734805107117,
        0.004573148209601641,
        0.013692550361156464,
        -0.0017899035010486841,
        -0.003188933013007045,
        -0.0016280130948871374,
        0.0008796221227385104,
        -0.0021737918723374605,
        -0.00043677023495547473,
        0.00027033116202801466,
        -0.0015854522353038192,
        0.063669852912426,
        0.00016955331375356764,
        0.010485458187758923,
        0.0009996234439313412,
        -0.00043819169513881207,
        -0.010217482224106789,
        0.03150370344519615,
        0.059390462934970856,
        0.030399804934859276,
        0.007488496135920286,
        -0.002403874648734927,
        0.0179221723228693,
        -0.0041790371760725975,
        -0.009260643273591995,
        0.004906336776912212,
        0.0543334037065506,
        0.009680862538516521,
        -0.005272699519991875,
        0.02391313575208187,
        0.004979589022696018,
        0.027121903374791145,
        0.07675472646951675,
        0.010131455026566982,
        0.11162091791629791,
        -0.0005921326810494065,
        -0.002269599586725235,
        0.0013134294422343373,
        0.12113635987043381,
        0.03586224839091301,
        0.0015973139088600874,
        0.0019425774225965142,
        0.00740943243727088,
        0.011592661961913109,
        0.009960481896996498,
        0.010544143617153168,
        0.0340559296309948,
        0.006494044326245785,
        0.010923191905021667,
        -0.002218998968601227,
        0.004823596682399511,
        -0.0014557031681761146,
        0.016037508845329285,
        0.0003202733932994306,
        0.014772085472941399,
        -7.160226232372224e-06,
        -0.011868070811033249,
        -0.00024722126545384526,
        0.021066168323159218,
        -0.0022437251172959805,
        0.0073316642083227634,
        -0.0008597157429903746,
        0.013975913636386395,
        0.13581565022468567,
        0.001266916049644351,
        0.003995317034423351,
        -0.0027119480073451996,
        0.012406287714838982,
        -0.004876355174928904,
        -0.0017650071531534195,
        -0.00020850726286880672,
        -0.0010966808767989278,
        0.0008166527259163558,
        0.0051181926392018795,
        0.0008566688629798591,
        -0.0009302890975959599,
        -0.003462752792984247,
        0.004402807913720608,
        0.02207855135202408,
        0.0010068264091387391,
        -0.0034904731437563896,
        0.004211943130940199,
        -0.004086569882929325,
        -0.0015873194206506014,
        0.006151897367089987,
        0.07561634480953217,
        0.027338223531842232,
        0.02890303172171116,
        0.07989172637462616,
        -0.0013540228828787804,
        0.07998337596654892,
        -0.0012584818759933114,
        -0.0043834964744746685,
        0.005335791502147913,
        0.008794164285063744,
        0.00038059207145124674,
        0.007302521262317896,
        0.01917768269777298,
        0.010057894513010979,
        -0.005858059972524643,
        0.018843818455934525,
        -0.00033574068220332265,
        0.0030517817940562963,
        -0.0011735238367691636,
        0.046154920011758804,
        0.0038640378043055534,
        0.023518119007349014,
        0.13719137012958527,
        0.0766092911362648,
        0.0009157353779301047,
        0.05228002741932869,
        0.030256059020757675,
        -0.0018580439500510693,
        0.019461801275610924,
        0.12439678609371185,
        0.0012394094374030828,
        0.052908673882484436,
        0.0026674126274883747,
        0.0014392138691619039,
        0.008190436288714409,
        0.0020136612001806498,
        0.009517806582152843,
        0.027742505073547363,
        -0.02269095927476883,
        -0.0016771071823313832,
        -0.007121035363525152,
        0.06520231813192368,
        -0.0010980641236528754,
        0.02022884413599968,
        -0.006295175291597843,
        0.08630096912384033,
        -7.401723269140348e-05,
        -0.0025070118717849255,
        -0.013308434747159481,
        0.034090492874383926,
        -0.004568509757518768,
        0.007676074281334877,
        0.010001281276345253,
        0.025953304022550583,
        -0.007445959374308586,
        -0.0011281371116638184,
        -0.003364401403814554,
        -0.0020577809773385525,
        0.10388515889644623,
        0.0853692963719368,
        -0.009163274429738522,
        -0.001887731603346765,
        0.09807480126619339,
        -0.011240390129387379,
        -0.004713519010692835,
        0.011025580577552319,
        -0.0019020894542336464,
        0.1383546143770218,
        0.17238706350326538,
        0.026607219129800797,
        0.0604277104139328,
        7.346355414483696e-05,
        0.008804709650576115,
        0.0007197096128948033,
        0.02587314136326313,
        -0.008674985729157925,
        0.015833018347620964,
        1.7582082364242524e-05,
        -0.0016810097731649876,
        0.012123183347284794,
        0.009376143105328083,
        -0.0004185917496215552,
        -0.013670657761394978,
        -0.0012266134144738317,
        0.00621342658996582,
        -0.0008213164401240647,
        0.006575680337846279,
        0.012068487703800201,
        0.005017487797886133,
        0.004177008755505085,
        0.02177480421960354,
        0.09499981254339218,
        -0.008783926256000996,
        -0.011423332616686821,
        0.0018727097194641829,
        -0.0013029812835156918,
        0.014553338289260864,
        -0.00038462254451587796,
        0.03292003273963928,
        0.01626919023692608,
        0.021091030910611153,
        -0.0038177277892827988,
        0.000779283931478858,
        0.0008715743897482753,
        0.012236273847520351,
        -0.004786248784512281,
        -0.0018709583673626184,
        0.11201421171426773,
        -9.445667819818482e-05,
        0.015570384450256824,
        0.06958216428756714,
        0.05032254755496979,
        0.027760649099946022,
        -0.001368405413813889,
        0.009709169156849384,
        0.0012767079751938581,
        -0.002474227687343955,
        0.0004361786413937807,
        0.00013737627887167037,
        -0.014214408583939075,
        -0.0017015045741572976,
        -0.011150237172842026,
        -0.001894081593491137,
        0.024506546556949615,
        0.05536253750324249,
        -0.020070191472768784,
        0.00013390174717642367,
        0.009131158702075481,
        0.044309891760349274,
        0.030295271426439285,
        0.008972148410975933,
        -0.0014099918771535158,
        0.09722955524921417,
        0.0283699668943882,
        0.0015149855753406882,
        0.021016500890254974,
        -0.011957845650613308,
        0.002453450346365571,
        0.00029294294654391706,
        0.008391964249312878,
        0.007002595346421003,
        -7.374354754574597e-05,
        0.0981929749250412,
        0.011129170656204224,
        0.010972676798701286,
        0.035101406276226044,
        0.139448881149292,
        0.020045205950737,
        -0.0007751260418444872,
        0.01890922524034977,
        0.00874357484281063,
        0.013504231348633766,
        -0.011475001461803913,
        0.019073693081736565,
        0.022533046081662178,
        -0.0064811729826033115,
        -0.0022589131258428097,
        0.024582194164395332,
        0.10999378561973572,
        -0.006608119234442711,
        -0.007029645144939423,
        -0.004311837255954742,
        -0.010758263990283012,
        0.004648821894079447,
        -0.006943088490515947,
        0.008238747715950012,
        -0.001688277581706643,
        -0.00453645596280694,
        -0.005840620957314968,
        0.0032700973097234964,
        -0.0012974557466804981,
        0.07555729895830154,
        -0.007486451882869005,
        0.1274159550666809,
        0.006366809830069542,
        -0.0038294033147394657,
        -0.007778345141559839,
        -0.0044105276465415955,
        0.02700834721326828,
        0.08725852519273758,
        -0.00632765656337142,
        -0.0011703248601406813,
        0.0027425114531069994,
        -0.011534950695931911,
        0.006824465934187174,
        -0.0031889877282083035,
        -0.003990041092038155,
        0.0012857802212238312,
        0.000745992234442383,
        0.004762374330312014,
        0.0005236412980593741,
        0.000570999807678163,
        0.0016247440362349153,
        0.0009926458587870002,
        0.0010823296615853906,
        0.00022181861277204007,
        -0.00788200180977583,
        -0.00035048724384978414,
        0.00538435997441411,
        0.00022994750179350376,
        0.0003724858397617936,
        0.0077957757748663425,
        0.0014190356014296412,
        -0.009604530408978462,
        -0.006429188884794712,
        0.005741816014051437,
        0.005165704991668463,
        -0.0016579409129917622,
        0.008144216611981392,
        0.0050920769572257996,
        0.0006671237642876804,
        -0.010168060660362244,
        0.00888961274176836,
        0.000601724605076015,
        0.002599758328869939,
        0.006985051557421684,
        0.007954484783113003,
        -0.013269743882119656,
        -0.0012880968861281872,
        -0.016927173361182213,
        0.004280018620193005,
        0.0005734372534789145,
        0.004314820282161236,
        -0.01772470772266388,
        0.006042808759957552,
        0.0006424356251955032,
        -0.0016337489942088723,
        0.012112736701965332,
        0.008375239558517933,
        0.006319249048829079,
        0.004377360921353102,
        -0.003769905073568225,
        0.011223450303077698,
        0.0019211404724046588,
        -0.0006641314248554409,
        0.00581784825772047,
        0.0014987052418291569,
        -0.0036030809860676527,
        0.005782111082226038,
        0.004073907621204853,
        0.0011069754837080836,
        0.006386959925293922,
        0.001756597775965929,
        0.00830122735351324,
        0.0033692133147269487,
        0.008322232402861118,
        -0.0015549762174487114,
        0.00730837881565094,
        -0.021165357902646065,
        0.007349787279963493,
        0.008271374739706516,
        0.0004230907652527094,
        0.01246347464621067,
        0.0011917349183931947,
        -0.001958130858838558,
        0.0036154440604150295,
        -3.948707671952434e-05,
        0.0006495148409157991,
        0.00611936766654253,
        0.002892453921958804,
        -0.0007113019237294793,
        -0.00014334727893583477,
        0.0024029696360230446,
        0.013148250989615917,
        0.000838066334836185,
        0.003196945646777749,
        0.008185310289263725,
        -0.000661166908685118,
        0.005048759281635284,
        0.0072478074580430984,
        -0.012352092191576958,
        0.010407663881778717,
        -0.00509998993948102,
        -0.013377395458519459,
        -0.0002817688218783587,
        -0.011969489976763725,
        0.004663381259888411,
        0.008915122598409653,
        0.004878628067672253,
        0.008973190560936928,
        -0.00029109203023836017,
        0.007330356165766716,
        0.007452169433236122,
        0.0061528547666966915,
        5.098709152662195e-05,
        0.016680652275681496,
        0.013012316077947617,
        0.0027304189279675484,
        0.0010881628841161728,
        -0.008165381848812103,
        0.007879885844886303,
        -0.0032775287982076406,
        -0.019625695422291756,
        -0.009633790701627731,
        8.679366874275729e-05,
        -0.006601379252970219,
        -0.004238051362335682,
        0.00020894382032565773,
        0.008947969414293766,
        -0.01895887963473797,
        -0.0005438551306724548,
        -0.009922864846885204,
        0.002075274707749486,
        0.0029955136124044657,
        0.010351814329624176,
        0.003618702059611678,
        0.004334165249019861,
        -0.0016708840848878026,
        0.004176229704171419,
        -0.0011658880393952131,
        0.009205996058881283,
        -0.010228319093585014,
        0.0016494718147441745,
        -0.004485850688070059,
        0.003326964331790805,
        -0.013010059483349323,
        0.00799358356744051,
        0.0005813828320242465,
        0.0035710104275494814,
        -0.0041898381896317005,
        0.000627505243755877,
        0.007456053048372269,
        0.0069617414847016335,
        -0.004525294993072748,
        0.007221314590424299,
        0.0016218526288866997,
        0.006593408063054085,
        0.0010064347879961133,
        -0.01614638790488243,
        -0.014223326928913593,
        0.00720957200974226,
        0.0033686303067952394,
        -0.016775306314229965,
        0.0009815728990361094,
        0.009017114527523518,
        0.0027084730099886656,
        0.00022717539104633033,
        -0.020892275497317314,
        -0.026559684425592422,
        0.005191097501665354,
        -0.011181583628058434,
        0.0012384993024170399,
        0.009417196735739708,
        0.0012720079394057393,
        0.010722138918936253,
        0.0031332767102867365,
        0.01212006714195013,
        0.001520523801445961,
        -0.0014519968535751104,
        0.008551806211471558,
        0.006910988129675388,
        0.0014969254843890667,
        0.005133932456374168,
        0.00656064972281456,
        0.0042159054428339005,
        -0.0004972785827703774,
        0.006380046717822552,
        0.006800289731472731,
        0.012155860662460327,
        0.0039565120823681355,
        0.009290345013141632,
        -0.015745436772704124,
        0.004511716775596142,
        0.003623982658609748,
        0.008368978276848793,
        0.0017031137831509113,
        0.0028576424811035395,
        0.00034547693212516606,
        -0.006401129998266697,
        0.012926381081342697,
        0.012450854294002056,
        0.0014294940046966076,
        -0.00011590585199883208,
        0.00091232341947034,
        0.0078003606759011745,
        0.007417548447847366,
        0.002015416044741869,
        -0.018872054293751717,
        -0.00014692866534460336,
        0.002014428609982133,
        -0.008686557412147522,
        -0.009424371644854546,
        -0.0030104026664048433,
        0.0016997839557006955,
        0.009629042819142342,
        0.001932563609443605,
        0.00234287790954113,
        -0.0008972453069873154,
        -0.0013631260953843594,
        0.003641556715592742,
        -0.0012870962964370847,
        0.0017504040151834488,
        0.0013556343037635088,
        -0.0020173320081084967,
        -0.007208957802504301,
        0.0033238220494240522,
        -0.0015461809234693646,
        0.00590553879737854,
        -0.008133172988891602,
        -0.004563991911709309,
        -0.00353237590752542,
        -0.000539847300387919,
        -0.015344709157943726,
        -0.0009283918188884854,
        0.0019865764770656824,
        0.003606590908020735,
        0.011675926856696606,
        0.006366985850036144,
        -0.0003207330300938338,
        0.012825002893805504,
        0.005658382549881935,
        -0.0008135900134220719,
        -0.014430677518248558,
        0.0047262609004974365,
        0.009482311084866524,
        -0.007035464979708195,
        -0.02285381220281124,
        -0.0028323631267994642,
        0.009045401588082314,
        0.008712495677173138,
        0.013061144389212132,
        0.004433749243617058,
        0.007249260321259499,
        0.006824452430009842,
        0.012538869865238667,
        0.0024023258592933416,
        0.0018067052587866783,
        -0.003993319813162088,
        -0.016454029828310013,
        -0.0010201147524639964,
        0.006579694803804159,
        0.007683888543397188,
        0.0009035459370352328,
        0.0027382178232073784,
        0.006119377911090851,
        -0.0021901626605540514,
        -0.0005961902788840234,
        0.007827245630323887,
        0.0060752155259251595,
        0.0012737452052533627,
        0.009280708618462086,
        -0.010050454176962376,
        -0.0011306360829621553,
        -0.020264608785510063,
        -0.0034985318779945374,
        -0.00029319385066628456,
        0.012119737453758717,
        7.625195576110855e-05,
        -0.0014971181517466903,
        -0.013848047703504562,
        0.009121973067522049,
        -0.0003261715464759618,
        0.0033891883213073015,
        -0.004450060892850161,
        0.008369289338588715,
        0.0019369316287338734,
        0.003410336561501026,
        0.0027345665730535984,
        0.0004478918563108891,
        0.0015974652487784624,
        -4.086651824763976e-05,
        0.001774608506821096,
        0.0006393479416146874,
        0.00045357487397268414,
        0.0010495632886886597,
        0.0007421521586365998,
        -0.0022608067374676466,
        0.002198571804910898,
        0.004639928229153156,
        0.0013675699010491371,
        -0.000795116531662643,
        0.005513496696949005,
        0.004966692999005318,
        -0.00019750527280848473,
        -0.002630238188430667,
        0.00556092569604516,
        0.004619812127202749,
        0.0003820341662503779,
        0.00503161596134305,
        0.005922985263168812,
        0.0041553485207259655,
        -0.0008906678995117545,
        0.005879769567400217,
        0.0016752762021496892,
        0.005308046471327543,
        0.005024984944611788,
        0.008741568773984909,
        -0.002109418623149395,
        -0.0007854115101508796,
        -0.00549740344285965,
        0.0029333848506212234,
        -0.0009386488236486912,
        0.00348194339312613,
        -0.005879564676433802,
        0.005212528631091118,
        -7.46625883039087e-05,
        -0.001037497422657907,
        0.005982924252748489,
        0.0036245037335902452,
        0.004563691560178995,
        0.003339572809636593,
        0.0010158914374187589,
        0.005881798453629017,
        0.004004718270152807,
        -0.0013605495914816856,
        0.0027449161279946566,
        0.001578949624672532,
        0.0012631312711164355,
        0.0038414413575083017,
        0.003023941768333316,
        0.0019765147008001804,
        0.005255450494587421,
        0.0014898624503985047,
        0.007556271739304066,
        0.006223875097930431,
        0.005423919763416052,
        2.4217841200879775e-05,
        0.005073402542620897,
        -0.005558614153414965,
        0.0031829180661588907,
        0.006990534253418446,
        0.0005468673189170659,
        0.007620643358677626,
        0.003106135642156005,
        -0.0017315509030595422,
        0.0016300566494464874,
        -0.0007033259025774896,
        0.0017215786501765251,
        0.0015848762122914195,
        0.0029389250557869673,
        -0.001108599011786282,
        0.0010621517430990934,
        0.002097541932016611,
        0.009149663150310516,
        0.001066588331013918,
        0.0044044810347259045,
        0.005958840250968933,
        -0.00017018667131196707,
        0.004813112318515778,
        0.004079457838088274,
        -0.0014559448463842273,
        0.0065012224949896336,
        -0.0018507742788642645,
        -0.0021783814299851656,
        -0.0012627578107640147,
        -0.004031795542687178,
        0.0025771900545805693,
        0.006522741634398699,
        0.004652509931474924,
        0.007001863792538643,
        -0.0003540239413268864,
        0.006706492509692907,
        0.005547007545828819,
        0.006043619476258755,
        0.0028082348871976137,
        0.014208006672561169,
        0.008378519676625729,
        0.0033919760026037693,
        -0.001517082448117435,
        -0.0023313164710998535,
        0.005551156122237444,
        0.0007699866546317935,
        -0.005621351767331362,
        -0.004042232409119606,
        0.00013841198233421892,
        0.0005883513949811459,
        -0.0017090593464672565,
        0.0010064453817903996,
        0.005935372784733772,
        -0.007311688736081123,
        0.00037140792119316757,
        -0.0005318234907463193,
        0.0008804963435977697,
        0.005642190109938383,
        0.00749512854963541,
        0.0013964253012090921,
        0.005304878577589989,
        0.0012282088864594698,
        0.0015183078357949853,
        -0.00044767188956029713,
        0.00526266498491168,
        -0.0010176090290769935,
        -0.0007888211403042078,
        0.0003915107517968863,
        0.0023107072338461876,
        -0.005047263111919165,
        0.005595453083515167,
        -0.00015017890837043524,
        0.002549154683947563,
        0.0005612344830296934,
        0.0005873268819414079,
        0.007360021583735943,
        0.003843284910544753,
        -0.0016325825126841664,
        0.003933461848646402,
        0.001192653551697731,
        0.006047063507139683,
        0.00022389339574147016,
        -0.0037646351847797632,
        -0.0023931493051350117,
        0.004798496142029762,
        0.006633229553699493,
        -0.0032999152317643166,
        0.0019284303998574615,
        0.00708009721711278,
        0.0011969417100772262,
        -0.00035935075720772147,
        -0.007626699283719063,
        -0.009391603991389275,
        0.005560865625739098,
        -0.002528283977881074,
        0.0013242458226159215,
        0.006107949651777744,
        0.0010633704951032996,
        0.008012998849153519,
        -0.0006973098497837782,
        0.00968445185571909,
        0.0019670967012643814,
        -0.0003999326145276427,
        0.0077955578453838825,
        0.006262308452278376,
        0.0020998280961066484,
        0.004334838595241308,
        0.005488246213644743,
        0.005575527437031269,
        -0.00010109719733009115,
        0.004120280034840107,
        0.0051989019848406315,
        0.008551067672669888,
        0.004115507006645203,
        0.006873401813209057,
        -0.003741995897144079,
        0.0031464630737900734,
        0.005944940261542797,
        0.006618226412683725,
        -0.0005549525958485901,
        0.003677850356325507,
        0.0015865571331232786,
        0.0005212529213167727,
        0.007416114676743746,
        0.00805014930665493,
        0.00045763253001496196,
        0.001755053293891251,
        0.0015677178744226694,
        0.007267689798027277,
        0.006875260267406702,
        0.0015143754426389933,
        -0.007352616172283888,
        -0.0009387372410856187,
        0.0014940578257665038,
        -0.004984667059034109,
        -0.0013116919435560703,
        0.00014300915063358843,
        0.0016508747357875109,
        0.00441769091412425,
        0.0010274406522512436,
        0.0036402607802301645,
        0.000905530177988112,
        -0.0006812555948272347,
        0.004611572716385126,
        0.0006555336876772344,
        0.004325974266976118,
        1.2940028682351112e-05,
        0.00036952627124264836,
        -0.0011603746097534895,
        0.0016404337948188186,
        -0.0005481636617332697,
        0.006523590534925461,
        -0.0026972792111337185,
        -0.00236034975387156,
        -0.0004754863621201366,
        -0.000808902143035084,
        -0.0044877249747514725,
        -0.0007250526105053723,
        0.001903578988276422,
        0.0029004288371652365,
        0.007336905691772699,
        0.004442673642188311,
        -0.0012902775779366493,
        0.009708214551210403,
        0.005815365817397833,
        0.0006089969538152218,
        -0.0034540570341050625,
        0.0029452077578753233,
        0.005060035735368729,
        0.0017966795712709427,
        -0.005332972854375839,
        0.0006056570564396679,
        0.005209935829043388,
        0.006347941234707832,
        0.010417446494102478,
        0.0049657197669148445,
        0.003969078883528709,
        0.007646600250154734,
        0.009939421899616718,
        0.004687253851443529,
        0.0009356927475892007,
        -0.0003165096277371049,
        -0.0041539305821061134,
        0.0011459511006250978,
        0.006984891835600138,
        0.005936724133789539,
        0.0002216838183812797,
        0.004987778607755899,
        0.003157904138788581,
        2.0281016986700706e-05,
        -2.137715637218207e-05,
        0.004418789874762297,
        0.0031176263000816107,
        0.0012972319964319468,
        0.004883092362433672,
        -0.0028611274901777506,
        0.001187245245091617,
        -0.00530442176386714,
        0.0006225960678420961,
        -0.0003395941748749465,
        0.008437560871243477,
        0.0021646006498485804,
        -0.0008123082807287574,
        -0.0026642000302672386,
        0.008241523057222366,
        0.0010863185161724687,
        0.005583412945270538,
        -0.015915576368570328,
        0.00783001258969307,
        -0.0018607485108077526,
        -0.004102655686438084,
        0.002334409626200795,
        0.0005314667942002416,
        0.005237703211605549,
        0.0004680324927903712,
        -0.0016437912127003074,
        -0.0010380600579082966,
        -0.0004537818895187229,
        0.000342391460435465,
        0.0006271290476433933,
        -0.010132629424333572,
        0.002644808730110526,
        0.005140034016221762,
        0.000593392294831574,
        0.0010522437514737248,
        0.006439823657274246,
        0.0024852226488292217,
        -0.010164300911128521,
        -0.007391289807856083,
        0.0097221489995718,
        0.005175844766199589,
        -0.0038719705771654844,
        0.00674458360299468,
        0.008311632089316845,
        0.004208269529044628,
        -0.011473385617136955,
        0.009791476652026176,
        0.0002806636330205947,
        0.0038571723271161318,
        0.010789779946208,
        0.011018741875886917,
        -0.016231829300522804,
        -0.00230038701556623,
        -0.020548535510897636,
        0.007294927723705769,
        0.0007521610241383314,
        0.005311181768774986,
        -0.024943329393863678,
        0.0077463481575250626,
        -0.0019201155519112945,
        -0.0011933209607377648,
        0.010487024672329426,
        0.008661950007081032,
        0.005083066411316395,
        0.005357082933187485,
        -0.005004515405744314,
        0.010633829049766064,
        0.003434315789490938,
        0.0012342300033196807,
        0.006654181517660618,
        0.001200494123622775,
        -0.0013328283093869686,
        0.007668591104447842,
        0.005227683112025261,
        -0.0017827164847403765,
        0.003912546206265688,
        0.0010699303820729256,
        0.01039206888526678,
        0.004461689852178097,
        0.007104403804987669,
        -0.00046860563452355564,
        0.011510024778544903,
        -0.02426830120384693,
        0.006507023237645626,
        0.008790356107056141,
        -5.437637446448207e-05,
        0.01329819019883871,
        0.0037863915786147118,
        -0.0002952293143607676,
        0.004347986076027155,
        -0.0010763879399746656,
        0.001086067990399897,
        0.003909847233444452,
        0.003935165237635374,
        0.001457535196095705,
        0.00196350971236825,
        0.0005037715309299529,
        0.013467798940837383,
        8.916566730476916e-05,
        0.006551877595484257,
        0.01202201284468174,
        -0.0002647090295795351,
        0.007445712108165026,
        0.006885626818984747,
        -0.014429974369704723,
        0.009201622568070889,
        -0.0037618631031364202,
        -0.013966193422675133,
        0.00040632791933603585,
        -0.01561687234789133,
        0.0038618422113358974,
        0.010195567272603512,
        0.005442244932055473,
        0.008243598975241184,
        0.00010398792801424861,
        0.009296003729104996,
        0.009193711914122105,
        0.009163257665932178,
        0.000126221013488248,
        0.020255906507372856,
        0.01586649939417839,
        0.005602685734629631,
        -0.0016357551794499159,
        -0.009517652913928032,
        0.010346880182623863,
        -0.00517824525013566,
        -0.024888714775443077,
        -0.014172423630952835,
        0.0015435226960107684,
        -0.007997984066605568,
        -0.0053599122911691666,
        -0.001977665117010474,
        0.008795254863798618,
        -0.020733416080474854,
        -3.3533593523316085e-05,
        -0.009099176153540611,
        0.0008573657833039761,
        0.003960154019296169,
        0.012063413858413696,
        0.005602721124887466,
        0.0057166991755366325,
        -0.004018422681838274,
        0.004458837676793337,
        0.0003825754392892122,
        0.010190927423536777,
        -0.0112065514549613,
        -0.0006132858106866479,
        -0.006371860858052969,
        0.005932089872658253,
        -0.015532058663666248,
        0.007505496498197317,
        0.0026421721559017897,
        0.0036315766628831625,
        -0.0025903326459228992,
        0.00025345711037516594,
        0.007920184172689915,
        0.007933356799185276,
        -0.004049220588058233,
        0.008116478100419044,
        -0.0017988226609304547,
        0.0075871204026043415,
        -0.0006457486306317151,
        -0.01617339998483658,
        -0.014159158803522587,
        0.007871533744037151,
        0.003047103527933359,
        -0.01905965991318226,
        0.002838998334482312,
        0.009343225508928299,
        0.0016878884052857757,
        0.0015477429842576385,
        -0.024998323991894722,
        -0.032520655542612076,
        0.00878614280372858,
        -0.010941112414002419,
        -0.0014972814824432135,
        0.006813910789787769,
        -0.0009004733292385936,
        0.012972598895430565,
        0.0011604147730395198,
        0.01120952982455492,
        0.0010924936505034566,
        -0.0009603073704056442,
        0.009450066834688187,
        0.0058939578011631966,
        0.001499755191616714,
        0.005883689969778061,
        0.004726669751107693,
        0.004879406653344631,
        -0.0016833398258313537,
        0.005452604964375496,
        0.00598644046112895,
        0.01072666049003601,
        0.004223030526190996,
        0.013138808310031891,
        -0.019472220912575722,
        0.007149768527597189,
        0.0036012791097164154,
        0.0097400126978755,
        -0.0019164506811648607,
        0.0013446618104353547,
        -0.0011042188853025436,
        -0.005801520776003599,
        0.01596543751657009,
        0.013060569763183594,
        0.0023457955103367567,
        0.001009162049740553,
        -0.0012267115525901318,
        0.008536922745406628,
        0.011582828126847744,
        -0.0011267440859228373,
        -0.020166749134659767,
        0.0012650754069909453,
        0.0025568839628249407,
        -0.011650300584733486,
        -0.008634361438453197,
        -0.005815093405544758,
        -0.0009444048628211021,
        0.010369664058089256,
        -0.000963797967415303,
        0.0009833053918555379,
        0.0019694941584020853,
        0.0009499473962932825,
        0.006223086267709732,
        -0.001221318612806499,
        0.0012229883577674627,
        0.0005321395001374185,
        -0.0038544104900211096,
        -0.010857373476028442,
        0.004231101833283901,
        -0.0004313740355428308,
        0.00882471539080143,
        -0.008894035592675209,
        -0.007320505566895008,
        -0.002210767939686775,
        0.001448962022550404,
        -0.018903885036706924,
        -0.004393056500703096,
        -0.0001209281399496831,
        0.004548974335193634,
        0.013668470084667206,
        0.007432148326188326,
        0.0006974702118895948,
        0.015776311978697777,
        0.007290481124073267,
        -0.0014341867063194513,
        -0.02074670046567917,
        0.005944068543612957,
        0.011450974270701408,
        -0.007271689362823963,
        -0.023962615057826042,
        -0.0028159155044704676,
        0.009957568719983101,
        0.012015264481306076,
        0.015760647132992744,
        0.00734270503744483,
        0.007865135557949543,
        0.01035949494689703,
        0.011964425444602966,
        0.003570298431441188,
        0.0011454463237896562,
        -0.002018502214923501,
        -0.019898200407624245,
        0.0013250492047518492,
        0.00868882518261671,
        0.007512818090617657,
        0.0005538545083254576,
        0.0043501099571585655,
        0.00675289798527956,
        -0.0015225943643599749,
        0.0011903196573257446,
        0.007846157066524029,
        0.008307925425469875,
        0.0005865888088010252,
        0.009754755534231663,
        -0.015428229235112667,
        -0.0023147412575781345,
        -0.022422682493925095,
        -0.0055615538731217384,
        0.0003332638298161328,
        0.0131072411313653,
        -0.0014198379358276725,
        -0.002881058491766453,
        -0.0175970159471035,
        0.010586345568299294,
        -0.0014371637953445315,
        0.005332960281521082,
        -0.014735773205757141,
        0.009338789619505405,
        -0.004956313408911228,
        -0.0061437226831912994,
        -3.6438748793443665e-05,
        -0.00032714626286178827,
        0.004162130877375603,
        0.0008189363870769739,
        0.0016353377141058445,
        0.00042911089258268476,
        -0.000555756501853466,
        -0.0008001003880053759,
        -0.0015055460389703512,
        -0.010615471750497818,
        0.0026799847837537527,
        0.005745077971369028,
        -0.000840230321045965,
        0.0008206675411202013,
        0.00777227059006691,
        0.0018227924592792988,
        -0.010653992183506489,
        -0.007003172300755978,
        0.008286632597446442,
        0.004329340532422066,
        -0.0025004532653838396,
