{
  "hiddenActivationType": "RecLinear",
  "hiddenLayers": [
    {
      "biasWeights": [
        0.048570044338703156,
        0.03600591421127319,
        -0.006210715509951115,
        -0.017994310706853867,
        0.012128084897994995,
        0.27095940709114075,
        -0.29928824305534363,
        0.08484555035829544,
        -0.04852452874183655,
        0.24488382041454315,
        0.042975425720214844,
        0.31598034501075745,
        0.012561140581965446,
        0.0388120599091053,
        0.011124348267912865,
        0.3477974534034729,
        0.05280895531177521,
        0.030289873480796814,
        -0.17066000401973724,
        0.042894989252090454,
        0.27765896916389465,
        0.05740276724100113,
        0.0114566870033741,
        0.039090920239686966,
        0.05181872844696045,
        0.05149243026971817,
        0.4246290922164917,
        0.019741268828511238,
        0.06053546443581581,
        0.03199232369661331,
        -0.08787070959806442,
        0.024728577584028244,
        0.06310442835092545,
        0.24207690358161926,
        -0.3248465061187744,
        0.2262377291917801,
        0.029716823250055313,
        0.02821962907910347,
        0.03583499789237976,
        0.06344848871231079,
        -0.06607863306999207,
        -0.48334163427352905,
        -0.18711289763450623,
        -0.04603978246450424,
        0.06657437980175018,
        -0.08200689405202866,
        -0.02746473252773285,
        -0.0004902581567876041,
        -0.22557030618190765,
        0.04195726290345192,
        0.023957043886184692,
        0.08579432964324951,
        0.18068602681159973,
        0.17593681812286377,
        0.004271507728844881,
        0.058280251920223236,
        0.04851578548550606,
        0.01914157159626484,
        0.04363012686371803,
        0.05029621347784996,
        0.2887110412120819,
        -0.04376800358295441,
        0.27843180298805237,
        0.09065061807632446,
        0.06876136362552643,
        0.0367281474173069,
        0.023302074521780014,
        -0.0537133626639843,
        0.45619237422943115,
        0.061750419437885284,
        0.19562013447284698,
        0.07123934477567673,
        -0.10626333206892014,
        0.02867102064192295,
        -0.022669322788715363,
        -0.04810873419046402,
        0.15182112157344818,
        -0.7610793709754944,
        0.05338096246123314,
        0.24187251925468445,
        0.029851466417312622,
        0.06005660071969032,
        -0.05183421075344086,
        0.025867581367492676,
        0.14035668969154358,
        0.011225767433643341,
        0.06872622668743134,
        -0.34611815214157104,
        0.03998447582125664,
        0.031070172786712646,
        0.009801515378057957,
        0.05457214638590813,
        0.10814318060874939,
        -0.1679726541042328,
        -0.05939190089702606,
        0.020205136388540268,
        0.13473646342754364,
        0.04816108196973801,
        0.017346341162919998,
        -0.050634536892175674,
        0.04209592938423157,
        0.0038381388876587152,
        -0.05407503619790077,
        -0.06360024213790894,
        0.08406234532594681,
        0.03568790853023529,
        -0.0544801689684391,
        -0.061789944767951965,
        -0.0748709961771965,
        0.01815246045589447,
        0.015064745210111141,
        0.1446715146303177,
        0.07581241428852081,
        -0.12251297384500504,
        0.03199241682887077,
        0.011711442843079567,
        0.0586208775639534,
        -0.07352001965045929,
        0.009087644517421722,
        0.03332029655575752,
        0.5170180201530457,
        0.02520555816590786,
        0.044354576617479324,
        0.2713955342769623,
        0.012100090272724628,
        0.0011007189750671387,
        0.2034509927034378,
        0.03227720782160759,
        0.2756108343601227,
        -0.0021641419734805822,
        0.046157728880643845,
        0.023971159011125565,
        -0.300874263048172,
        -0.007709196303039789,
        0.08775336295366287,
        0.02433251217007637,
        0.011008726432919502,
        -0.03828386217355728,
        0.026492426171898842,
        0.025033477693796158,
        0.012451907619833946,
        0.014661706984043121,
        0.023366548120975494,
        0.02085861563682556,
        0.23775212466716766,
        0.20812828838825226,
        0.055967528373003006,
        0.014333832077682018,
        0.03955167531967163,
        0.008439015597105026,
        0.03284483030438423,
        -0.5001455545425415,
        -0.3143349289894104,
        -0.06672952324151993,
        0.014170174486935139,
        -0.03574174642562866,
        0.004156727343797684,
        0.024479003623127937,
        0.01966942846775055,
        -0.05188030004501343,
        0.011893865652382374,
        -0.03579570725560188,
        0.013891340233385563,
        -0.010378416627645493,
        -0.07514411211013794,
        -0.38055041432380676,
        0.042902976274490356,
        0.33360999822616577,
        0.006647744681686163,
        0.03015695884823799,
        0.0524924136698246,
        0.02815110795199871,
        0.029421817511320114,
        0.1729094684123993,
        0.03891861066222191,
        -0.011523749679327011,
        -0.2574785649776459,
        0.3390163779258728,
        0.03011210821568966,
        0.040455784648656845,
        0.033038169145584106,
        0.02021670900285244,
        0.03629856929183006,
        -0.06664907932281494,
        0.05819925665855408,
        0.022768571972846985,
        0.041818875819444656,
        0.041175343096256256,
        0.11318815499544144,
        0.022532489150762558,
        0.07354243099689484,
        0.042914219200611115,
        0.01402196567505598,
        -0.016514882445335388,
        0.030234942212700844,
        0.041283946484327316,
        0.10235574096441269,
        0.04898741841316223,
        0.43474265933036804,
        0.19116683304309845,
        0.1728365272283554,
        0.017881013453006744,
        0.07637985050678253,
        -0.05149596557021141,
        0.012205279432237148,
        0.05990011990070343,
        0.025098737329244614,
        0.02282097563147545,
        0.010968387126922607,
        0.3725614845752716,
        0.039302121847867966,
        0.28577500581741333,
        -0.033126380294561386,
        -0.06130587309598923,
        0.5191283822059631,
        0.024064527824521065,
        0.44347622990608215,
        0.027257418259978294,
        -0.030312230810523033,
        -0.3426975905895233,
        0.044759515672922134,
        0.047225747257471085,
        -0.029249632731080055,
        0.02339540235698223,
        -0.05575374513864517,
        0.051626794040203094,
        0.020718708634376526,
        0.0768451914191246,
        0.05446453392505646,
        -0.022253593429923058,
        0.1871793121099472,
        0.024912912398576736,
        -0.05971729755401611,
        -0.0811133161187172,
        0.02543214149773121,
        0.2877146005630493,
        0.03297165781259537,
        -0.061722151935100555,
        0.4146691560745239,
        -0.041071970015764236,
        0.042271099984645844,
        0.05901619419455528,
        0.08049773424863815,
        0.014929134398698807,
        0.19603218138217926,
        0.027163799852132797,
        0.08990190178155899,
        0.02581092342734337,
        -0.07592789828777313,
        0.03434961289167404,
        0.043232403695583344,
        0.034795284271240234,
        0.058188170194625854,
        0.040696416050195694,
        0.028683550655841827
      ],
      "weights": [
        -0.0009628277621231973,
        -0.001968983095139265,
        0.006558116525411606,
        0.0017162399599328637,
        0.0017003187676891685,
        0.005997363943606615,
        -0.01424899697303772,
        0.007134725339710712,
        0.016498757526278496,
        0.010339297354221344,
        -0.0053550549782812595,
        0.009344488382339478,
        -0.002927697729319334,
        -0.004327064845710993,
        -0.0009002547012642026,
        0.015873275697231293,
        -0.006556899286806583,
        0.0021020928397774696,
        -0.0019429096719250083,
        0.001166504924185574,
        0.010734676383435726,
        0.0013337478740140796,
        0.0014290537219494581,
        -0.00022153311874717474,
        -0.0002510247577447444,
        0.014748923480510712,
        0.020485062152147293,
        0.0072510456666350365,
        0.0010191911133006215,
        0.01845945231616497,
        0.015547524206340313,
        0.0007073170854710042,
        0.004897156730294228,
        0.006447050254791975,
        -0.010759619064629078,
        0.007058229763060808,
        -0.0003530618851073086,
        0.001507431734353304,
        -0.002265492919832468,
        -0.0005916279624216259,
        0.01073765754699707,
        -0.015207162126898766,
        0.006565036717802286,
        0.0054438309744000435,
        0.0008103013969957829,
        0.01526063121855259,
        0.015060052275657654,
        0.00285668415017426,
        -0.02162794955074787,
        -0.0026958552189171314,
        0.0003087504592258483,
        0.009826086461544037,
        0.004223010502755642,
        0.010233347304165363,
        1.5894453099463135e-05,
        0.023926828056573868,
        -0.0005293574649840593,
        -0.0014744813088327646,
        0.01525142788887024,
        -0.0012112937401980162,
        0.017811480909585953,
        0.012176311574876308,
        0.011320781894028187,
        0.0019066602690145373,
        0.003832284826785326,
        0.01719457283616066,
        0.0012078003492206335,
        0.009251429699361324,
        0.02696150541305542,
        -0.0012264354154467583,
        0.002881920663639903,
        -0.0007216799422167242,
        0.013855609111487865,
        -0.0001114778351620771,
        0.009282713755965233,
        0.013664964586496353,
        0.0023976301308721304,
        -0.0362381748855114,
        0.001555211958475411,
        0.006111128721386194,
        0.0013955695321783423,
        1.1330354027450085e-05,
        0.012758827768266201,
        0.014575832523405552,
        0.006286710035055876,
        -0.0013959499774500728,
        0.005596863571554422,
        -0.037872813642024994,
        0.0014953158097341657,
        0.02314692549407482,
        0.005826439708471298,
        0.0028864822816103697,
        0.006417041178792715,
        0.0001937533961609006,
        0.017749885097146034,
        0.0004892984288744628,
        0.0010006672237068415,
        -0.01325226854532957,
        -0.0007091498700901866,
        0.017520416527986526,
        -0.0015708819264546037,
        0.014003202319145203,
        0.014714865013957024,
        0.018504325300455093,
        0.0029826017562299967,
        -0.0006076596328057349,
        0.005858835764229298,
        -0.0015566080110147595,
        0.01379440352320671,
        -0.001410729717463255,
        -0.00027155951829627156,
        0.0042118108831346035,
        0.005051457788795233,
        0.002077721292153001,
        0.0006564621580764651,
        -0.0021809744648635387,
        0.0025535079184919596,
        0.00974490586668253,
        0.014890137128531933,
        0.005468661896884441,
        0.033512357622385025,
        -0.003150623757392168,
        0.007676632143557072,
        0.011721653863787651,
        0.0016113172750920057,
        -0.01739151030778885,
        0.00915638729929924,
        0.0023548961617052555,
        0.009504402056336403,
        -0.025399962440133095,
        0.009937106631696224,
        0.0012581723276525736,
        -0.008080748841166496,
        0.005102923605591059,
        0.000528033182490617,
        0.0009417664841748774,
        -0.0003639360948000103,
        0.00962093286216259,
        0.0016417672159150243,
        -0.0006293372716754675,
        0.0025127537082880735,
        -0.001415322651155293,
        0.011828781105577946,
        -0.0004384802596177906,
        0.005821672733873129,
        0.016391275450587273,
        0.007693733088672161,
        1.9416125724092126e-05,
        0.009737933054566383,
        -0.003938428126275539,
        0.0026503829285502434,
        -0.031206302344799042,
        -0.014784751459956169,
        0.01679929532110691,
        0.0013165132841095328,
        0.012301383540034294,
        0.0015761841787025332,
        -0.0013667570892721415,
        0.01729489117860794,
        0.018333716318011284,
        0.002020862651988864,
        0.012270706705749035,
        0.0032787013333290815,
        -0.0036960996221750975,
        0.01597260683774948,
        -0.023599078878760338,
        -6.268879224080592e-05,
        0.009630466811358929,
        0.0008671996183693409,
        -0.0006462588789872825,
        0.0008948252070695162,
        0.013088918291032314,
        0.008208106271922588,
        0.004887934308499098,
        0.01446446217596531,
        0.0027685652021318674,
        0.004063203930854797,
        0.010504564270377159,
        -0.00032366058439947665,
        -0.00038396252784878016,
        -0.001655159518122673,
        0.0007357854046858847,
        0.0005392945022322237,
        0.01255419384688139,
        -0.0010269414633512497,
        -0.0009886816842481494,
        0.0007370510720647871,
        0.005768817849457264,
        0.005604004021733999,
        -0.002142106182873249,
        0.003917529247701168,
        -0.003194817341864109,
        0.009114664979279041,
        0.005472464021295309,
        0.0011922016274183989,
        0.012154235504567623,
        0.0034279925748705864,
        0.01811624877154827,
        0.02202501893043518,
        0.0039854496717453,
        0.0123204430565238,
        0.0010255776578560472,
        0.00013860796752851456,
        0.015377304516732693,
        0.00691981753334403,
        -0.0013692529173567891,
        0.0021340707316994667,
        -0.0008345578680746257,
        -0.00017189682694151998,
        0.013364815153181553,
        -7.07752478774637e-05,
        0.0129700331017375,
        0.010089538060128689,
        0.010738571174442768,
        0.018972741439938545,
        -0.0005284530925564468,
        0.01402725838124752,
        0.0006963266059756279,
        0.006737865041941404,
        -0.010498618707060814,
        0.014238222502171993,
        0.004405940417200327,
        0.012128730304539204,
        0.012697854079306126,
        0.008262066170573235,
        0.011495202779769897,
        0.0009245926630683243,
        -0.0010971310548484325,
        -0.0015339079545810819,
        0.011103475466370583,
        0.007118414156138897,
        -0.0004974715411663055,
        -0.007765416521579027,
        0.013158191926777363,
        -0.0016412606928497553,
        0.0111014973372221,
        0.01544870063662529,
        0.029948439449071884,
        0.011434350162744522,
        0.013920614495873451,
        -0.0006861918955110013,
        0.00852308887988329,
        -0.0008916374063119292,
        -0.0007741719018667936,
        0.010489623062312603,
        0.0007746682967990637,
        0.01143473107367754,
        0.0014218335272744298,
        0.02446153573691845,
        -0.00010347302304580808,
        0.0008244296186603606,
        -8.573816739954054e-05,
        0.008403461426496506,
        -0.00041715812403708696,
        0.0027010501362383366,
        0.004192896652966738,
        -0.00028214650228619576,
        0.0030476588290184736,
        0.003180241910740733,
        -0.0004137006471864879,
        0.010167143307626247,
        -0.009423097595572472,
        0.005909493658691645,
        0.00973460078239441,
        0.00797562301158905,
        -0.0003965168434660882,
        0.008934279903769493,
        -0.0002457566442899406,
        0.0005029512103646994,
        -0.0007351955864578485,
        0.015153623186051846,
        -0.003082552459090948,
        0.001006772043183446,
        -0.0012833514483645558,
        0.0016296874964609742,
        0.008922268636524677,
        -0.0007307797786779702,
        0.0006293528131209314,
        0.0021890634670853615,
        0.00213001761585474,
        0.009436234831809998,
        0.015237229876220226,
        0.0029398745391517878,
        0.000257719773799181,
        0.011692708358168602,
        0.007077457383275032,
        0.0013041566126048565,
        0.0033266686368733644,
        0.00904025137424469,
        -0.007685634307563305,
        0.0023523063864558935,
        0.00229853973723948,
        0.0006218847702257335,
        0.002174538793042302,
        0.0036616167053580284,
        0.006130237597972155,
        -0.009096900001168251,
        -0.0020296077709645033,
        0.0051836855709552765,
        0.0032133792992681265,
        0.008848813362419605,
        0.01182090025395155,
        0.0017077861120924354,
        -0.008828566409647465,
        0.000636860728263855,
        -0.0007137309294193983,
        0.008106015622615814,
        0.008352203294634819,
        0.010040306486189365,
        0.0016168232541531324,
        0.014583471231162548,
        -0.0016797243151813745,
        0.00013534005847759545,
        0.004209204576909542,
        -0.0014253020053729415,
        0.011386184953153133,
        0.007641973439604044,
        0.012786581180989742,
        0.00421482278034091,
        0.005240685306489468,
        0.007311506662517786,
        -0.0003220831567887217,
        0.006671497598290443,
        0.018391285091638565,
        -7.397787703666836e-05,
        0.008577217347919941,
        0.0026507468428462744,
        0.006294521503150463,
        -0.0007596399518661201,
        0.006136128678917885,
        0.00931462086737156,
        0.0038313157856464386,
        -0.023949207738041878,
        -0.0004043332883156836,
        0.007425339426845312,
        -0.0009028634522110224,
        0.001294871442951262,
        0.010374044999480247,
        0.010277992114424706,
        0.003974548541009426,
        -0.0009055973496288061,
        0.004156072624027729,
        -0.01908881589770317,
        0.001452500931918621,
        0.009217684157192707,
        0.0054596480913460255,
        -0.0010540622752159834,
        0.005360006354749203,
        -0.001722573535516858,
        0.010833104141056538,
        0.0023075544741004705,
        0.0062766363844275475,
        -0.005007755011320114,
        0.0017171812942251563,
        0.010624047368764877,
        -0.0008756032912060618,
        0.0055710808373987675,
        0.010929238051176071,
        0.010451859794557095,
        0.008429999463260174,
        0.00010110165021615103,
        0.006250642705708742,
        -0.001102068810723722,
        0.007032702676951885,
        0.0020887472201138735,
        0.000595354475080967,
        0.005461195483803749,
        0.002921890467405319,
        -0.002350179711356759,
        -0.00038344328640960157,
        -0.0010930020362138748,
        0.0034748695325106382,
        0.005982184316962957,
        0.006041887681931257,
        0.0054085394367575645,
        0.023804686963558197,
        0.0007794210105203092,
        0.0029643974266946316,
        0.009589459747076035,
        -0.001105882111005485,
        -0.005275000352412462,
        0.009247622452676296,
        0.0004047109978273511,
        0.010183955542743206,
        -0.00788725633174181,
        0.006073171738535166,
        -0.0015641808276996017,
        -0.0050603304989635944,
        0.0038476677145808935,
        0.002740014810115099,
        0.002142622135579586,
        0.0002135776448994875,
        0.008147217333316803,
        0.0019151095766574144,
        0.0012025674805045128,
        0.0008150463690981269,
        0.0002481640549376607,
        0.008957491256296635,
        -0.00038976073847152293,
        0.008609278127551079,
        0.0094781294465065,
        0.006596733815968037,
        -0.0012046857737004757,
        0.0080989645794034,
        -0.0009574964642524719,
        0.006219588220119476,
        -0.016449743881821632,
        -0.005895433481782675,
        0.013352849520742893,
        -0.0007970952428877354,
        0.008387305773794651,
        0.0011654967674985528,
        -5.9963302192045376e-05,
        0.006991625297814608,
        0.01258990541100502,
        0.0028502887580543756,
        0.006116087082773447,
        0.004023718181997538,
        0.0009226539987139404,
        0.009692356921732426,
        -0.013300220482051373,
        0.0039217774756252766,
        0.01071688812226057,
        -0.00038385350489988923,
        -0.0005910780164413154,
        0.0027522214222699404,
        0.004301794338971376,
        0.0032417289912700653,
        0.005161818582564592,
        0.005552355200052261,
        0.00298498896881938,
        -0.007346400059759617,
        0.008603496477007866,
        -0.001665533403865993,
        0.0007998727378435433,
        -0.00034517288440838456,
        0.0018437228864058852,
        0.002093432005494833,
        0.005429186392575502,
        0.003499153768643737,
        0.001259304117411375,
        0.0009734703344292939,
        0.0058942814357578754,
        0.004949124064296484,
        -0.003586151171475649,
        0.005972683429718018,
        0.0005079681286588311,
        0.0055180820636451244,
        0.00527955312281847,
        -0.0006957808509469032,
        0.005455072969198227,
        0.0074786655604839325,
        0.007891712710261345,
        0.01775844395160675,
        0.005012116394937038,
        0.009028960950672626,
        0.0003505446366034448,
        -6.096884681028314e-05,
        0.010472314432263374,
        0.00687819579616189,
        -0.0005409976001828909,
        -0.0008024693815968931,
        -0.0014210648369044065,
        -0.0004676810931414366,
        0.010931622236967087,
        -0.00033252767752856016,
        0.011909629218280315,
        0.006841748021543026,
        0.0059582144021987915,
        0.015579606406390667,
        -0.0006679238867945969,
        0.013758477754890919,
        0.001996197970584035,
        0.004714339971542358,
        -0.010057978332042694,
        0.006392526440322399,
        0.00502290204167366,
        0.010287616401910782,
        0.005104374140501022,
        0.004609283059835434,
        0.007617020048201084,
        -0.0012437041150406003,
        0.0011760122142732143,
        0.0010487985564395785,
        0.009545697830617428,
        0.005610469728708267,
        -0.0005091222701594234,
        -0.003949189558625221,
        0.006381993182003498,
        0.0028253195341676474,
        0.010768348351120949,
        0.0026219915598630905,
        0.018099168315529823,
        0.01406408566981554,
        0.009115603752434254,
        -0.0001805208157747984,
        0.004428088665008545,
        0.002238386543467641,
        0.002151786582544446,
        0.009026680141687393,
        9.213044540956616e-05,
        0.004959115758538246,
        0.00045763011439703405,
        0.014830607920885086,
        -0.0006322888657450676,
        0.00011801987420767546,
        -0.0007783023174852133,
        0.0068127913400530815,
        -0.0007134354091249406,
        -0.000348257424775511,
        0.005108774174004793,
        0.0013709639897570014,
        0.007495601195842028,
        0.001705395639874041,
        0.0026516520883888006,
        0.011879650875926018,
        -0.011176030151546001,
        0.002223062328994274,
        0.015030627138912678,
        0.011053713038563728,
        0.0012852437794208527,
        0.012678409926593304,
        -0.006709768902510405,
        0.005032314453274012,
        0.002583314897492528,
        0.011519347317516804,
        0.0007340101292356849,
        0.002495385939255357,
        -0.006754932459443808,
        -0.00015538398292846978,
        0.012392111122608185,
        -0.00024512872914783657,
        0.0014007785357534885,
        -0.0007624224526807666,
        0.002746094251051545,
        0.008186250925064087,
        0.016169924288988113,
        0.00452779233455658,
        0.0016973563469946384,
        0.00851596612483263,
        0.012630692683160305,
        0.0009137565502896905,
        0.004484759643673897,
        0.010191931389272213,
        -0.012002473697066307,
        0.011400035582482815,
        -0.0011316757882013917,
        0.000653124472592026,
        0.008399435319006443,
        0.001131698489189148,
        0.0064675891771912575,
        -0.013846522197127342,
        -0.002558176638558507,
        0.005085461772978306,
        -0.0012852087384089828,
        0.009697764180600643,
        0.010048756375908852,
        0.0018892325460910797,
        -0.012620611116290092,
        -0.0003558698226697743,
        0.0015634371666237712,
        0.005991523154079914,
        0.010135681368410587,
        0.005661525763571262,
        0.0004044035158585757,
        0.013363488018512726,
        0.0002884016721509397,
        -0.0004990174784325063,
        0.006660136394202709,
        0.002063312102109194,
        0.007911860942840576,
        0.007762856315821409,
        0.010800980031490326,
        0.0035974779166281223,
        0.0037649839650839567,
        0.009589044377207756,
        -0.001874147797934711,
        0.006195387803018093,
        0.017269007861614227,
        0.0014257316943258047,
        0.010540331713855267,
        0.00023657720885239542,
        0.010974823497235775,
        0.001245361054316163,
        0.006997501011937857,
        0.00787847489118576,
        0.009873639792203903,
        -0.031287211924791336,
        0.0002702717902138829,
        0.010872911661863327,
        0.0012214542366564274,
        -0.0009678498608991504,
        0.008878884837031364,
        0.008342406712472439,
        0.00511478865519166,
        0.0012861700961366296,
        0.002741776406764984,
        -0.01882653683423996,
        0.0005779169732704759,
        0.011759856715798378,
        0.0038039458449929953,
        0.0001734147226670757,
        0.003093712031841278,
        -0.004017679486423731,
        0.011448254808783531,
        0.00036703606019727886,
        0.0077009680680930614,
        -0.004760416224598885,
        0.0010779246222227812,
        0.011749176308512688,
        0.0014648843789473176,
        0.007458140142261982,
        0.01172532606869936,
        0.015916189178824425,
        0.007200086489319801,
        -0.0017432654276490211,
        0.005417118314653635,
        -0.0021704279351979494,
        0.0076868124306201935,
        0.0007943758391775191,
        0.0008974607335403562,
        0.00766908610239625,
        0.00526755815371871,
        -0.0061569190584123135,
        2.272855635965243e-05,
        0.004378858022391796,
        0.0016364556504413486,
        0.00928758829832077,
        0.007973317056894302,
        0.011342288926243782,
        0.017824403941631317,
        0.0017261456232517958,
        0.002783637261018157,
        0.011326243169605732,
        0.002795961918309331,
        -0.001573730492964387,
        0.006417194847017527,
        -0.001349558588117361,
        0.01291696261614561,
        0.0010934255551546812,
        0.01175909023731947,
        0.0023709177039563656,
        -0.009967926889657974,
        0.0035447569098323584,
        0.008770057000219822,
        0.0014697653241455555,
        -0.0007415285799652338,
        0.0043258811347186565,
        0.0027868321631103754,
        0.002370420377701521,
        0.002111607464030385,
        0.00025608393480069935,
        0.006103056948632002,
        0.0019210594473406672,
        0.011728807352483273,
        0.006897993851453066,
        0.006759730167686939,
        -5.2143444918328896e-05,
        0.008317474275827408,
        0.00018065884069073945,
        0.0014135520905256271,
        -0.023276042193174362,
        -0.011895417235791683,
        0.012040148489177227,
        0.000888631388079375,
        0.006755721755325794,
        0.001593058230355382,
        0.0006089573726058006,
        0.010693982243537903,
        0.010041892528533936,
        0.0007121022208593786,
        0.008098994381725788,
        0.0009154019062407315,
        -0.0010713986121118069,
        0.009764081798493862,
        -0.018804093822836876,
        0.0008589947246946394,
        0.015959417447447777,
        0.0013747498160228133,
        0.0006487441714853048,
        -0.0018928326899185777,
        0.006778302136808634,
        0.006589602213352919,
        0.011407135054469109,
        0.006066597066819668,
        0.00011655933485599235,
        -0.003771676681935787,
        0.016775676980614662,
        0.0029057550709694624,
        -0.0004812393453903496,
        0.002537943422794342,
        0.0001188678143080324,
        0.0007984080584719777,
        0.0055379681289196014,
        0.002373605268076062,
        0.001704346272163093,
        -0.0003404438029974699,
        0.00465440796688199,
        0.004311325494199991,
        -0.0017242401372641325,
        0.0038628489710390568,
        0.0012617335887625813,
        0.001000306918285787,
        0.0032292765099555254,
        0.0014512529596686363,
        0.004247658886015415,
        0.005589604843407869,
        0.009198636747896671,
        0.020613370463252068,
        0.009604186750948429,
        0.009001605212688446,
        -0.002183695789426565,
        -0.0007378645823337138,
        0.00883302092552185,
        0.0062173702754080296,
        0.0019588323775678873,
        0.0009340776014141738,
        0.0004465655656531453,
        0.0018522713799029589,
        0.015105543658137321,
        0.0001304275938309729,
        0.009758589789271355,
        0.007039298769086599,
        0.007373372092843056,
        0.024210182949900627,
        0.0007666810415685177,
        0.019322659820318222,
        -0.0009176961611956358,
        0.0033572432585060596,
        -0.012465047650039196,
        0.007223271764814854,
        0.00906667672097683,
        0.00717663811519742,
        0.005867708474397659,
        0.00690589239820838,
        0.00670131528750062,
        0.0007934455061331391,
        0.0020577749237418175,
        0.0018384552095085382,
        0.008079963736236095,
        0.009524324908852577,
        -0.0007457751198671758,
        6.178398325573653e-05,
        0.009103205054998398,
        0.005721171852201223,
        0.011505058035254478,
        0.0038064823020249605,
        0.01413012109696865,
        0.018849749118089676,
        0.008615243248641491,
        0.0014852529857307673,
        0.0025850951205939054,
        0.00044222865835763514,
        -0.00010677830141503364,
        0.004895233549177647,
        -8.528759644832462e-05,
        0.008116601966321468,
        0.0019058471079915762,
        0.013954145833849907,
        0.002032478107139468,
        0.0014235107228159904,
        -0.0007722049485892057,
        0.008288823999464512,
        0.0007544890395365655,
        0.0007548460271209478,
        0.005767912603914738,
        0.0073633878491818905,
        0.008486222475767136,
        0.006046117749065161,
        -0.0018044745083898306,
        0.017740290611982346,
        -0.01724129356443882,
        0.0034100550692528486,
        0.01565670594573021,
        0.013954528607428074,
        -0.0012048733187839389,
        0.01842249184846878,
        -0.013738146051764488,
        0.009291567839682102,
        -0.0022175482008606195,
        0.01881428435444832,
        0.0005621550953947008,
        0.0019666191656142473,
        -0.015773307532072067,
        0.002602739492431283,
        0.014349587261676788,
        0.0013484316878020763,
        -0.00020596306421793997,
        -0.0005115372478030622,
        0.0003061512252315879,
        0.009629607200622559,
        0.02151615358889103,
        0.004813190083950758,
        -0.0019112625159323215,
        0.011760905385017395,
        0.009355745278298855,
        0.0005361142102628946,
        0.0009045259794220328,
        0.01305379718542099,
        -0.018786607310175896,
        0.014370957389473915,
        -0.0023477671202272177,
        -0.0009065213380381465,
        0.008372005075216293,
        0.005197594873607159,
        0.00954674556851387,
        -0.025693416595458984,
        -0.005914690904319286,
        0.008003728464245796,
        -0.0013369633816182613,
        0.015223461203277111,
        0.010983610525727272,
        0.0035959226079285145,
        -0.017764579504728317,
        0.002301866887137294,
        -0.0009424146846868098,
        0.009367134422063828,
        0.011615442112088203,
        0.006483274046331644,
        0.0008431469323113561,
        0.016360705718398094,
        0.00081629742635414,
        -0.002108649117872119,
        0.01114291325211525,
        0.00013488694094121456,
        0.014291536994278431,
        0.01078861579298973,
        0.01323100458830595,
        0.005687526427209377,
        0.005404292140156031,
        0.013746245764195919,
        -0.00377668091095984,
        0.0072646415792405605,
        0.024793554097414017,
        -0.0023216945119202137,
        0.01567775197327137,
        -0.0010979401413351297,
        0.007104428019374609,
        -0.0003777111123781651,
        0.0060119954869151115,
        0.012467165477573872,
        0.008143026381731033,
        -0.04220352694392204,
        -0.0022737050894647837,
        0.012207931838929653,
        0.0009333299822174013,
        0.00016660487744957209,
        0.013921618461608887,
        0.008562694303691387,
        0.010161790996789932,
        -0.002583062741905451,
        0.005277437157928944,
        -0.02515448071062565,
        0.0016320390859618783,
        0.01631270721554756,
        0.006110057234764099,
        -0.0019085739040747285,
        0.007933641783893108,
        -0.011340917088091373,
        0.017411934211850166,
        0.0005148430354893208,
        0.008052960969507694,
        -0.0011642195750027895,
        0.0010142949176952243,
        0.014907131902873516,
        0.0016936485189944506,
        0.009129771031439304,
        0.011682701297104359,
        0.015389916487038136,
        0.010882090777158737,
        -0.004082607105374336,
        0.008588057942688465,
        -0.006874618120491505,
        0.013867423869669437,
        0.0016904184594750404,
        -0.002242830116301775,
        0.010142059065401554,
        0.006225076969712973,
        -0.010117807425558567,
        0.0025664051063358784,
        0.006482269614934921,
        -0.0026178830303251743,
        0.009824853390455246,
        0.011222115717828274,
        0.012047921307384968,
        0.026867622509598732,
        -6.7352293626754545e-06,
        0.001873236265964806,
        0.014640194363892078,
        0.0011045902501791716,
        0.004472500644624233,
        0.011906925588846207,
        -0.0007668994949199259,
        0.015790635719895363,
        -0.003458281047642231,
        0.012161735445261002,
        -0.0008761538192629814,
        -0.012960391119122505,
        0.008448087610304356,
        0.010838218033313751,
        0.0018853931687772274,
        -0.001211934955790639,
        0.012276694178581238,
        -0.00027544726617634296,
        -0.0006199363269843161,
        -0.002281822729855776,
        -0.0018065182957798243,
        0.006802021525800228,
        4.4271513615967706e-05,
        0.013868405483663082,
        0.008987890556454659,
        0.009639509953558445,
        -0.0005562345613725483,
        0.008257284760475159,
        0.0007991837919689715,
        0.0017731671687215567,
        -0.033461492508649826,
        -0.017987165600061417,
        0.017387140542268753,
        0.0007234674994833767,
        0.008101090788841248,
        0.005012555979192257,
        -0.00031144669628702104,
        0.013348320499062538,
        0.016404947265982628,
        -0.0015280809020623565,
        0.009130176156759262,
        0.002360259648412466,
        0.001162752159871161,
        0.01328161358833313,
        -0.022023536264896393,
        -0.00036648535751737654,
        0.019227752462029457,
        -0.00036086273030377924,
        0.0016200973186641932,
        -0.0038350161630660295,
        0.007641376927495003,
        0.006548895034939051,
        0.011173627339303493,
        0.0091542424634099,
        0.003104219678789377,
        -0.006241737399250269,
        0.018535073846578598,
        0.0012057056883350015,
        -0.000504477706272155,
        0.0014938374515622854,
        0.0008877338841557503,
        0.001063769101165235,
        0.013668619096279144,
        0.0024281342048197985,
        -0.00027976554702036083,
        -0.00030687672551721334,
        0.006419828627258539,
        0.005019304342567921,
        -0.0007345443591475487,
        0.006941666826605797,
        -0.0019341828301548958,
        0.0053159636445343494,
        0.005439650733023882,
        -0.0014434333425015211,
        0.005694121588021517,
        0.009035130962729454,
        0.009927156381309032,
        0.025096897035837173,
        0.009701713919639587,
        0.00973941944539547,
        -0.005014668684452772,
        -0.0019357360433787107,
        0.012657929211854935,
        0.007065467070788145,
        -0.00026102468837052584,
        0.002132219495251775,
        -0.0026295469142496586,
        0.000678227108437568,
        0.016215050593018532,
        0.0014630664372816682,
        0.015346369706094265,
        0.010911081917583942,
        0.010678170248866081,
        0.023619553074240685,
        -0.0008068929892033339,
        0.024766230955719948,
        -0.001574286725372076,
        0.007640658877789974,
        -0.015794413164258003,
        0.010903539136052132,
        0.006246320437639952,
        0.01345041859894991,
        0.007619671057909727,
        0.007447069976478815,
        0.010480215772986412,
        0.0007749078213237226,
        0.000553942983970046,
        -0.0035617577377706766,
        0.012097874656319618,
        0.009624728932976723,
        -0.0071456036530435085,
        0.002243942813947797,
        0.01007169671356678,
        0.003600762225687504,
        0.013244586065411568,
        0.004608792252838612,
        0.023076051846146584,
        0.020589809864759445,
        0.014415756799280643,
        0.0010745651088654995,
        0.0019427029183134437,
        0.0006405860185623169,
        0.0020078502129763365,
        0.00797105673700571,
        0.00013746920740231872,
        0.012398485094308853,
        -0.0010894902516156435,
        0.020137835294008255,
        -0.0015892956871539354,
        -2.5947432732209563e-05,
        -0.00042826944263651967,
        0.007874635979533195,
        -0.00018489209469407797,
        -0.001706937444396317,
        0.0018919493304565549,
        0.008218732662498951,
        0.01899079419672489,
        0.00870185624808073,
        0.0018196206074208021,
        0.01779315434396267,
        -0.014156206510961056,
        0.0015325529966503382,
        0.023997073993086815,
        0.011103802360594273,
        0.0031469480600208044,
        0.019306248053908348,
        -0.014512208290398121,
        0.009530438110232353,
        0.001962366746738553,
        0.019123557955026627,
        0.0012911629164591432,
        0.0005789665156044066,
        -0.013948379084467888,
        0.0031174574978649616,
        0.019802117720246315,
        -0.0014522024430334568,
        -0.0018912390805780888,
        0.0005812213639728725,
        0.0009778891690075397,
        0.010133475065231323,
        0.021480126306414604,
        0.007107967976480722,
        0.000834960606880486,
        0.01687084138393402,
        0.014891654253005981,
        0.001775909448042512,
        -0.0037182203959673643,
        0.013845914043486118,
        -0.024559825658798218,
        0.01651454158127308,
        0.0002808910794556141,
        0.0009375474764965475,
        0.014450830407440662,
        0.006599134299904108,
        0.020877648144960403,
        -0.02709116041660309,
        -0.013467838056385517,
        0.014804952777922153,
        -0.0015658455668017268,
        0.022196868434548378,
        0.01882060617208481,
        0.017585089430212975,
        -0.022113680839538574,
        0.0022019611205905676,
        -0.002916008932515979,
        0.01584783010184765,
        0.01261067297309637,
        0.0070788017474114895,
        -0.00046961798216216266,
        0.019824545830488205,
        0.005064258351922035,
        -0.0015454888343811035,
        0.015668554231524467,
        -0.0015610025729984045,
        0.013606690801680088,
        0.019800039008259773,
        0.0172110665589571,
        0.0030963884200900793,
        0.010622766800224781,
        0.012396560981869698,
        -0.0077293626964092255,
        0.017747575417160988,
        0.022010019049048424,
        0.001878810115158558,
        0.01445864513516426,
        -0.0020128395408391953,
        0.008736135438084602,
        0.0007294741226360202,
        0.012791076675057411,
        0.023474497720599174,
        0.008305532857775688,
        -0.06261733919382095,
        -0.002370404312387109,
        0.015164179727435112,
        -0.001842221710830927,
        -0.000697468698490411,
        0.025283904746174812,
        0.01116511132568121,
        0.01256728358566761,
        -0.002851430792361498,
        0.009336339309811592,
        -0.038453057408332825,
        -0.0008475026115775108,
        0.02059614285826683,
        0.012976191937923431,
        -0.005433282814919949,
        0.005344728473573923,
        -0.007300046272575855,
        0.023669816553592682,
        -0.0016565828118473291,
        0.006303815636783838,
        -0.001847218838520348,
        -0.0010111366864293814,
        0.02616242878139019,
        0.0006737273652106524,
        0.01097135990858078,
        0.021978657692670822,
        0.026000650599598885,
        0.016842324286699295,
        -0.002146748825907707,
        0.01958760805428028,
        -0.002963390899822116,
        0.01995839923620224,
        -0.00042219116585329175,
        0.0007486344547942281,
        0.011626297608017921,
        0.011714535765349865,
        -0.01117773074656725,
        0.0021105478517711163,
        0.011811996810138226,
        -0.001139666186645627,
        0.018932070583105087,
        0.010052441619336605,
        0.005108237732201815,
        0.02491833083331585,
        0.0023746779188513756,
        -0.00011459978122729808,
        0.016720512881875038,
        -0.00022869060921948403,
        0.003980905283242464,
        0.010478606447577477,
        -0.0010979415383189917,
        0.017755884677171707,
        0.011269276961684227,
        0.011177275329828262,
        0.0018997077131643891,
        -0.023013830184936523,
        0.013812019489705563,
        0.008001894690096378,
        -0.00022428948432207108,
        0.0013773071113973856,
        0.02005745656788349,
        0.0019820858724415302,
        -0.0014332211576402187,
        0.0002543948357924819,
        0.002294058445841074,
        0.006690106820315123,
        -0.0008652833639644086,
        0.013100892305374146,
        0.0059413425624370575,
        0.01020900346338749,
        -0.0007347337086685002,
        0.009113717824220657,
        0.006615722551941872,
        -0.002016128273680806,
        -0.03908456489443779,
        -0.021414129063487053,
        0.03416067361831665,
        -0.0017374990275129676,
        0.012028465047478676,
        0.007642839569598436,
        0.0008064497378654778,
        0.012918473221361637,
        0.026907404884696007,
        0.0013637375086545944,
        0.01995624415576458,
        0.008668502792716026,
        0.009020832367241383,
        0.016149746254086494,
        -0.03481132537126541,
        -0.0015999237075448036,
        0.021591829136013985,
        -0.00035398214822635055,
        0.0011392408050596714,
        -0.0038403673097491264,
        0.011395709589123726,
        0.006576066371053457,
        0.01117535587400198,
        0.009562640450894833,
        0.004010223783552647,
        -0.009857749566435814,
        0.021594533696770668,
        3.632114385254681e-05,
        -0.00021614778961520642,
        -0.0007689326885156333,
        0.0020333444699645042,
        -0.0001677690597716719,
        0.02253112383186817,
        0.0047515504993498325,
        0.0018494048854336143,
        0.0011942728888243437,
        0.008578430861234665,
        0.002814103150740266,
        0.0011903750710189342,
        0.0037466997746378183,
        0.0026674289256334305,
        0.006365237291902304,
        0.00957689993083477,
        -0.0005568364867940545,
        0.007975954562425613,
        0.004314064513891935,
        0.013930725865066051,
        0.024367427453398705,
        0.011511110700666904,
        0.006473718211054802,
        -0.003374539315700531,
        -0.0012071763630956411,
        0.025583522394299507,
        0.006378051359206438,
        0.0018560844473540783,
        0.0004081269435118884,
        0.0015089393127709627,
        0.00021135908900760114,
        0.022043824195861816,
        0.0024240086786448956,
        0.015316293574869633,
        0.020645223557949066,
        0.020779581740498543,
        0.03153283894062042,
        0.0014036648208275437,
        0.024624329060316086,
        -0.0007457652245648205,
        0.013197410851716995,
        -0.0293200071901083,
        0.014132277108728886,
        0.005890313535928726,
        0.01796049438416958,
        0.006484231445938349,
        0.015392925590276718,
        0.016014549881219864,
        0.0005357849877327681,
        0.0025958605110645294,
        0.002682742662727833,
        0.023831801488995552,
        0.009712803177535534,
        -0.009991534054279327,
        0.012160573154687881,
        0.01311699952930212,
        0.014224656857550144,
        0.017031732946634293,
        0.009726348333060741,
        0.030946368351578712,
        0.025739867240190506,
        0.017845064401626587,
        0.001613189815543592,
        0.0018637885805219412,
        0.0025231873150914907,
        -0.0014063251437619328,
        0.0041673812083899975,
        0.0019168020226061344,
        0.013907398097217083,
        -0.001091065350919962,
        0.027927633374929428,
        0.0006433251546695828,
        0.0023041830863803625,
        0.0030667816754430532,
        0.01204956229776144,
        0.0019156304188072681,
        -0.0021185989025980234,
        0.002406091894954443,
        -0.0013798871077597141,
        0.006726520601660013,
        0.0017622750019654632,
        0.0008457209914922714,
        0.014790146611630917,
        -0.011519759893417358,
        0.005007737781852484,
        0.013971447944641113,
        0.014943531714379787,
        -0.006575786508619785,
        0.013246424496173859,
        -0.008987908251583576,
        0.001111383200623095,
        -0.0012019419809803367,
        0.017753666266798973,
        -0.007028358988463879,
        -0.0006781481788493693,
        -0.007694064639508724,
        0.0002731883432716131,
        0.0106613514944911,
        0.0018530497327446938,
        -0.0016350768273696303,
        0.0017713498091325164,
        0.0007892272551544011,
        0.01180932205170393,
        0.025042274966835976,
        0.0066177863627672195,
        -0.0011814399622380733,
        0.013880644924938679,
        0.015205774456262589,
        0.001193106989376247,
        0.005242316052317619,
        0.008854690939188004,
        -0.014103463850915432,
        0.004940273705869913,
        0.0016612770268693566,
        0.0018184739165008068,
        0.0035922471433877945,
        0.003611853579059243,
        0.01349317841231823,
        -0.020422283560037613,
        0.0007664489094167948,
        0.009144002571702003,
        0.0002522505819797516,
        0.01471346989274025,
        0.012374147772789001,
        0.006423250772058964,
        -0.01951412297785282,
        -0.0011705149663612247,
        -0.0003830744244623929,
        0.011694452725350857,
        0.006592079997062683,
        0.007898354902863503,
        -0.000526159827131778,
        0.019097400829195976,
        -0.002126809675246477,
        -0.0017714346759021282,
        0.012791156768798828,
        -0.0017752056010067463,
        0.016100646927952766,
        0.01451269444078207,
        0.014690171927213669,
        0.005593356676399708,
        0.006576902698725462,
        0.012871229089796543,
        -0.0008518591057509184,
        0.011290824972093105,
        0.025685729458928108,
        -0.002521856687963009,
        0.011456605046987534,
        0.0017087332671508193,
        0.011152174323797226,
        -0.0013925444800406694,
        0.0050767892971634865,
        0.012677475810050964,
        0.007107850629836321,
        -0.03743220493197441,
        -0.0009103076299652457,
        0.0063237156718969345,
        -0.0014171646907925606,
        0.0002339447382837534,
        0.014007431454956532,
        0.01002356968820095,
        0.00488636177033186,
        -0.001002383534796536,
        0.0073915631510317326,
        -0.0343046672642231,
        0.0010080370120704174,
        0.01665637642145157,
        0.005929762497544289,
        -0.004210485611110926,
        0.008046906441450119,
        0.0010391761315986514,
        0.015324459411203861,
        -0.0005618573632091284,
        0.0043058800511062145,
        -0.009433560073375702,
        1.4813063899055123e-05,
        0.013081894256174564,
        -0.00030666193924844265,
        0.009284928441047668,
        0.01546105183660984,
        0.02015148475766182,
        0.008885951712727547,
        0.0003720997483469546,
        0.004524853080511093,
        -0.0019472915446385741,
        0.01392059214413166,
        -0.001750717987306416,
        0.00010673367069102824,
        0.005585149396210909,
        0.007920138537883759,
        -0.002338567515835166,
        -0.0002591022930573672,
        -0.003659972455352545,
        0.0009230162249878049,
        0.013318617828190327,
        0.01214653067290783,
        0.007527305744588375,
        0.03116980381309986,
        -0.0008337288745678961,
        0.0032758922316133976,
        0.015482189133763313,
        -0.00039681605994701385,
        -0.013699866831302643,
        0.01025192067027092,
        0.0023262130562216043,
        0.015710189938545227,
        -0.01911974884569645,
        0.009826711378991604,
        -0.0015509917866438627,
        -0.010426824912428856,
        0.00787134189158678,
        0.004519358742982149,
        -0.0001249635824933648,
        0.0014869539299979806,
        0.0095497015863657,
        -0.0005928899627178907,
        -0.00029226636979728937,
        0.000196171022253111,
        -0.00039162475150078535,
        0.008523637428879738,
        0.0020182563457638025,
        0.00968217570334673,
        0.015115352347493172,
        0.012165351770818233,
        -0.0015544153284281492,
        0.01030614972114563,
        -0.003952993545681238,
        0.004724477883428335,
        -0.028513310477137566,
        -0.016058893874287605,
        0.016130642965435982,
        -0.00047718913992866874,
        0.010535692796111107,
        0.001856279675848782,
        0.0006058656144887209,
        0.01265650149434805,
        0.013400919735431671,
        0.000606309506110847,
        0.009789109230041504,
        0.003858881304040551,
        -0.0018396776868030429,
        0.011646443977952003,
        -0.023468192666769028,
        0.0021128682419657707,
        0.015223406255245209,
        0.0009679464856162667,
        -0.0014891787432134151,
        -0.00147325883153826,
        0.010192248038947582,
        0.004179185722023249,
        0.004962102975696325,
        0.003933322615921497,
        0.002364696469157934,
        -0.004315800499171019,
        0.012032246217131615,
        -0.0009150396217592061,
        -0.0016359828878194094,
        -0.000989773077890277,
        -0.0016120458021759987,
        -0.0011120483977720141,
        0.01205787155777216,
        -0.0008556353859603405,
        0.0010077726328745484,
        -0.0006138110184110701,
        0.006648086477071047,
        0.006897220388054848,
        -0.005084837321192026,
        0.005275738425552845,
        0.00031492559355683625,
        0.00386464293114841,
        0.004262425471097231,
        -0.0017396830953657627,
        0.008016593754291534,
        0.009079250507056713,
        0.006881019100546837,
        0.02728564478456974,
        0.010752950794994831,
        0.01269951555877924,
        -0.0004548182769212872,
        -0.002246979158371687,
        0.011358707211911678,
        0.006568703800439835,
        -0.0002656559518072754,
        0.00028502510394901037,
        -0.0019148194696754217,
        0.0011818150524049997,
        0.0162432212382555,
        0.0008016565116122365,
        0.017386216670274734,
        0.006642079446464777,
        0.013562938198447227,
        0.022596873342990875,
        -0.0015633900184184313,
        0.019495315849781036,
        -0.0012553856940940022,
        0.008049019612371922,
        -0.01213925238698721,
        0.011694074608385563,
        0.009786916896700859,
        0.0069302842020988464,
        0.008386137895286083,
        0.005669535603374243,
        0.007427664939314127,
        -0.0008198890136554837,
        -0.0005848438595421612,
        -0.0017347600078210235,
        0.00550540117546916,
        0.008743404410779476,
        6.059133374947123e-05,
        -0.008343211375176907,
        0.0134391775354743,
        0.001365040778182447,
        0.01565640978515148,
        0.0027355982456356287,
        0.02144601009786129,
        0.01950344629585743,
        0.011840328574180603,
        0.0017518780659884214,
        0.006725511979311705,
        0.006898278836160898,
        0.0009875985560938716,
        0.015093794092535973,
        0.0016963721718639135,
        0.008663342334330082,
        -0.001962631242349744,
        0.020107967779040337,
        -0.00010415830183774233,
        -0.0009882163722068071,
        -0.0010689522605389357,
        0.01296728104352951,
        -0.003316019894555211,
        -0.0005621566087938845,
        0.009795350953936577,
        0.0009874695679172873,
        0.014005658216774464,
        0.0038108641747385263,
        0.0015267966082319617,
        0.011833226308226585,
        -0.01650315709412098,
        0.003896039677783847,
        0.022009434178471565,
        0.012549570761620998,
        0.001436838530935347,
        0.019128387793898582,
        -0.010633528232574463,
        0.0057500749826431274,
        0.0012683013919740915,
        0.01837262697517872,
        0.0023979167453944683,
        0.0023852733429521322,
        -0.010673504322767258,
        0.0022712191566824913,
        0.01574699394404888,
        0.0009399178088642657,
        -0.0008490948239341378,
        0.0010661982232704759,
        0.001360978581942618,
        0.011943620629608631,
        0.022652102634310722,
        0.004312985111027956,
        0.0020975174847990274,
        0.01329796388745308,
        0.013994394801557064,
        -0.0007451327983289957,
        6.75077099003829e-05,
        0.016349192708730698,
        -0.016846757382154465,
        0.017775695770978928,
        7.442800415446982e-05,
        -3.69387271348387e-06,
        0.010227356106042862,
        0.005903729237616062,
        0.014973108656704426,
        -0.02787696197628975,
        -0.010413691401481628,
        0.00986731331795454,
        -7.10849417373538e-05,
        0.01566729135811329,
        0.017662374302744865,
        0.012925572693347931,
        -0.022769195958971977,
        0.0020184675231575966,
        -0.001084821531549096,
        0.011883228085935116,
        0.01210267748683691,
        0.0077997553162276745,
        0.0021303121466189623,
        0.019366804510354996,
        0.0024594468995928764,
        0.00020603678422048688,
        0.01057712733745575,
        0.0019858870655298233,
        0.009899884462356567,
        0.016281498596072197,
        0.020061377435922623,
        0.0061098020523786545,
        0.008520927280187607,
        0.01085885614156723,
        -0.004061287268996239,
        0.013109970837831497,
        0.021799292415380478,
        0.0037639904767274857,
        0.014621365815401077,
        -0.002184224082157016,
        0.012974283657968044,
        -8.74124962138012e-05,
        0.006922340486198664,
        0.015102648176252842,
        0.0076341149397194386,
        -0.05548654496669769,
        -0.00040756951784715056,
        0.014682444743812084,
        0.0019190260209143162,
        0.0021664102096110582,
        0.016748283058404922,
        0.010196846909821033,
        0.011388762854039669,
        0.0013126550475135446,
        0.009584476239979267,
        -0.02737259492278099,
        8.161010919138789e-05,
        0.013854089193046093,
        0.006674605421721935,
        -0.003251453163102269,
        0.0031329577323049307,
        -0.006234099622815847,
        0.0151016004383564,
        -0.0009639791096560657,
        0.009406941011548042,
        -0.005372247193008661,
        -0.0002772031002677977,
        0.015001373365521431,
        0.0017332116840407252,
        0.003519571851938963,
        0.01567225530743599,
        0.0196398813277483,
        0.010035051964223385,
        -0.0017903664847835898,
        0.012127653695642948,
        -0.0037349797785282135,
        0.017203740775585175,
        -0.00026924043777398765,
        -0.0007566407439298928,
        0.0119347358122468,
        0.009685845114290714,
        -0.006642848718911409,
        0.0005720347980968654,
        0.005551251117140055,
        0.00033162973704747856,
        0.01241591852158308,
        0.00956805795431137,
        0.007384388707578182,
        0.023345809429883957,
        0.0014969086041674018,
        0.003793001174926758,
        0.014166646637022495,
        -0.0012902942253276706,
        -0.0020684830378741026,
        0.013175131753087044,
        0.0014829084975644946,
        0.015911778435111046,
        0.006925634108483791,
        0.010698093101382256,
        -0.0006483605247922242,
        -0.014831745997071266,
        0.009410593658685684,
        0.004863950423896313,
        -0.0008509453618898988,
        -0.0009924736805260181,
        0.010463112965226173,
        0.001432883902452886,
        0.001669947523623705,
        -0.0002893483906518668,
        6.379377737175673e-07,
        0.00715895090252161,
        -0.0016867658123373985,
        0.015135460533201694,
        0.006605854257941246,
        0.010005139745771885,
        -0.0006404529558494687,
        0.010965456254780293,
        0.0006595708546228707,
        -0.0005455410573631525,
        -0.03409752994775772,
        -0.015280458144843578,
        0.0209527425467968,
        -0.0010274266824126244,
        0.009773309342563152,
        0.005463629961013794,
        0.0007106361445039511,
        0.011762209236621857,
        0.01926884613931179,
        0.0006934105767868459,
        0.011617793701589108,
        0.004765626974403858,
        0.0016537498449906707,
        0.014585315249860287,
        -0.02891184203326702,
        0.0009805362205952406,
        0.02006595768034458,
        -0.0008951895288191736,
        0.0014719432219862938,
        -0.0029770273249596357,
        0.005463795270770788,
        0.007247848901897669,
        0.01356744859367609,
        0.005316437222063541,
        0.0011398677015677094,
        -0.009205642156302929,
        0.021249763667583466,
        0.0011914134956896305,
        0.0013809988740831614,
        -0.0012620184570550919,
        0.0006022081943228841,
        -0.00033461349084973335,
        0.012598851695656776,
        0.004359507467597723,
        0.0029974544886499643,
        -9.948478691512719e-05,
        0.006999957840889692,
        0.004711464047431946,
        0.0004278769192751497,
        0.004453335423022509,
        0.0018380696419626474,
        0.002850281074643135,
        0.009814543649554253,
        -0.00041961882379837334,
        0.008216715417802334,
        0.003232876770198345,
        0.008485760539770126,
        0.02514440380036831,
        0.011121285147964954,
        0.008955053985118866,
        -0.004573985002934933,
        -0.00010020240006269887,
        0.016724716871976852,
        0.004982696380466223,
        0.0011741333873942494,
        0.0013218782842159271,
        0.001710343873128295,
        -0.0009713463950902224,
        0.020290520042181015,
        -0.0005113508668728173,
        0.015902791172266006,
        0.00967046245932579,
        0.016249969601631165,
        0.03480793908238411,
        0.0009231475414708257,
        0.027627622708678246,
        0.0016800317680463195,
        0.006693543866276741,
        -0.02239624597132206,
        0.011654769070446491,
        0.009881854988634586,
        0.010190842673182487,
        0.006145027931779623,
        0.01369033195078373,
        0.009728511795401573,
        0.0023411514703184366,
        0.0009512006072327495,
        0.0035781743936240673,
        0.013265179470181465,
        0.008627803064882755,
        -0.00359313003718853,
        0.00520522054284811,
        0.012004612945020199,
        0.01092836819589138,
        0.017865316942334175,
        0.008140255697071552,
        0.0229593887925148,
        0.025049762800335884,
        0.013859640806913376,
        0.0013308104826137424,
        0.0021231728605926037,
        0.003952029626816511,
        -0.0003249048604629934,
        0.003761181840673089,
        -0.0007061512442305684,
        0.012304089032113552,
        0.0020557765383273363,
        0.02116439677774906,
        0.0012355991639196873,
        0.0009566640364937484,
        0.0011014312040060759,
        0.014219078235328197,
        0.002317684469744563,
        0.0005877737421542406,
        0.002962278900668025,
        0.007426680997014046,
        0.01674783043563366,
        0.00736970454454422,
        0.0007928635459393263,
        0.01940305158495903,
        -0.018108796328306198,
        0.0033905215095728636,
        0.024705318734049797,
        0.011585362255573273,
        0.0011434941552579403,
        0.01700865477323532,
        -0.013053550384938717,
        0.007163955830037594,
        -0.0007340822485275567,
        0.018204733729362488,
        0.0013389080995693803,
        0.00020452396711334586,
        -0.012109561823308468,
        0.0012823103461414576,
        0.015581009909510612,
        -0.000713973946403712,
        4.000175977125764e-05,
        -0.0008704510401003063,
        0.0020315644796937704,
        0.01194482110440731,
        0.02267025224864483,
        0.006027590949088335,
        0.000796125503256917,
        0.013658582232892513,
        0.012559163384139538,
        0.0015353790950030088,
        -0.00277191074565053,
        0.013206610456109047,
        -0.018631063401699066,
        0.015894664451479912,
        -0.0022114021703600883,
        -0.0016615630593150854,
        0.01101622823625803,
        0.003997216932475567,
        0.015643486753106117,
        -0.02843753807246685,
        -0.011538438498973846,
        0.011352656409144402,
        -0.0015415759989991784,
        0.020899580791592598,
        0.0188218392431736,
        0.011801457032561302,
        -0.022899379953742027,
        0.0007386021316051483,
        0.00017385555838700384,
        0.014204410836100578,
        0.00949331559240818,
        0.006085436325520277,
        -0.00036830833414569497,
        0.018545491620898247,
        0.0033496946562081575,
        -0.0011348264524713159,
        0.016106929630041122,
        -0.00018194288713857532,
        0.012593565508723259,
        0.019463887438178062,
        0.01898677460849285,
        0.006137198768556118,
        0.007053131237626076,
        0.010750791057944298,
        -0.0070487577468156815,
        0.016212277114391327,
        0.022958816960453987,
        0.0019858675077557564,
        0.011746070347726345,
        -0.0028554198797792196,
        0.011218646541237831,
        1.9360246369615197e-05,
        0.01231322344392538,
        0.017835594713687897,
        0.008345186710357666,
        -0.055381882935762405,
        -0.0013886202359572053,
        0.012240536510944366,
        -0.0009057315182872117,
        -0.0006377705140039325,
        0.018534522503614426,
        0.011660367250442505,
        0.008647429756820202,
        -0.0011015236377716064,
        0.007899963296949863,
        -0.0315193235874176,
        0.0024884131271392107,
        0.019024735316634178,
        0.010137606412172318,
        -0.004223111551254988,
        0.005855620373040438,
        -0.008887926116585732,
        0.02103739231824875,
        0.0012206305982545018,
        0.007586777210235596,
        -0.003018562449142337,
        -0.0015616334276273847,
        0.018659532070159912,
        0.0001928280107676983,
        0.004680608864873648,
        0.017764991149306297,
        0.020766614004969597,
        0.011367353610694408,
        -0.003503508400171995,
        0.016065960749983788,
        -0.0037039138842374086,
        0.01627277582883835,
        -0.0006767378654330969,
        -0.0005232266848906875,
        0.008654280565679073,
        0.011440511792898178,
        -0.010035841725766659,
        0.001264394843019545,
        0.007309868931770325,
        -0.0005635977722704411,
        0.014048113487660885,
        0.009252579882740974,
        0.007926910184323788,
        0.024329138919711113,
        0.0019374877447262406,
        0.0026300442405045033,
        0.013790602795779705,
        -0.0012789646862074733,
        0.0041198148392140865,
        0.010085945017635822,
        -0.00014660082524642348,
        0.014828041195869446,
        0.004245706368237734,
        0.013963219709694386,
        0.00026811094721779227,
        -0.012911096215248108,
        0.009577260352671146,
        0.008861962705850601,
        -0.0008754325681366026,
        -0.0005952733918093145,
        0.014967958442866802,
        -0.001177945756353438,
        0.0018724820110946894,
        -0.0008904647547751665,
        0.0012930103112012148,
        0.005739913322031498,
        -0.0008301156340166926,
        0.016148140653967857,
        0.007925603538751602,
        0.006630794145166874,
        0.000454291352070868,
        0.010715432465076447,
        0.0029547514859586954,
        -0.0009986861841753125,
        -0.0402994304895401,
        -0.020602334290742874,
        0.02704390324652195,
        0.002486393554136157,
        0.010760772973299026,
        0.007410331629216671,
        -0.00013650688924826682,
        0.01411906536668539,
        0.022116003558039665,
        0.0011834476608783007,
        0.01600443571805954,
        0.0011534770019352436,
        0.0024749855510890484,
        0.01623186096549034,
        -0.02815457619726658,
        -0.0015018429839983582,
        0.019826587289571762,
        -6.815834785811603e-05,
        -0.0012285662814974785,
        -0.003677197964861989,
        0.008592373691499233,
        0.004935113713145256,
        0.01070686336606741,
        0.0073641324415802956,
        0.005151825025677681,
        -0.007611441891640425,
        0.01882166974246502,
        -0.00020659762958530337,
        -0.0011429422302171588,
        -0.0010984507389366627,
        0.0003239586658310145,
        -0.0002907000307459384,
        0.01799246482551098,
        0.0014402306405827403,
        0.001508349203504622,
        0.0012202870566397905,
        0.009406302124261856,
        0.006261433474719524,
        -5.854060873389244e-05,
        0.0028163432143628597,
        -0.0003953473351430148,
        0.00485793873667717,
        0.008762156590819359,
        0.0011673063272610307,
        0.004370381124317646,
        0.0044525256380438805,
        0.011089380830526352,
        0.024881606921553612,
        0.010528532788157463,
        0.009130854159593582,
        -0.005842091981321573,
        -0.0030107232742011547,
        0.018484165892004967,
        0.0075981649570167065,
        0.0033731001894921064,
        0.00046037102583795786,
        -0.002156846923753619,
        0.0007909695850685239,
        0.02094188891351223,
        -0.0004075035685673356,
        0.01514071598649025,
        0.01741062104701996,
        0.015780186280608177,
        0.03073009103536606,
        -0.0007424041396006942,
        0.026938211172819138,
        -0.002272176556289196,
        0.008549370802938938,
        -0.020236274227499962,
        0.014512995257973671,
        0.006948798429220915,
        0.014554234221577644,
        0.004659506492316723,
        0.012823271565139294,
        0.01413674931973219,
        0.002427216386422515,
        0.0024941659066826105,
        0.0021154412534087896,
        0.01816585101187229,
        0.011944864876568317,
        -0.00944148562848568,
        0.0051092468202114105,
        0.012752441689372063,
        0.012248990125954151,
        0.01723598688840866,
        0.01173622626811266,
        0.026100633665919304,
        0.02527184784412384,
        0.017457593232393265,
        0.0012902319431304932,
        0.001045447075739503,
        0.004238325636833906,
        0.00040024303598329425,
        0.007418286986649036,
        0.0014248108491301537,
        0.014645147137343884,
        0.0019694012589752674,
        0.021562503650784492,
        4.751665619551204e-05,
        -0.0010066810064017773,
        0.0004026157548651099,
        0.012152167037129402,
        0.0017138213152065873,
        0.0010566069977357984,
        0.004202085547149181,
        0.002333378652110696,
        0.007152416277676821,
        0.004737537354230881,
        -0.001070431899279356,
        0.010210547596216202,
        -0.019539417698979378,
        0.0053260126151144505,
        0.012162578292191029,
        0.015452459454536438,
        0.0003374749212525785,
        0.01620686985552311,
        -0.017011765390634537,
        0.008064961060881615,
        -0.001557316049002111,
        0.017303036525845528,
        0.0008376481127925217,
        0.0007040903437882662,
        -0.013588199391961098,
        0.0002532124926801771,
        0.014161563478410244,
        -0.0008315348532050848,
        0.00017802172806113958,
        0.0012379110557958484,
        0.0009713906329125166,
        0.008482259698212147,
        0.02070213109254837,
        0.005568049848079681,
        0.0007710331119596958,
        0.00857448112219572,
        0.005940812639892101,
        0.000804526440333575,
        9.056654380401596e-05,
        0.011227537877857685,
        -0.011664047837257385,
        0.014629753306508064,
        -0.0010505984537303448,
        -1.969936420209706e-06,
        0.00469677010551095,
        0.003673996776342392,
        0.008649556897580624,
        -0.024626199156045914,
        -0.012657983228564262,
        0.00781665276736021,
        -0.0005432088510133326,
        0.012016369961202145,
        0.011363770812749863,
        0.007051863241940737,
        -0.011987625621259212,
        0.0010484268423169851,
        0.001331780687905848,
        0.007604194339364767,
        0.007760894484817982,
        0.009097740054130554,
        0.001751647680066526,
        0.010256653651595116,
        0.003445044392719865,
        -0.0007103236275725067,
        0.006426321342587471,
        0.0008353118901140988,
        0.010777843184769154,
        0.012722855433821678,
        0.01432205643504858,
        0.005689221899956465,
        0.007921706885099411,
        0.006764846853911877,
        -0.006655758246779442,
        0.010273050516843796,
        0.023706503212451935,
        0.0011957613751292229,
        0.009166218340396881,
        0.0010446745436638594,
        0.006750511005520821,
        -0.0006070958916097879,
        0.004084518179297447,
        0.006276089698076248,
        0.00954345241189003,
        -0.039724789559841156,
        0.0010793957626447082,
        0.010330858640372753,
        -2.412323374301195e-05,
        0.002128747059032321,
        0.012157292105257511,
        0.00799645483493805,
        0.010136001743376255,
        0.0011057222727686167,
        0.010287524200975895,
        -0.014087540097534657,
        0.0006179666379466653,
        0.008098762482404709,
        0.011012817732989788,
        -0.003224623156711459,
        0.007556012831628323,
        -0.009672056883573532,
        0.011213192716240883,
        0.0002617551654111594,
        0.00620509497821331,
        0.0010730876820161939,
        0.0019702850840985775,
        0.005979983601719141,
        0.0006462660385295749,
        0.004163573496043682,
        0.011930366046726704,
        0.009828999638557434,
        0.010520454496145248,
        -0.0015010208589956164,
        0.009967673569917679,
        -0.0030142643954604864,
        0.009552816860377789,
        0.0017623247113078833,
        0.0011115575907751918,
        0.007626173552125692,
        0.0056817857548594475,
        -0.00838770717382431,
        0.00023250163940247148,
        0.0009366125450469553,
        6.63883110973984e-05,
        0.00907259900122881,
        0.006455073133111,
        0.007755110040307045,
        0.024867720901966095,
        0.0006153365247882903,
        0.0009023859165608883,
        0.011882033199071884,
        0.000999768846668303,
        0.005574938375502825,
        0.009494826197624207,
        0.0001337080029770732,
        0.01684686541557312,
        -0.005246323067694902,
        0.007257725577801466,
        -0.0018398996908217669,
        -0.016479570418596268,
        0.006917172111570835,
        0.007145733572542667,
        0.0009697394561953843,
        -0.0010184706188738346,
        0.007601617835462093,
        -0.000736022659111768,
        -0.0007271101349033415,
        0.0014005281263962388,
        -0.00043708141311071813,
        0.007253336254507303,
        0.0012001015711575747,
        0.0158744677901268,
        0.009303334169089794,
        0.007383905351161957,
        0.0003240808437112719,
        0.009041075594723225,
        0.0004588692099787295,
        0.002414750400930643,
        -0.021534966304898262,
        -0.010102043859660625,
        0.015263481996953487,
        0.0016252557979896665,
        0.006380184553563595,
        0.0022314644884318113,
        0.001215902273543179,
        0.006242502946406603,
        0.012123733758926392,
        0.0010267228353768587,
        0.006763943936675787,
        0.0011134089436382055,
        0.0014459650265052915,
        0.010790975764393806,
        -0.018983224406838417,
        -0.0010215014917775989,
        0.01834985427558422,
        -0.0015429219929501414,
        -6.660303915850818e-05,
        -0.001982641639187932,
        0.002089491579681635,
        0.004317449405789375,
        0.011270945891737938,
        0.002841582987457514,
        0.005555273965001106,
        -0.010482773184776306,
        0.018220501020550728,
        0.000681755889672786,
        -0.001092182588763535,
        -0.00016171587049029768,
        -0.0008202706230804324,
        0.001513171475380659,
        0.009223216213285923,
        0.00535930972546339,
        0.0014008884318172932,
        0.0013579861260950565,
        0.006387874484062195,
        0.006893599405884743,
        -0.00026067212456837296,
        0.00790130253881216,
        0.0035926259588450193,
        0.001694776932708919,
        0.009891755878925323,
        -0.0002473487111274153,
        0.0036577621940523386,
        0.01010121125727892,
        0.005395823623985052,
        0.02157117798924446,
        0.01067300047725439,
        0.00900622271001339,
        -0.002465027617290616,
        -0.0016502890503033996,
        0.008136298507452011,
        0.0035623733419924974,
        0.0001925298129208386,
        0.00016044861695263535,
        -0.0006541165057569742,
        -4.0529994294047356e-06,
        0.017668968066573143,
        0.0017266026698052883,
        0.014238517731428146,
        0.005663404706865549,
        0.011713165789842606,
        0.029357638210058212,
        -0.00026633028755895793,
        0.02386646531522274,
        0.0008776627946645021,
        0.0037249408196657896,
        -0.014999927952885628,
        0.012445909902453423,
        0.008097054436802864,
        0.010059701278805733,
        0.006612678524106741,
        0.0073186601512134075,
        0.005728255491703749,
        0.00071264139842242,
        -0.0008775772294029593,
        0.0018507979111745954,
        0.006840714253485203,
        0.014071086421608925,
        -0.005773297045379877,
        -0.0008571643847972155,
        0.006902334280312061,
        0.006682499311864376,
        0.01380043663084507,
        0.007592727895826101,
        0.016517560929059982,
        0.024036265909671783,
        0.01174260675907135,
        0.0005452283076010644,
        0.002719898708164692,
        0.0054789078421890736,
        -0.0002336328907404095,
        0.00794623140245676,
        -0.0008016478386707604,
        0.008863899856805801,
        0.0010014439467340708,
        0.013907540589571,
        0.002078572753816843,
        0.002524707466363907,
        -0.0002909359463956207,
        0.007661811076104641,
        -0.0012005496537312865,
        0.002314516343176365,
        0.005570667330175638,
        0.007258598692715168,
        0.013133413158357143,
        0.007021969184279442,
        0.0003417388361413032,
        0.016076626256108284,
        -0.018903160467743874,
        0.003846837440505624,
        0.02348765730857849,
        0.012621802277863026,
        0.001275743474252522,
        0.02133927121758461,
        -0.017443198710680008,
        0.009571445174515247,
        0.0015593848656862974,
        0.019468527287244797,
        0.0022172534372657537,
        0.002506585791707039,
        -0.01014141645282507,
        0.001857748138718307,
        0.015726542100310326,
        -0.00021470276988111436,
        0.0006620970088988543,
        -8.59289284562692e-05,
        -0.001202098559588194,
        0.011315538547933102,
        0.023207930848002434,
        0.005552570801228285,
        0.0009901704033836722,
        0.013000274077057838,
        0.014163577929139137,
        0.0010207828599959612,
        -0.003166883485391736,
        0.01340093370527029,
        -0.020301278680562973,
        0.018904779106378555,
        -0.002222273498773575,
        -0.0009881180012598634,
        0.011378065682947636,
        0.0010817911243066192,
        0.01427663117647171,
        -0.029071258381009102,
        -0.012121177278459072,
        0.012228326871991158,
        -0.0006875040126033127,
        0.01966896839439869,
        0.019281407818198204,
        0.010751043446362019,
        -0.023639030754566193,
        0.0014857850037515163,
        0.0019083573715761304,
        0.011781320907175541,
        0.012951069511473179,
        0.006150360219180584,
        0.0013126456178724766,
        0.018347250297665596,
        0.00390169071033597,
        0.0008945788140408695,
        0.014498156495392323,
        0.0010717054829001427,
        0.014194097369909286,
        0.019194025546312332,
        0.016882026568055153,
        0.00545141426846385,
        0.007876569405198097,
        0.012981066480278969,
        -0.006932467687875032,
        0.015034673735499382,
        0.027321627363562584,
        0.0022670321632176638,
        0.012536692433059216,
        -0.0021868161857128143,
        0.012509754858911037,
        -0.0007259745034389198,
        0.010912485420703888,
        0.017627397552132607,
        0.011428287252783775,
        -0.0581352561712265,
        -0.0020830982830375433,
        0.01377603504806757,
        0.0019006107468158007,
        0.0028979028575122356,
        0.01780669391155243,
        0.010300356894731522,
        0.008420117199420929,
        0.001468780217692256,
        0.00836171768605709,
        -0.03379717841744423,
        0.0010856031440198421,
        0.019377822056412697,
        0.010035865940153599,
        -0.00637428741902113,
        0.0037894700653851032,
        -0.006526439916342497,
        0.018933676183223724,
        -0.0008920765831135213,
        0.008925281465053558,
        -0.0011020742822438478,
        0.001991687575355172,
        0.01777024008333683,
        0.0024889707565307617,
        0.0053835222497582436,
        0.01818711683154106,
        0.024585070088505745,
        0.012828224338591099,
        -0.0031829059589654207,
        0.018056316301226616,
        -0.0028503539506345987,
        0.017118163406848907,
        -0.0007880975608713925,
        -0.0018212038557976484,
        0.008844461292028427,
        0.012266689911484718,
        -0.009793086908757687,
        0.002230636077001691,
        0.006955482065677643,
        -0.001989864045754075,
        0.016158321872353554,
        0.011529892683029175,
        0.01224288996309042,
        0.02563244290649891,
        3.365000520716421e-05,
        0.0021596017759293318,
        0.015623954124748707,
        9.026900806929916e-05,
        0.006168223451822996,
        0.012453283183276653,
        -0.002546659205108881,
        0.016061389818787575,
        0.007316413335502148,
        0.011797643266618252,
        0.0005140398861840367,
        -0.017212238162755966,
        0.010148492641746998,
        0.00663904519751668,
        -0.001396243809722364,
        -0.0012966786744073033,
        0.014931784942746162,
        0.0001856952003436163,
        0.0016399534652009606,
        -0.0013628395972773433,
        -0.0008853324688971043,
        0.005265375599265099,
        0.0017902040854096413,
        0.017232922837138176,
        0.005877311807125807,
        0.009601211175322533,
        0.0014676169957965612,
        0.010215980000793934,
        0.005883516278117895,
        -0.001568088075146079,
        -0.041533954441547394,
        -0.022467905655503273,
        0.029024982824921608,
        -0.0013864778447896242,
        0.012241224758327007,
        0.005518052726984024,
        0.0011249268427491188,
        0.01427098736166954,
        0.02230982296168804,
        0.000711596105247736,
        0.013846708461642265,
        0.001755144214257598,
        0.004099012352526188,
        0.018507955595850945,
        -0.02897416055202484,
        -0.00137249194085598,
        0.02189377322793007,
        0.00023756914015393704,
        0.0014166022883728147,
        -0.0014455353375524282,
        0.008936746045947075,
        0.006967468652874231,
        0.013043041341006756,
        0.00710455933585763,
        0.004174004774540663,
        -0.01594148948788643,
        0.021038442850112915,
        0.0018038416747003794,
        0.0013701096177101135,
        8.176392293535173e-05,
        0.001219967263750732,
        0.0009163122158497572,
        0.014219523407518864,
        0.0038531359750777483,
        0.0007488355040550232,
        0.0010132350726053119,
        0.010074959136545658,
        0.003911199979484081,
        0.003036199137568474,
        0.00391326704993844,
        0.0010781766613945365,
        0.005937830079346895,
        0.007809996139258146,
        0.0025374707765877247,
        0.006586217787116766,
        0.0050201257690787315,
        0.012658520601689816,
        0.02887524664402008,
        0.011791138909757137,
        0.00892797950655222,
        -0.005470943171530962,
        -0.0020163925364613533,
        0.019684284925460815,
        0.006131876725703478,
        0.000490570324473083,
        -0.001354672946035862,
        -0.0007742662564851344,
        0.0011002377141267061,
        0.022693218663334846,
        0.0019187529105693102,
        0.016673726961016655,
        0.018192313611507416,
        0.0147719606757164,
        0.0317324697971344,
        -0.0010939888888970017,
        0.029957637190818787,
        -0.0013339479919523,
        0.009931772015988827,
        -0.0221119225025177,
        0.011999129317700863,
        0.010116779245436192,
        0.01656167581677437,
        0.004884480033069849,
        0.014062382280826569,
        0.013106652535498142,
        0.0015965144848451018,
        0.0012373996432870626,
        0.0033869040198624134,
        0.018906131386756897,
        0.011962776072323322,
        -0.007351884618401527,
        0.005996150430291891,
        0.012396814301609993,
        0.012274404056370258,
        0.01705184206366539,
        0.010491816326975822,
        0.028781799599528313,
        0.027620306238532066,
        0.017379170283675194,
        0.0013443072093650699,
        0.00393884489312768,
        0.0005497693200595677,
        -0.000979433418251574,
        0.006488508079200983,
        -0.0018140892498195171,
        0.01658651977777481,
        -0.00030401363619603217,
        0.024480430409312248,
        0.001173518132418394,
        0.0024078814312815666,
        0.0018125185742974281,
        0.011916900984942913,
        0.0014375649625435472,
        0.001399066997691989,
        0.009904998354613781,
        0.0023140679113566875,
        0.015473583713173866,
        0.0055695390328764915,
        -0.0011667468352243304,
        0.026949571445584297,
        -0.026789315044879913,
        0.003185141598805785,
        0.03431272506713867,
        0.019040873274207115,
        -0.0025180864613503218,
        0.031679149717092514,
        -0.022863876074552536,
        0.009023644961416721,
        -0.0030026291497051716,
        0.02913910709321499,
        0.002734928857535124,
        -0.0008945046574808657,
        -0.017212942242622375,
        0.001482178340665996,
        0.028130339458584785,
        -0.00017137886607088149,
        -0.002245162148028612,
        -0.0007611543405801058,
        -0.0022253780625760555,
        0.019488586112856865,
        0.03201557323336601,
        0.0031493264250457287,
        -0.0024798684753477573,
        0.02063588611781597,
        0.025771725922822952,
        -0.0016291062347590923,
        -0.00213409960269928,
        0.025061756372451782,
        -0.028120314702391624,
        0.029249047860503197,
        -0.00014777672186028212,
        -0.0016684759175404906,
        0.017397522926330566,
        0.004712297115474939,
        0.021661613136529922,
        -0.04463498666882515,
        -0.01828012429177761,
        0.011984412558376789,
        -0.0010129986330866814,
        0.0215892530977726,
        0.025073260068893433,
        0.017704904079437256,
        -0.036140844225883484,
        0.002455224748700857,
        -0.0009619062184356153,
        0.01776125840842724,
        0.021266918629407883,
        0.007335594855248928,
        0.0006533366395160556,
        0.03250080347061157,
        0.0011758742621168494,
        -0.001908392645418644,
        0.0146162835881114,
        0.0010124420514330268,
        0.018610738217830658,
        0.021735625341534615,
        0.02964966371655464,
        0.009042252786457539,
        0.011603807099163532,
        0.020759128034114838,
        -0.005783481523394585,
        0.01948707550764084,
        0.03638982027769089,
        0.0007802878390066326,
        0.019809218123555183,
        -0.0005889480817131698,
        0.01888134703040123,
        0.0006850585923530161,
        0.01378610823303461,
        0.01952551119029522,
        0.01583973877131939,
        -0.08787801861763,
        -0.0021005587186664343,
        0.021744316443800926,
        -0.0023044811096042395,
        0.0008325241506099701,
        0.025055089965462685,
        0.014493919909000397,
        0.016489138826727867,
        -0.0029822527430951595,
        0.01104534137994051,
        -0.047596078366041183,
        -0.0013144552940502763,
        0.022011475637555122,
        0.00928327813744545,
        -0.003679344430565834,
        0.005442284978926182,
        -0.008359057828783989,
        0.025955835357308388,
        -0.00168974744156003,
        0.014106047339737415,
        -0.013013429008424282,
        -0.0013678576797246933,
        0.02382620982825756,
        0.0020750914700329304,
        0.004831564147025347,
        0.024779273197054863,
        0.0355399064719677,
        0.01721474528312683,
        -0.004427327308803797,
        0.01839865930378437,
        -0.005266117863357067,
        0.02151300013065338,
        -0.0006046450580470264,
        -0.0017189361387863755,
        0.017379388213157654,
        0.012950209900736809,
        -0.012931057251989841,
        0.0014131050556898117,
        0.0033276814501732588,
        -0.0019502731738612056,
        0.018920311704277992,
        0.01531006395816803,
        0.01288597658276558,
        0.03280229866504669,
        -0.0020535732619464397,
        0.003091381164267659,
        0.023160066455602646,
        -0.002335134893655777,
        -0.004155260510742664,
        0.017304273322224617,
        -0.0020803490187972784,
        0.025984814390540123,
        0.006528535857796669,
        0.01929461769759655,
        0.0007818418089300394,
        -0.02384760044515133,
        0.013907979242503643,
        0.013879945501685143,
        0.00034782843431457877,
        -0.0005618019495159388,
        0.012104730121791363,
        -0.0002026671136263758,
        0.0010251266648992896,
        0.00035580125404521823,
        0.0012513742549344897,
        0.01247886661440134,
        0.0011550334747880697,
        0.02755720727145672,
        0.006211246829479933,
        0.015920216217637062,
        0.0013714773813262582,
        0.015549024567008018,
        -0.00025021660258062184,
        -0.0025258557870984077,
        -0.056571826338768005,
        -0.02774692513048649,
        0.03082706406712532,
        -0.0011536959791556,
        0.016284313052892685,
        0.004128847271203995,
        -0.0004784769262187183,
        0.016507940366864204,
        0.027324609458446503,
        0.0001328894286416471,
        0.014591032639145851,
        0.002622049069032073,
        -0.0003937334113288671,
        0.026645122095942497,
        -0.045899707823991776,
        -0.0029887210112065077,
        0.03233330324292183,
        -5.4505446314578876e-05,
        -0.0023603516165167093,
        -0.005045111756771803,
        0.009739475324749947,
        0.01084410585463047,
        0.021641021594405174,
        0.008789567276835442,
        0.0035853676963597536,
        -0.02043294720351696,
        0.03825204819440842,
        0.0017783122602850199,
        -0.0001635555236134678,
        -0.002420268952846527,
        0.00030517237610183656,
        -6.280274828895926e-05,
        0.015501747839152813,
        0.00019381025049369782,
        -0.0002252916165161878,
        -0.0012213281588628888,
        0.00486101396381855,
        0.009551812894642353,
        -0.002059263177216053,
        0.0062628197483718395,
        0.0006878021522425115,
        0.0012011240469291806,
        0.009796679019927979,
        0.00047841217019595206,
        0.010987579822540283,
        0.006346479989588261,
        0.016127247363328934,
        0.040498387068510056,
        0.019098032265901566,
        0.013541048392653465,
        -0.0069305431097745895,
        -0.00145757629070431,
        0.022740835323929787,
        0.00792723335325718,
        0.0020913598127663136,
        -0.0022184757981449366,
        0.0001683635637164116,
        -0.0026240104343742132,
        0.03580296039581299,
        -0.0024588180240243673,
        0.023828012868762016,
        0.013897167518734932,
        0.02126597799360752,
        0.054017987102270126,
        0.0014484805287793279,
        0.04429173469543457,
        -0.0018676010658964515,
        0.008572833612561226,
        -0.03260524943470955,
        0.016105949878692627,
        0.014550833031535149,
        0.013874411582946777,
        0.006287992466241121,
        0.01793164201080799,
        0.014741934835910797,
        0.001391371595673263,
        -0.00020226745982654393,
        -0.0006041902233846486,
        0.01543369423598051,
        0.019117159768939018,
        -0.008913194760680199,
        0.003137894906103611,
        0.020431363955140114,
        0.014192149974405766,
        0.029802192002534866,
        0.012479249387979507,
        0.03694770485162735,
        0.03963079676032066,
        0.019899627193808556,
        -0.0018728243885561824,
        0.0011268138187006116,
        0.0021563402842730284,
        0.0002498234389349818,
        0.009259318001568317,
        -0.0022436853032559156,
        0.022898390889167786,
        -9.560899343341589e-05,
        0.03557080030441284,
        0.00199532019905746,
        -0.0009665853576734662,
        -0.00026459756190888584,
        0.019570965319871902,
        -0.00012289907317608595,
        -0.0013073383597657084,
        0.018898233771324158,
        0.0282535869628191,
        0.062123414129018784,
        0.035643596202135086,
        0.0010382442269474268,
        0.060900527983903885,
        -0.06710422039031982,
        0.002251062076538801,
        0.08839378505945206,
        0.03444638475775719,
        0.0051589179784059525,
        0.0555785708129406,
        -0.030426088720560074,
        0.02541879191994667,
        -5.624303958029486e-05,
        0.040632836520671844,
        0.03532135859131813,
        -0.00043714430648833513,
        -0.03799640014767647,
        0.00023870152654126287,
        0.06220501288771629,
        -0.006922324653714895,
        -0.0007308702915906906,
        0.0006973364506848156,
        -0.0016500818310305476,
        0.03928940370678902,
        0.04948074370622635,
        0.02579541504383087,
        0.000457454239949584,
        0.03247097134590149,
        0.029840689152479172,
        -0.0011927946470677853,
        -0.03134794160723686,
        0.02432977221906185,
        -0.045709241181612015,
        0.03967031463980675,
        -0.000754050794057548,
        0.0014809172134846449,
        0.03880446031689644,
        0.00459456630051136,
        0.05031593143939972,
        -0.09668583422899246,
        -0.04656519740819931,
        0.06047695875167847,
        -0.0034322459250688553,
        0.09235057979822159,
        0.06302976608276367,
        0.04577171057462692,
        -0.07223985344171524,
        0.0015203291550278664,
        -0.0019747656770050526,
        0.026582947000861168,
        0.02884744666516781,
        0.007385979872196913,
        0.0015306356362998486,
        0.04296036437153816,
        0.00033910846104845405,
        -0.001991501310840249,
        0.04846709594130516,
        -0.0025720885023474693,
        0.02700917422771454,
        0.08764088898897171,
        0.02512851543724537,
        0.008872210048139095,
        0.018253693357110023,
        0.026702897623181343,
        -0.014242401346564293,
        0.05478963255882263,
        0.05405391752719879,
        0.005451177712529898,
        0.02324763312935829,
        -0.007486071437597275,
        0.027173331007361412,
        -0.0006845658645033836,
        0.046026162803173065,
        0.07333694398403168,
        0.006889406591653824,
        -0.15085838735103607,
        -0.004088133107870817,
        0.05218782275915146,
        0.0011559154372662306,
        -0.0011148488847538829,
        0.06889931112527847,
        0.024833757430315018,
        0.027238210663199425,
        -0.00017914141062647104,
        0.0371280275285244,
        -0.06251495331525803,
        -0.0030169072560966015,
        0.06265965104103088,
        0.057085588574409485,
        -0.009997996501624584,
        0.016151104122400284,
        -0.026815265417099,
        0.07936383783817291,
        -0.0006869432982057333,
        0.02131303958594799,
        0.011103775352239609,
        0.0006557967280969024,
        0.06786814332008362,
        0.003409262280911207,
        0.022310897707939148,
        0.059213362634181976,
        0.05837279185652733,
        0.03133978322148323,
        -0.006636547856032848,
        0.0780612975358963,
        0.0009704037220217288,
        0.06104601174592972,
        -0.0005368791171349585,
        -0.002909298287704587,
        0.03067455068230629,
        0.04648216441273689,
        -0.029442710801959038,
        0.002705484628677368,
        0.011573283933103085,
        -0.004352214280515909,
        0.05593084916472435,
        0.024618351832032204,
        0.013535859063267708,
        0.04488544166088104,
        0.003712571458891034,
        -0.003351363819092512,
        0.046416476368904114,
        0.001585290185175836,
        0.05458857864141464,
        0.005455813370645046,
        -0.002793711144477129,
        0.03030133806169033,
        0.043920837342739105,
        0.031185053288936615,
        0.00014398933853954077,
        -0.047856930643320084,
        0.033632542937994,
        0.010878203436732292,
        0.0010830177925527096,
        0.0006469715153798461,
        0.05421566963195801,
        0.0021942537277936935,
        0.0011791236465796828,
        -0.0006268355064094067,
        -0.00025572985759936273,
        0.01654895208775997,
        0.0010622016852721572,
        0.030482592061161995,
        0.005338622722774744,
        0.025696033611893654,
        -0.0010943219531327486,
        0.02187257818877697,
        0.026898622512817383,
        -0.0015474233077839017,
        -0.13672369718551636,
        -0.060915756970644,
        0.11765921860933304,
        -0.00044600048568099737,
        0.03340975567698479,
        0.02631630375981331,
        0.0006706372369080782,
        0.037300776690244675,
        0.08757522702217102,
        0.0005798357306048274,
        0.05907672271132469,
        0.005085114389657974,
        0.013706608675420284,
        0.05794684216380119,
        -0.07241072505712509,
        -0.0024807536974549294,
        0.03720475360751152,
        0.0017989972839131951,
        -0.001019652234390378,
        -0.012800192460417747,
        0.032360296696424484,
        0.012185302563011646,
        0.029428185895085335,
        0.034853145480155945,
        0.0286088939756155,
        -0.07157564163208008,
        0.05193139240145683,
        0.0030780816450715065,
        -0.0008101699640974402,
        -0.0004593218909576535,
        -0.001711617223918438,
        0.0007965258555486798,
        0.07135628163814545,
        0.009331191889941692,
        8.484127465635538e-05,
        0.001764391316100955,
        0.019890090450644493,
        0.00041134076309390366,
        0.0026125155854970217,
        0.007344645913690329,
        0.002955162664875388,
        0.020327892154455185,
        0.04539010673761368,
        0.002768233884125948,
        0.026440996676683426,
        -0.005349818617105484,
        0.04297679290175438,
        0.051441460847854614,
        0.0324188731610775,
        0.006180752068758011,
        -0.013469175435602665,
        -0.00452782865613699,
        0.08990956842899323,
        0.008167070336639881,
        0.002840222790837288,
        -0.0018123481422662735,
        0.0011730561964213848,
        -0.0015969187952578068,
        0.0514896884560585,
        0.0009340494871139526,
        0.0435539148747921,
        0.07787187397480011,
        0.05978424847126007,
        0.07507562637329102,
        7.545772859884892e-06,
        0.06212720274925232,
        -0.002247793832793832,
        0.042815450578927994,
        -0.03683631867170334,
        0.050905246287584305,
        0.029942387714982033,
        0.07118330150842667,
        0.009510882198810577,
        0.061977747827768326,
