{
  "hiddenActivationType": "RecLinear",
  "hiddenLayers": [
    {
      "biasWeights": [
        -0.019032293930649757,
        -0.025111649185419083,
        -0.0063501885160803795,
        -0.006529787555336952,
        0.024753883481025696,
        0.022538714110851288,
        -0.01571950502693653,
        0.008705208078026772,
        0.003913593012839556,
        0.03184900060296059,
        0.013130860403180122,
        0.01494962815195322,
        0.022147223353385925,
        0.07506467401981354,
        0.015806352719664574,
        -0.0064719850197434425,
        -0.007596700452268124,
        0.005231713876128197,
        0.036665305495262146,
        -0.003012708155438304,
        0.014118008315563202,
        0.023044560104608536,
        0.009860997088253498,
        -0.0076624625362455845,
        0.02287749946117401,
        -0.012344343587756157,
        0.019918112084269524,
        -0.013409082777798176,
        0.023487702012062073,
        0.03703610971570015,
        -0.029025092720985413,
        0.017741626128554344,
        -0.17687174677848816,
        0.025464901700615883,
        -0.0039092786610126495,
        0.01476318296045065,
        0.014067871496081352,
        -0.027776500210165977,
        0.018696876242756844,
        0.016369042918086052,
        -0.009360204450786114,
        -1.6795201301574707,
        0.020647529512643814,
        0.008536569774150848,
        -0.01462309155613184,
        0.006444507744163275,
        0.007876157760620117,
        0.004673992283642292,
        0.0016600178787484765,
        0.015263422392308712,
        0.04264705255627632,
        0.019336098805069923,
        -0.0018190009286627173,
        -0.02483520284295082,
        0.026470066979527473,
        -0.009475866332650185,
        -0.0026888970751315355,
        0.023859946057200432,
        -0.18404701352119446,
        0.008888200856745243,
        -0.006306223571300507,
        -0.019197918474674225,
        0.019748596474528313,
        0.021007495000958443,
        0.02135208435356617,
        0.032702479511499405,
        0.010425987653434277,
        0.010626028291881084,
        -0.009160171262919903,
        0.023785090073943138,
        -0.07709094136953354,
        0.0029025301337242126,
        -0.020497603341937065,
        0.023213878273963928,
        0.0067958165891468525,
        0.06175104156136513,
        0.008263075724244118,
        0.0016812477260828018,
        0.006177990231662989,
        -8.595488907303661e-05,
        0.00989214051514864,
        -0.006593615282326937,
        -0.003965888172388077,
        0.008219857700169086,
        -0.015105600468814373,
        0.007611140143126249,
        0.004288712050765753,
        0.014317171648144722,
        0.01773964799940586,
        0.009165074676275253,
        0.03393593430519104,
        -0.005805106367915869,
        0.01634897291660309,
        -0.02851838991045952,
        0.002567747374996543,
        0.005865085870027542,
        -0.8174586296081543,
        0.029313599690794945,
        -0.008267643861472607,
        0.0078559760004282,
        0.013380163349211216,
        -0.7071957588195801,
        0.03147884085774422,
        -0.020397888496518135,
        0.017105598002672195,
        0.009346929378807545,
        -0.8086966276168823,
        -0.021763084456324577,
        0.012512575834989548,
        0.006407202687114477,
        -0.004287405405193567,
        -0.04313701391220093,
        0.024018017575144768,
        -0.004954222589731216,
        0.017818091437220573,
        -0.017549965530633926,
        0.014184468425810337,
        0.02632548101246357,
        0.007553965784609318,
        0.03604264184832573,
        -0.00996905192732811,
        0.04456104338169098,
        -0.0022599792573601007,
        -3.0751889426028356e-05,
        0.008257145993411541,
        -0.005722769536077976,
        0.026268484070897102,
        -0.007613626308739185,
        0.014829945750534534,
        0.010209577158093452,
        0.06418200582265854,
        0.06777846813201904,
        -0.011279699392616749,
        0.00744396448135376,
        0.019602887332439423,
        0.011813314631581306,
        -0.7160100936889648,
        0.027478693053126335,
        0.030382229015231133,
        -0.0173333752900362,
        0.015335251577198505,
        0.018485812470316887,
        -0.007307409308850765,
        0.01249560248106718,
        0.02525031939148903,
        0.059731632471084595,
        -0.08960103243589401,
        0.003214817261323333,
        0.033056292682886124,
        -0.001539363875053823,
        0.0208300668746233,
        -1.0558679103851318,
        0.03732769191265106,
        0.004698797594755888,
        0.0015851579373702407,
        -0.004794111009687185,
        0.0122941043227911,
        0.021978814154863358,
        0.02139071375131607,
        0.009530376642942429,
        0.05052955821156502,
        0.07484458386898041,
        0.012603510171175003,
        0.004047833848744631,
        0.017159661278128624,
        0.0012379104737192392,
        -0.012680161744356155,
        -0.00516471266746521,
        -1.7745206356048584,
        0.015071817673742771,
        -0.004956030286848545,
        -0.013186365365982056,
        0.02567761018872261,
        -0.5966629981994629,
        -0.08612783253192902,
        -0.11825159937143326,
        0.01619330793619156,
        0.030943553894758224,
        0.026961734518408775,
        -0.0037502855993807316,
        0.020216595381498337,
        -0.00781645905226469,
        0.004072921816259623,
        -0.017919236794114113,
        0.01964404247701168,
        0.003829938592389226,
        0.003720634849742055,
        0.018468832597136497,
        0.014878738671541214,
        0.0008936660597100854,
        -0.9559777975082397,
        0.00013458663306664675,
        0.016158565878868103,
        0.02333468198776245,
        0.06448114663362503,
        -0.005232154857367277,
        -0.011150958016514778,
        0.023231524974107742,
        -0.012320172041654587,
        0.0641937330365181,
        -0.0006622576620429754,
        0.06620228290557861,
        -0.3475717604160309,
        0.011701385490596294,
        -0.0032178652472794056,
        0.06350050121545792,
        0.006112874951213598,
        0.021943219006061554,
        0.013816469348967075,
        -0.002651345683261752,
        0.017284801229834557,
        -0.00952102430164814,
        0.004596459213644266,
        0.021774431690573692,
        0.00911710038781166,
        0.018764669075608253,
        0.024295387789607048,
        0.013274921104311943,
        0.043536096811294556,
        0.007720731198787689,
        -0.0003147967508994043,
        0.005799725651741028,
        -0.009021100588142872,
        0.007320134434849024,
        0.0032420505303889513,
        -0.8835493326187134,
        0.023273592814803123,
        0.008634085766971111,
        0.02535892277956009,
        0.028077568858861923,
        0.005726180505007505,
        -0.014978420920670033,
        0.018797587603330612,
        0.00987254362553358,
        -0.016455596312880516,
        0.025257974863052368,
        0.002570241689682007,
        0.02244955487549305,
        0.009016194380819798,
        0.017436685040593147,
        -0.009113606065511703,
        0.02581110969185829,
        0.016599658876657486,
        0.01567707024514675,
        -0.015942322090268135,
        0.010709447786211967,
        -0.03935006633400917,
        0.004362115636467934,
        -0.019284958019852638,
        0.02423279546201229,
        -0.0068539101630449295,
        0.0067301164381206036,
        0.012996518053114414,
        -0.001797885517589748,
        0.022462889552116394
      ],
      "weights": [
        0.007476211525499821,
        0.0037430203519761562,
        0.0015539716696366668,
        0.0015681488439440727,
        -0.0004572778125293553,
        0.0012034785468131304,
        0.0015454160748049617,
        0.0015343113336712122,
        0.004164505284279585,
        0.0028322332073003054,
        0.0008620781009085476,
        0.0030785147100687027,
        0.0012280198279768229,
        0.006533951964229345,
        0.00034402712481096387,
        0.004854475148022175,
        0.0019642598927021027,
        0.004154165741056204,
        0.002049524337053299,
        0.0009773672791197896,
        0.003239638637751341,
        -0.0006505291094072163,
        0.005285974591970444,
        0.001530538545921445,
        0.003158704610541463,
        0.006411270704120398,
        0.0010221415432170033,
        -0.0005836624186486006,
        -0.0013667307794094086,
        0.0015185059746727347,
        0.0043332381173968315,
        0.0044425008818507195,
        -0.00606202706694603,
        0.0066459570080041885,
        0.003179611638188362,
        0.005028372164815664,
        0.000624462787527591,
        0.004495248198509216,
        0.003874565940350294,
        0.005062828306108713,
        0.00016363161557819694,
        -0.05538041517138481,
        0.002900924999266863,
        -0.0016311703948304057,
        0.0032261682208627462,
        4.3768926843767986e-05,
        0.00012606143718585372,
        0.0009958879090845585,
        0.0040045385248959064,
        0.002454985398799181,
        0.002389158122241497,
        -0.00020596433023456484,
        0.004931958392262459,
        0.005903606303036213,
        1.573837835167069e-05,
        0.0035353347193449736,
        0.0045509980991482735,
        0.005911082495003939,
        -0.0067037614062428474,
        0.0028233572375029325,
        0.002223863499239087,
        0.004539826884865761,
        0.004327381495386362,
        0.001494473428465426,
        0.0028763259761035442,
        0.002927708439528942,
        0.0034388096537441015,
        0.006813312880694866,
        0.0018272723536938429,
        0.006303709931671619,
        -0.002683074912056327,
        0.002264378359541297,
        0.004044736735522747,
        -2.5074979930650443e-05,
        0.0037573869340121746,
        0.002082050545141101,
        -0.0008784743840806186,
        9.34745985432528e-05,
        0.000926303444430232,
        0.007078923750668764,
        1.965797673619818e-05,
        0.005756199359893799,
        0.00459601916372776,
        0.005126467440277338,
        0.0057163238525390625,
        0.0007721985457465053,
        -0.0011449650628492236,
        -0.0012962796026840806,
        -0.000742619507946074,
        -0.00011989801714662462,
        0.0017927009612321854,
        -0.0009002629085443914,
        0.004090277943760157,
        0.006044567562639713,
        0.002858273219317198,
        0.003390768077224493,
        -0.028418103232979774,
        0.004263557959347963,
        0.003636563429608941,
        0.010383647866547108,
        -0.0016172705218195915,
        -0.02268996275961399,
        0.0013009492540732026,
        0.0024025915190577507,
        0.0023159761913120747,
        0.0016954044112935662,
        -0.02664165012538433,
        0.007061861455440521,
        -0.0002431937464280054,
        0.00019754173990804702,
        0.009283185936510563,
        -0.0011930721811950207,
        -0.0019429292296990752,
        0.0007592103793285787,
        0.000648729968816042,
        0.002571338089182973,
        0.0008620062144473195,
        0.0016387866344302893,
        0.004479492548853159,
        0.0003338706155773252,
        0.002925390377640724,
        0.0050317333079874516,
        0.0023288647644221783,
        0.001654778141528368,
        0.002026102039963007,
        0.00288940966129303,
        0.0035299831070005894,
        0.007253140211105347,
        0.0036207041703164577,
        0.006589602213352919,
        0.006314796395599842,
        0.00406923471018672,
        3.243990067858249e-05,
        0.002218484878540039,
        0.0004902564687654376,
        0.0004066216934006661,
        -0.025963209569454193,
        0.0032756193540990353,
        0.0063295611180365086,
        0.005053065251559019,
        -0.001107021700590849,
        0.009321697987616062,
        0.008595642633736134,
        0.002952167298644781,
        0.004604622256010771,
        0.0036817847285419703,
        -0.0032282036263495684,
        -0.0022897394374012947,
        0.002597793936729431,
        0.007589197251945734,
        -0.0004650391638278961,
        -0.03429203853011131,
        0.0019714292138814926,
        0.001477802055887878,
        0.0016702322755008936,
        0.002984976628795266,
        -0.00016375964332837611,
        0.0032755446154624224,
        0.0040751006454229355,
        -0.0009775825310498476,
        0.003456056583672762,
        0.0028880357276648283,
        0.004389637615531683,
        -0.00014427379937842488,
        0.005596333183348179,
        0.002412470756098628,
        0.003304190468043089,
        0.00041926163248717785,
        -0.06086380034685135,
        -0.0002563422603998333,
        0.0018192104762420058,
        0.0002588312199804932,
        0.00033153354888781905,
        -0.019168712198734283,
        -0.004773047287017107,
        -0.004138654563575983,
        0.005965866148471832,
        0.0003354375367052853,
        0.0009173969738185406,
        0.0029859847854822874,
        0.0010608015581965446,
        0.004272206220775843,
        0.004393164999783039,
        0.00568487960845232,
        0.000371717382222414,
        0.00041740250890143216,
        0.004049430601298809,
        0.002529122633859515,
        0.002022957894951105,
        0.0004589421732816845,
        -0.03336907923221588,
        -0.0004847582313232124,
        -0.0005823488463647664,
        0.0016264282166957855,
        0.005015647038817406,
        0.005450483877211809,
        0.0018423908622935414,
        0.0004312711243983358,
        0.0044712466187775135,
        0.0013965860707685351,
        0.0015421286225318909,
        0.0016190226888284087,
        -0.012899797409772873,
        0.0031075277365744114,
        0.0032244077883660793,
        0.004435065668076277,
        0.0026446711272001266,
        -2.7389178285375237e-06,
        0.0017760263290256262,
        0.006172914057970047,
        0.0020468723960220814,
        0.004874996840953827,
        -0.0005405117408372462,
        -0.001113971578888595,
        0.0008098299149423838,
        0.002035834826529026,
        0.0053748805075883865,
        -0.0006047798087820411,
        0.0032559733372181654,
        -0.0003910369414370507,
        0.0006622511427849531,
        0.0028764023445546627,
        0.004414008930325508,
        -0.0016720767598599195,
        -3.314792411401868e-05,
        -0.028929896652698517,
        0.004353328142315149,
        -0.0004094220348633826,
        0.0015518461586907506,
        0.004792429506778717,
        0.0006159510812722147,
        0.004356310702860355,
        0.003414197126403451,
        0.002350336406379938,
        0.0051812478341162205,
        -0.00015047183842398226,
        0.0021900904830545187,
        0.0029693907126784325,
        0.0020879318471997976,
        0.003962061367928982,
        0.0046873739920556545,
        -0.00013527218834497035,
        0.0035524023696780205,
        -0.0017172391526401043,
        0.005520677659660578,
        0.0029408654663711786,
        0.00446968013420701,
        0.009763633832335472,
        0.002879193052649498,
        -3.517290315357968e-05,
        0.002154397778213024,
        0.0016286489553749561,
        0.00466541014611721,
        0.00013680470874533057,
        0.0027939099818468094,
        0.009543104097247124,
        0.004909399431198835,
        0.004134832881391048,
        0.00046858188579790294,
        -0.0003935991262551397,
        0.003962009679526091,
        0.0019676415249705315,
        0.0009040796430781484,
        0.008008726872503757,
        0.0021273281890898943,
        -6.648669659625739e-05,
        0.00329627376049757,
        0.0018618889153003693,
        0.003808818059042096,
        -0.0010609830496832728,
        0.004700690042227507,
        0.0009639287600293756,
        0.006980947684496641,
        0.0021540496964007616,
        0.0028359496500343084,
        0.0041949208825826645,
        0.001909064594656229,
        0.003997887950390577,
        0.005958178546279669,
        0.005350266583263874,
        0.005258538294583559,
        -0.0016962866066023707,
        -0.00023052837059367448,
        -0.001881533651612699,
        -0.00025989935966208577,
        0.006995813921093941,
        0.004869590513408184,
        -0.005746589973568916,
        0.007219323422759771,
        0.0034332044888287783,
        0.006301638670265675,
        0.00044199381954967976,
        0.004966608248651028,
        0.0008506356971338391,
        0.004443028010427952,
        0.0029425015673041344,
        -0.052967820316553116,
        0.007961912080645561,
        0.0014163206797093153,
        0.006440799217671156,
        -4.65237426396925e-05,
        0.0019417210714891553,
        0.0009494370897300541,
        0.00537668913602829,
        0.003614001674577594,
        0.0003460566804278642,
        0.001479613478295505,
        0.005986429750919342,
        0.00947622861713171,
        0.0006931669777259231,
        0.005458875559270382,
        0.003852344350889325,
        0.007030864711850882,
        -0.005717757157981396,
        0.005124688148498535,
        0.006040582899004221,
        0.004049456678330898,
        0.0061176191084086895,
        0.0015082793543115258,
        0.005374294705688953,
        -0.0005657773581333458,
        0.0025449495296925306,
        0.010791131295263767,
        0.0023329753894358873,
        0.007227630820125341,
        -0.0012940026354044676,
        0.004678515717387199,
        0.003483545733615756,
        -0.0021172831766307354,
        0.004545288626104593,
        0.0012725567212328315,
        0.0010945320827886462,
        0.00020032243628520519,
        0.0007654098444618285,
        0.00857522152364254,
        0.0018742495449259877,
        0.009249773807823658,
        0.0047026886604726315,
        0.005095589905977249,
        0.008962450549006462,
        0.0040819658897817135,
        -0.00040799431735649705,
        -0.0024987896904349327,
        -0.00017353915609419346,
        0.0021541069727391005,
        -0.00035235047107562423,
        -2.25934709305875e-05,
        0.005353154614567757,
        0.0069020818918943405,
        0.005463175941258669,
        0.0030081095173954964,
        -0.02520236186683178,
        0.006722044665366411,
        0.0058196596801280975,
        0.01104892697185278,
        0.000624186301138252,
        -0.02230844460427761,
        0.003912083338946104,
        0.0025399571750313044,
        0.005241241306066513,
        -0.0007585922721773386,
        -0.022915957495570183,
        0.010856226086616516,
        0.0015715976478531957,
        -0.001246431260369718,
        0.010855922475457191,
        -0.0013911582063883543,
        -0.0008855432388372719,
        0.00026931308093480766,
        -0.00044887393596582115,
        0.005379875656217337,
        -0.001272178953513503,
        0.0002665166975930333,
        0.005441886372864246,
        0.002318782964721322,
        0.004141178447753191,
        0.004192402120679617,
        0.0023769252002239227,
        -0.00028823610045947134,
        -0.0005025649443268776,
        0.005114992149174213,
        0.006276847328990698,
        0.009792574681341648,
        0.005507786758244038,
        0.004791164770722389,
        0.00467880442738533,
        0.004134878516197205,
        0.0006596590974368155,
        0.0034870316740125418,
        0.0005173554527573287,
        0.000414452952099964,
        -0.022397344931960106,
        0.0006737381336279213,
        0.00684750359505415,
        0.0066636111587285995,
        -0.0014073720667511225,
        0.013086135499179363,
        0.009289814159274101,
        0.005201967898756266,
        0.005442498251795769,
        0.0012259646318852901,
        -0.0037161444779485464,
        -0.0026732159312814474,
        0.002222443465143442,
        0.009294604882597923,
        0.003250482026487589,
        -0.03110792487859726,
        -0.0012010587379336357,
        0.0006661790539510548,
        0.0032554937060922384,
        0.005290328990668058,
        0.0011921966215595603,
        0.0020844885148108006,
        0.005172391422092915,
        -0.0022054363507777452,
        0.0010251973289996386,
        0.001975094899535179,
        0.0052023292519152164,
        0.00031240086536854506,
        0.0032082723919302225,
        0.006933707278221846,
        0.00301726208999753,
        0.004169767256826162,
        -0.05804423615336418,
        -0.0008789380080997944,
        0.004331804346293211,
        0.001975960098206997,
        0.00025621341774240136,
        -0.01815757527947426,
        -0.0011882326798513532,
        -0.002806155476719141,
        0.005290727596729994,
        -0.0018720439402386546,
        -0.00018406292656436563,
        0.004829585552215576,
        4.451740824151784e-05,
        0.005674435757100582,
        0.005452381446957588,
        0.005730939097702503,
        0.0028636830393224955,
        0.002704412443563342,
        0.007988523691892624,
        0.004663238301873207,
        0.004229067359119654,
        0.0032301656901836395,
        -0.030000055208802223,
        0.00013269524788483977,
        0.0005474783829413354,
        0.003118043066933751,
        0.0012632174184545875,
        0.005932642146945,
        0.0025945103261619806,
        -0.0013176774373278022,
        0.002255265833809972,
        0.0040006935596466064,
        0.00038685023901052773,
        0.0006636439939029515,
        -0.011350259184837341,
        0.001521766185760498,
        0.00273751188069582,
        0.0027575031854212284,
        0.0030767389107495546,
        -0.0014421457890421152,
        -0.002298681065440178,
        0.00796800758689642,
        0.0014735687291249633,
        0.002566775307059288,
        0.0030590116512030363,
        0.0017703730845823884,
        -0.0016786109190434217,
        0.0029771376866847277,
        0.004523260984569788,
        0.0012245672987774014,
        0.0013660629047080874,
        0.0010769781656563282,
        0.0036997420247644186,
        0.0012078355066478252,
        0.00669816043227911,
        -0.0004951943410560489,
        0.0005244673229753971,
        -0.029801903292536736,
        0.0042626941576600075,
        0.002570837503299117,
        0.0006479693111032248,
        0.0061196316964924335,
        0.001100352848879993,
        0.0037029788363724947,
        0.0018489423673599958,
        0.0035384963266551495,
        0.00779673270881176,
        0.0014195635449141264,
        -0.00032480101799592376,
        0.004088106099516153,
        0.0010270291240885854,
        0.0017291107214987278,
        0.0053289709612727165,
        -0.0009627441177144647,
        0.003687682095915079,
        -0.0018585160141810775,
        0.007199141196906567,
        0.00229944521561265,
        0.006938754580914974,
        0.009563545696437359,
        0.0038416218012571335,
        0.0010618622181937099,
        0.0026002312079072,
        0.002430995926260948,
        0.002068318659439683,
        0.0024149473756551743,
        -0.00017623775056563318,
        0.011711188592016697,
        0.003509449539706111,
        0.00695353839546442,
        0.001248104264959693,
        0.0011169640347361565,
        0.0029687571804970503,
        0.0020988103933632374,
        0.0012422670843079686,
        0.009532464668154716,
        0.002224584110081196,
        -0.001813169103115797,
        0.0015433602966368198,
        0.0020018869545310736,
        0.0034225545823574066,
        0.000781207752879709,
        0.005377848632633686,
        0.004278136417269707,
        0.009994053281843662,
        0.0003915513807442039,
        0.004177892580628395,
        0.003472577314823866,
        0.00040292905759997666,
        0.005160195287317038,
        0.005316825583577156,
        0.002414580201730132,
        0.008128616027534008,
        0.0015759984962642193,
        0.002929797163233161,
        4.299705324228853e-06,
        0.0022201002575457096,
        0.008680335246026516,
        0.005693712271749973,
        -0.0034740890841931105,
        0.005780674982815981,
        0.004598516505211592,
        0.009011531248688698,
        0.0010005037765949965,
        0.00457244087010622,
        0.003624862525612116,
        0.005789411719888449,
        0.002400512108579278,
        -0.03984449803829193,
        0.005192480515688658,
        0.001685992581769824,
        0.007744642905890942,
        -0.0017419775249436498,
        -0.0016950789140537381,
        0.0044700875878334045,
        0.008238572627305984,
        0.006148701999336481,
        0.00044484747922979295,
        -0.0004896825412288308,
        0.008528847247362137,
        0.012297247536480427,
        0.0013362097088247538,
        0.004948641173541546,
        0.008606139570474625,
        0.009404492564499378,
        -0.006658757105469704,
        0.005792755167931318,
        0.006523588206619024,
        0.008424989879131317,
        0.005301609169691801,
        0.00019903820066247135,
        0.00437847850844264,
        0.0007750296499580145,
        0.004072005860507488,
        0.010102666914463043,
        0.002900579245761037,
        0.005791048053652048,
        -0.0026709672529250383,
        0.006737362127751112,
        0.0052240039221942425,
        -0.001480243867263198,
        0.00333990016952157,
        0.0009503939072601497,
        -0.0013854714343324304,
        -0.0013338651042431593,
        0.0037070035468786955,
        0.008045941591262817,
        0.002156022470444441,
        0.011876505799591541,
        0.0043992153368890285,
        0.0064157284796237946,
        0.00910676084458828,
        0.0023443198297172785,
        0.0003522521583363414,
        -0.0018904461758211255,
        0.0014111627824604511,
        0.00271320017054677,
        0.0003537049633450806,
        0.0019515497842803597,
        0.00728862127289176,
        0.007636783644556999,
        0.006090532522648573,
        0.005258429329842329,
        -0.01802239939570427,
        0.0036428479943424463,
        0.0059454054571688175,
        0.01155699323862791,
        0.0013090933207422495,
        -0.015157749876379967,
        0.004937351681292057,
        0.0031725852750241756,
        0.005561530124396086,
        0.0009737194050103426,
        -0.01996864564716816,
        0.011725698597729206,
        -0.0018269699066877365,
        -0.0012810665648430586,
        0.012686619535088539,
        -0.002688588574528694,
        0.0012494167312979698,
        0.0028662169352173805,
        -0.00024011694767978042,
        0.006315776612609625,
        0.0020431207958608866,
        0.0023017891217023134,
        0.006419574376195669,
        -0.0009098625741899014,
        0.001865584752522409,
        0.0007794720586389303,
        0.0018768120789900422,
        0.0021068635396659374,
        -0.0004521805967669934,
        0.004723212216049433,
        0.0066863857209682465,
        0.012946578674018383,
        0.007441018708050251,
        0.006230090744793415,
        0.0020485224667936563,
        0.002172590931877494,
        0.0030342228710651398,
        0.006640748120844364,
        0.0005402416572906077,
        0.0003461994929239154,
        -0.016747254878282547,
        0.0016134779434651136,
        0.006956287659704685,
        0.010753406211733818,
        0.0005743762594647706,
        0.013321014121174812,
        0.012901133857667446,
        0.004446262959390879,
        0.006057725753635168,
        0.002168637467548251,
        -0.003939834889024496,
        -0.0020957915112376213,
        0.0016293053049594164,
        0.009025203995406628,
        0.0034206192940473557,
        -0.023620041087269783,
        0.0017587571637704968,
        -0.0012846702011302114,
        0.0019503994844853878,
        0.0074988738633692265,
        0.0021872674115002155,
        0.0017594870878383517,
        0.00627116160467267,
        -0.0011908832238987088,
        0.0007947887061163783,
        0.0002940010163001716,
        0.006462459452450275,
        0.002037087921053171,
        0.004081512335687876,
        0.005547572858631611,
        0.004961452446877956,
        0.003078002016991377,
        -0.04122832044959068,
        -0.0008088923059403896,
        0.005799697246402502,
        0.0012266013072803617,
        -4.045008972752839e-05,
        -0.01638159155845642,
        -0.0009311390458606184,
        -0.0037774457596242428,
        0.006910745054483414,
        0.0007473418954759836,
        0.0015395007794722915,
        0.005659610033035278,
        0.0006448780186474323,
        0.008148941211402416,
        0.006160373333841562,
        0.005573991220444441,
        0.002343951491639018,
        0.0020518414676189423,
        0.008680423721671104,
        0.0058407532051205635,
        0.007527496200054884,
        0.0027808246668428183,
        -0.025595545768737793,
        0.00043344905134290457,
        0.0012896376429125667,
        0.0012140139006078243,
        0.0028354667592793703,
        0.006801463197916746,
        0.003515054937452078,
        0.0016453237039968371,
        0.004954163450747728,
        0.0021593787241727114,
        0.00185001187492162,
        0.0015155496075749397,
        -0.009273246861994267,
        0.0012194780865684152,
        0.0044827573001384735,
        0.0020847851410508156,
        0.0048507992178201675,
        0.0011938194511458278,
        0.0016589337028563023,
        0.00863213837146759,
        0.0005935103399679065,
        0.005624979734420776,
        0.00015883182641118765,
        -0.0005489606410264969,
        -0.0006599645130336285,
        0.0018380343681201339,
        0.0066689494997262955,
        0.0006064409972168505,
        0.0018561414908617735,
        -0.001190308714285493,
        0.004175013862550259,
        0.0025735388044267893,
        0.007287677377462387,
        -0.0008281384943984449,
        0.0001587023289175704,
        -0.022775568068027496,
        0.0039557116106152534,
        0.0011962783755734563,
        0.0003234368050470948,
        0.007488125003874302,
        0.005707268137484789,
        0.008033678866922855,
        0.004512208979576826,
        0.005224555265158415,
        0.011552267707884312,
        -0.00048073267680592835,
        0.0026738985907286406,
        0.0038005069363862276,
        0.004327092785388231,
        0.0030684112571179867,
        0.005763519089668989,
        0.0017067674780264497,
        0.0023396022152155638,
        0.0017842140514403582,
        0.006442727521061897,
        0.0015051905065774918,
        0.011545470915734768,
        0.011705871671438217,
        0.005371074192225933,
        0.0012375260703265667,
        0.0069078304804861546,
        0.0009458152926526964,
        0.003316395217552781,
        0.00034828681964427233,
        0.0019217187073081732,
        0.007617604453116655,
        0.0037025485653430223,
        0.004323880188167095,
        0.0019247379386797547,
        0.0003953148261643946,
        0.0023850244469940662,
        0.002492726081982255,
        0.0011106960009783506,
        0.0038253890816122293,
        0.000638116616755724,
        -0.001773592783138156,
        0.0021528126671910286,
        0.004448154475539923,
        0.0044077131897211075,
        0.0016195577336475253,
        0.005174329970031977,
        0.0029905156698077917,
        0.0063989912159740925,
        0.0035336590372025967,
        0.0016436174046248198,
        0.0019467516103759408,
        0.0022167565766721964,
        0.002240799367427826,
        0.0015098334988579154,
        0.003503930987790227,
        0.006366897840052843,
        -0.00016825315833557397,
        0.0008353368612006307,
        -0.0016741070430725813,
        0.002957411576062441,
        0.003712951671332121,
        0.003543741535395384,
        -0.00768610555678606,
        0.0038904931861907244,
        0.0048426971770823,
        0.0041588591411709785,
        -0.00021391117479652166,
        0.002049440750852227,
        0.00316624459810555,
        0.002945214742794633,
        0.002609129063785076,
        -0.058231789618730545,
        0.005459791049361229,
        -0.0005664166528731585,
        0.005399507936090231,
        -0.0020983468275517225,
        -0.0011237788712605834,
        0.002940109698101878,
        0.002537197433412075,
        0.004733893554657698,
        0.002201136201620102,
        0.0020778474863618612,
        0.0029126389417797327,
        0.006389584857970476,
        -0.0015643624356016517,
        0.002718808362260461,
        0.004655707627534866,
        0.004782746080309153,
        -0.006548140663653612,
        0.004342066124081612,
        0.002795751206576824,
        0.003191969357430935,
        0.0060782344080507755,
        0.00017259294691029936,
        0.0020158227998763323,
        0.0013436238514259458,
        0.0012155490694567561,
        0.007108842488378286,
        0.0039193532429635525,
        0.0037519335746765137,
        -0.003208210226148367,
        0.001917544868774712,
        0.005570369306951761,
        0.0013989527942612767,
        0.0010645906440913677,
        0.0010613478953018785,
        -0.0009159225155599415,
        0.00161618716083467,
        0.0017121556447818875,
        0.004736913833767176,
        0.0012054763501510024,
        0.008648811839520931,
        0.0038038608618080616,
        0.003236263757571578,
        0.007381146308034658,
        0.001571203232742846,
        -0.0018259197240695357,
        6.193744047777727e-05,
        0.0018827489111572504,
        0.0007999237277545035,
        0.0020145890302956104,
        -0.0009834659285843372,
        0.004023817367851734,
        0.00673921313136816,
        0.0043174694292247295,
        0.004096546676009893,
        -0.026065584272146225,
        0.003982251975685358,
        0.0021742135286331177,
        0.006600421387702227,
        0.0008905652211979032,
        -0.02275141328573227,
        0.0015492660459131002,
        0.0005906220758333802,
        0.0033364032860845327,
        -0.0011380165815353394,
        -0.025333086028695107,
        0.006137301214039326,
        0.0011888988083228469,
        -0.0006250669248402119,
        0.0070668430998921394,
        -0.0023635905236005783,
        0.0006854002713225782,
        0.0030761000234633684,
        -0.0004321870219428092,
        0.005610756576061249,
        0.00012529880041256547,
        -0.0016690624179318547,
        0.002310381270945072,
        0.00242515723221004,
        0.00327687687240541,
        0.0023751535918563604,
        -0.000797616841737181,
        0.002540023997426033,
        0.0015478356508538127,
        0.00250249239616096,
        0.0027156078722327948,
        0.0064619192853569984,
        0.0034365777391940355,
        0.0051737697795033455,
        0.0036733143497258425,
        0.004370085895061493,
        0.0015914540272206068,
        0.004464722704142332,
        0.0012157874880358577,
        -0.00165991997346282,
        -0.02339879982173443,
        0.0006957894656807184,
        0.004361200612038374,
        0.004633574280887842,
        -0.00101376767270267,
        0.009362257085740566,
        0.007151520345360041,
        0.001079523703083396,
        0.003590652020648122,
        0.004212761763483286,
        -0.0032875502947717905,
        0.0007214710931293666,
        0.003418789943680167,
        0.004761685151606798,
        0.0012871995568275452,
        -0.03485488519072533,
        0.0016017768066376448,
        -0.001982606016099453,
        0.0015357208903878927,
        0.004472685512155294,
        0.002831356367096305,
        0.0018986919894814491,
        0.005456823389977217,
        -0.0010971046285703778,
        0.003292979672551155,
        0.00502521637827158,
        0.005562545731663704,
        -0.00039603214827366173,
        0.003996286541223526,
        0.003017923329025507,
        0.0011899542296305299,
        0.002413606969639659,
        -0.06087871640920639,
        0.0014817299088463187,
        0.0025241696275770664,
        0.0007871407433412969,
        -0.0010222679702565074,
        -0.02202528715133667,
        -0.0035859905183315277,
        -0.00544922798871994,
        0.004252010956406593,
        -0.0003026805352419615,
        0.00044977053767070174,
        0.0025655054487288,
        0.0006833808729425073,
        0.003875817870721221,
        0.0025262790732085705,
        0.004929177928715944,
        0.0014842498349025846,
        0.0012844821903854609,
        0.0064913728274405,
        0.0028316364623606205,
        0.0033126119524240494,
        0.0034010233357548714,
        -0.03471004590392113,
        -0.001687165116891265,
        0.001293743378482759,
        0.003022169228643179,
        0.0020361144561320543,
        0.002231804421171546,
        0.004676842596381903,
        -0.0001809035602491349,
        0.0030701681971549988,
        0.0022406610660254955,
        0.0023338375613093376,
        0.002439878648146987,
        -0.013480089604854584,
        0.0011588940396904945,
        0.0015282772947102785,
        0.0017809635028243065,
        0.0027061847504228354,
        -0.0018302539829164743,
        -0.0018769840244203806,
        0.005151581019163132,
        -0.0006462057353928685,
        0.001444776775315404,
        0.0017282158369198442,
        -0.001741247484460473,
        -0.0013700134586542845,
        0.0029897382482886314,
        0.004037528298795223,
        -0.0011334528680890799,
        0.0018063874449580908,
        0.0015007926849648356,
        0.0008211816311813891,
        0.001217288663610816,
        0.003654064377769828,
        -0.0015750133898109198,
        0.0017985962331295013,
        -0.030571158975362778,
        0.0012481444282457232,
        0.0005087911849841475,
        0.0016380310989916325,
        0.004555635619908571,
        0.0038919600192457438,
        0.0018553555710241199,
        0.0044634114019572735,
        0.005650428123772144,
        0.004205574281513691,
        0.0009208559058606625,
        0.0005565680912695825,
        0.001548483269289136,
        0.0013297380646690726,
        0.0033667809329926968,
        0.0056768180802464485,
        0.0005718719912692904,
        0.002942865714430809,
        0.0012365970760583878,
        0.0033016775269061327,
        0.003487231442704797,
        0.004385129548609257,
        0.00632441183552146,
        -0.000548045034520328,
        -0.001576832146383822,
        0.004783245734870434,
        0.0022812464740127325,
        0.002793865278363228,
        -0.0007503879023715854,
        0.0004438950272742659,
        0.007557043805718422,
        0.0026516159996390343,
        0.005154287908226252,
        0.00013853368000127375,
        -0.0005121253780089319,
        0.001081836293451488,
        0.002915279706940055,
        0.0009709850419312716,
        0.0023863103706389666,
        0.0011232818942517042,
        0.001884929952211678,
        0.0006001553265377879,
        0.000893637363333255,
        0.0032040555961430073,
        0.000579484214540571,
        0.002589600859209895,
        0.004004953894764185,
        0.00465879263356328,
        0.0030164867639541626,
        0.004326562397181988,
        0.0007001085323281586,
        6.425262108677998e-05,
        0.003044799668714404,
        0.005533783696591854,
        0.0022774888202548027,
        0.005788660142570734,
        0.0013481925707310438,
        0.002231339691206813,
        0.0002708311367314309,
        0.003406721167266369,
        0.002764658071100712,
        0.0027218014001846313,
        -0.004439810756593943,
        0.00487505691125989,
        0.0030345043633133173,
        0.005049233790487051,
        0.0008486752631142735,
        0.0038541373796761036,
        0.00055189203703776,
        0.0028890990652143955,
        0.00419247942045331,
        -0.03319260850548744,
        0.003784522879868746,
        0.00024028183543123305,
        0.004589085467159748,
        9.927574137691408e-05,
        0.0023987770546227694,
        0.0018406645394861698,
        0.004379381891340017,
        0.0040364135056734085,
        0.0004933478194288909,
        0.0032770659308880568,
        0.004392813891172409,
        0.006682473234832287,
        0.0020257930736988783,
        0.001231587491929531,
        0.004404725972563028,
        0.004203607328236103,
        -0.0044830781407654285,
        0.004034474492073059,
        0.004753222689032555,
        0.0020147236064076424,
        0.004048996139317751,
        0.0028817576821893454,
        0.00372690474614501,
        0.0021243044175207615,
        0.0012189119588583708,
        0.0072763580828905106,
        0.00412909546867013,
        0.004641271661967039,
        0.0004992697504349053,
        0.002848733449354768,
        0.00363910966552794,
        -0.00032675694092176855,
        0.0007180069806054235,
        0.004350591916590929,
        0.002422422170639038,
        0.0018859527772292495,
        0.0031194090843200684,
        0.005628382787108421,
        0.0015882209409028292,
        0.007528991904109716,
        0.0055762664414942265,
        0.0016144653782248497,
        0.0035738858859986067,
        0.003596377559006214,
        -0.0011733847204595804,
        0.002469712169840932,
        0.0025798864662647247,
        0.0031819131691008806,
        0.0020222801249474287,
        0.0027794507332146168,
        0.004110350273549557,
        0.004808562807738781,
        0.0026986945886164904,
        0.0028455452993512154,
        -0.013362639583647251,
        0.0015840783016756177,
        0.001803922583349049,
        0.008772505447268486,
        0.002303119283169508,
        -0.011649372056126595,
        0.004015521612018347,
        0.0037730385083705187,
        0.0034233848564326763,
        0.0024007409811019897,
        -0.01509062573313713,
        0.006147999782115221,
        -0.00017936924996320158,
        0.0005651073297485709,
        0.008068187162280083,
        -0.002087537432089448,
        -0.00046128983376547694,
        0.00016147224232554436,
        0.0013843511696904898,
        0.004417167045176029,
        0.0028410127852112055,
        -0.0003696793573908508,
        0.002411485882475972,
        0.0015490048099309206,
        0.0016388108488172293,
        0.0022165076807141304,
        0.0015874849632382393,
        0.001700912369415164,
        0.002428982872515917,
        0.0021738773211836815,
        0.0031216407660394907,
        0.004619203973561525,
        0.005232054740190506,
        0.0031770605128258467,
        0.004434446804225445,
        0.001673861057497561,
        0.003162952372804284,
        0.003577054711058736,
        0.0008635044796392322,
        -0.0002711079432629049,
        -0.012538616545498371,
        0.004030011594295502,
        0.002758398652076721,
        0.005942327901721001,
        0.0008522351854480803,
        0.00600189995020628,
        0.007945402525365353,
        0.005480233579874039,
        0.004152091220021248,
        0.004102987237274647,
        0.0001731415541144088,
        0.0025322921574115753,
        0.001172830001451075,
        0.007042389828711748,
        0.003657235763967037,
        -0.01933860406279564,
        -0.0004581703688018024,
        -0.00044190013431943953,
        0.0009662098018452525,
        0.0023129743058234453,
        0.001614922541193664,
        0.0031480160541832447,
        0.004923631902784109,
        0.0012315916828811169,
        0.0016529643908143044,
        0.0044390968978405,
        0.0056786490604281425,
        0.0009124359348788857,
        0.004476670175790787,
        0.0027386685833334923,
        0.0021419560071080923,
        0.0026619010604918003,
        -0.032601021230220795,
        0.0030459659174084663,
        0.003689628094434738,
        0.002380393212661147,
        0.0002465644502080977,
        -0.012173730880022049,
        -0.0034330713097006083,
        -0.0022592858877032995,
        0.004918282851576805,
        0.0031895481515675783,
        0.0011207645293325186,
        0.003711917670443654,
        0.002504956442862749,
        0.0022016391158103943,
        0.0013823065673932433,
        0.002422900404781103,
        0.0003614072920754552,
        0.0010116716148331761,
        0.004512206185609102,
        0.002995709888637066,
        0.0023881024681031704,
        0.0027455745730549097,
        -0.01743142493069172,
        0.00038284374750219285,
        0.001155563979409635,
        0.001657616812735796,
        0.004120390862226486,
        0.0037109788972884417,
        0.0032994626089930534,
        0.0020508654415607452,
        0.0038716604467481375,
        0.0043067289516329765,
        0.0034044862259179354,
        0.003516095457598567,
        -0.006583590060472488,
        0.003093380481004715,
        0.002368292538449168,
        0.0038576561491936445,
        0.003194195684045553,
        0.003066431498154998,
        0.000498575100209564,
        0.003893403336405754,
        0.0034213881008327007,
        0.003144690068438649,
        0.00021849700715392828,
        0.0014547924511134624,
        0.0011912559857591987,
        0.0020571465138345957,
        0.002137074014171958,
        -0.0008343424997292459,
        0.0011123602744191885,
        -0.001177029451355338,
        0.002909701084718108,
        0.00241517904214561,
        0.005721079185605049,
        0.0024409499019384384,
        0.0006169689004309475,
        -0.014693457633256912,
        0.0041300212033092976,
        0.0008571753860451281,
        -0.0002731042914092541,
        0.004051674623042345,
        0.004396776203066111,
        0.003114081220701337,
        0.004285206086933613,
        0.003197035752236843,
        0.0051770294085145,
        0.001554850023239851,
        0.0034684021957218647,
        -0.00019897565653081983,
        0.0009208956616930664,
        0.00380157632753253,
        0.005753546487540007,
        0.0016678479732945561,
        0.0029963154811412096,
        0.00015057099517434835,
        0.005282359663397074,
        0.0015439484268426895,
        0.003949759528040886,
        0.007002944592386484,
        0.0034123442601412535,
        0.0018587629310786724,
        0.002381725935265422,
        0.001032420783303678,
        0.003793886164203286,
        0.0032280362211167812,
        0.0010743826860561967,
        0.004908578936010599,
        0.00297665991820395,
        0.003281362121924758,
        0.00020667527860496193,
        0.001077926717698574,
        0.0017657133284956217,
        -0.00014421652304008603,
        -0.0010061078937724233,
        0.0009377771057188511,
        0.004128136206418276,
        0.0017414024332538247,
        0.0024776144418865442,
        0.0027443990111351013,
        0.006081126164644957,
        0.0019661581609398127,
        0.001627075718715787,
        0.002205003285780549,
        0.004059148486703634,
        0.0008604618487879634,
        0.0005083831492811441,
        0.002517686691135168,
        0.0035993512719869614,
        0.0028244396671652794,
        0.0020620832219719887,
        0.003239196725189686,
        0.004536452703177929,
        0.00072625617031008,
        -0.0001503792591392994,
        0.0006343676359392703,
        0.002246338175609708,
        0.0009412991930730641,
        0.0016336332773789763,
        -0.003678587730973959,
        0.001497978693805635,
        0.0027163326740264893,
        0.004818878602236509,
        0.002026153728365898,
        0.003938758280128241,
        0.0035496389027684927,
        0.00045511932694353163,
        -0.00028506951639428735,
        -0.04420386627316475,
        0.0024933358654379845,
        0.002689537825062871,
        0.004062677267938852,
        -0.00036013624048791826,
        0.0008909840253181756,
        0.0008403005776926875,
        0.004144570790231228,
        0.003422884736210108,
        0.002044231630861759,
        0.002499279333278537,
        0.004837814252823591,
        0.004087630659341812,
        -0.00036734718014486134,
        0.0023632256779819727,
        0.0029961869586259127,
        0.004741586744785309,
        -0.0034138518385589123,
        0.0014857780188322067,
        0.0015589414397254586,
        0.0024045491591095924,
        0.004644668195396662,
        -0.0006221496150828898,
        0.0011952327331528068,
        0.003611975349485874,
        0.0027372753247618675,
        0.004690257832407951,
        0.00026006813277490437,
        0.0028398327995091677,
        -0.0037377059925347567,
        0.0035667449701577425,
        0.0014010407030582428,
        -8.52877928991802e-05,
        0.002914686454460025,
        0.004609469790011644,
        0.001785567495971918,
        -0.0010650153271853924,
        0.0033345897682011127,
        0.00369073124602437,
        0.0009582152124494314,
        0.004969701636582613,
        0.00399013701826334,
        0.003659914480522275,
        0.0026048992294818163,
        0.0019315091194584966,
        0.00033223337959498167,
        0.001826865249313414,
        0.000245229690335691,
        0.0019460245966911316,
        0.0016978841740638018,
        0.0008351565338671207,
        0.0012806778540834785,
        0.0032731788232922554,
        0.0029323964845389128,
        0.002317324746400118,
        -0.018473587930202484,
        0.004676021169871092,
        0.0015725851990282536,
        0.00462186336517334,
        -0.0008009115699678659,
        -0.017524054273962975,
        0.0032962693367153406,
        0.0010377394501119852,
        0.000986654544249177,
        0.0011545995948836207,
        -0.018069535493850708,
        0.005196694750338793,
        -0.0012157279998064041,
        -0.0012077587889507413,
        0.005571294575929642,
        -0.0018099343869835138,
        -0.0009251281735487282,
        0.0003072755935136229,
        0.002426290884613991,
        0.002921668579801917,
        0.000546380179002881,
        0.0022484285291284323,
        0.0018442964646965265,
        0.0013098043855279684,
        -0.00012604959192685783,
        0.004727234598249197,
        0.0023836714681237936,
        -0.00041631111525930464,
        -0.0003993338905274868,
        0.0028142151422798634,
        0.0022713919170200825,
        0.0052599599584937096,
        0.004118109587579966,
        0.0023956496734172106,
        0.003951264079660177,
        0.003926741890609264,
        0.0007956365589052439,
        0.004083277657628059,
        -0.0003120776964351535,
        0.001990750664845109,
        -0.01664845459163189,
        0.0012198733165860176,
        0.0031815175898373127,
        0.0021958588622510433,
        -0.0007177934749051929,
        0.0047587682493031025,
        0.004356313031166792,
        0.0022211784962564707,
        0.00301033235155046,
        0.004486896563321352,
        -0.0018804894061759114,
        -2.5256436856579967e-05,
        0.0017649587243795395,
        0.002609671326354146,
        0.0018635244341567159,
        -0.026849163696169853,
        0.0019143852405250072,
        -0.0013978281058371067,
        0.0001989036682061851,
        0.0014520237455144525,
        6.778408715035766e-05,
        -0.00018231755529996008,
        0.0032976260408759117,
        0.001368242665193975,
        0.003957222681492567,
        0.0034106930252164602,
        0.001998082036152482,
        0.00031706367735750973,
        0.00203861016780138,
        0.002507451456040144,
        0.0026227119378745556,
        0.0010759059805423021,
        -0.04568502679467201,
        0.0022245177533477545,
        0.002809245139360428,
        -0.0002496234083082527,
        7.594589988002554e-05,
        -0.013803244568407536,
        -0.0032226000912487507,
        -0.0020035305060446262,
        0.0027950492221862078,
        0.00025028048548847437,
        0.0005787952686659992,
        0.0034548412077128887,
        0.0007243873551487923,
        0.0025171898305416107,
        0.003582209348678589,
        0.00197448767721653,
        -0.0002631245297379792,
        0.002760202158242464,
        0.002027380047366023,
        0.0019045486114919186,
        0.004338546190410852,
        0.0013411125401034951,
        -0.025495240464806557,
        0.000919530401006341,
        0.0009336028597317636,
        1.4890812963130884e-05,
        0.002190772444009781,
        0.001473478158004582,
        0.0036717301700264215,
        0.0011061516124755144,
        0.0035945316776633263,
        0.0031886380165815353,
        0.0021525907795876265,
        0.003880489384755492,
        -0.008163112215697765,
        0.00041118834633380175,
        3.9920807466842234e-05,
        0.0016606672434136271,
        0.0023322005290538073,
        0.0021025734022259712,
        0.0027710997965186834,
        0.004091618582606316,
        0.0004743175522889942,
        0.004101765342056751,
        0.001322204596363008,
        0.0021739299409091473,
        -1.5188408724498004e-05,
        0.0009495833073742688,
        0.0032343172933906317,
        0.0025907657109200954,
        0.0032214040402323008,
        0.00013631529873237014,
        0.002871578559279442,
        0.0045127104967832565,
        0.0036249281838536263,
        0.0011439226800575852,
        0.0005540837883017957,
        -0.021862495690584183,
        0.0030997053254395723,
        -5.087048702989705e-05,
        -0.00017079054669011384,
        0.003010990796610713,
        0.0011286825174465775,
        0.0008629930089227855,
        0.003064668271690607,
        0.0037088950630277395,
        0.006066832225769758,
        0.0018375898944213986,
        0.0013557380298152566,
        -0.000133319161250256,
        0.001323971664533019,
        0.0027522414457052946,
        0.0010823115007951856,
        0.0009118248708546162,
        0.0014452955219894648,
        -0.0009101998875848949,
        0.0033673213329166174,
        0.001732605043798685,
        0.0016997352940961719,
        0.00664921198040247,
        9.425710231880657e-06,
        0.00048738805344328284,
        0.0027021318674087524,
        -0.0003985057701356709,
        0.004446944687515497,
        0.0023909599985927343,
        0.0008209733641706407,
        0.026150507852435112,
        0.010650255717337132,
        0.011881023645401001,
        0.0028972455766052008,
        -0.00031931715784594417,
        0.006045961286872625,
        0.009491004049777985,
        0.0009489801595918834,
        0.015790307894349098,
        -8.970688213594258e-05,
        0.0004809880629181862,
        0.0010592852486297488,
        0.00545054767280817,
        -0.0026041760575026274,
        0.0012282941024750471,
        0.013236281462013721,
        0.0066955056972801685,
        0.0180151779204607,
        -0.0016193219926208258,
        0.0072935642674565315,
        0.0017508279997855425,
        -0.002635529963299632,
        0.013741813600063324,
        0.015727801248431206,
        0.007876995950937271,
        0.020137017592787743,
        0.002133116591721773,
        0.008563070558011532,
        -4.5107015466783196e-05,
        -0.0014925178838893771,
        0.016998354345560074,
        0.0085613327100873,
        0.006676199845969677,
        0.012388527393341064,
        0.010836964473128319,
        0.01543677318841219,
        0.0007222889689728618,
        0.010788502171635628,
        0.006904260721057653,
        0.00977282039821148,
        0.008937053382396698,
        0.026900015771389008,
        0.01216908823698759,
        -0.0006851113284938037,
        0.016385305672883987,
        0.001562295132316649,
        0.00185880484059453,
        0.009173864498734474,
        0.018065987154841423,
        0.013527902774512768,
        -0.0029123914428055286,
        0.0005080676055513322,
        0.01369546353816986,
        0.024872377514839172,
        0.0022919822949916124,
        0.0134997284039855,
        0.015526794828474522,
        0.014239850454032421,
        0.0014617419801652431,
        0.009700878523290157,
        0.016072019934654236,
        0.014583228155970573,
        0.011281942948698997,
        0.0010716159595176578,
        0.006765585858374834,
        -0.0012384700821712613,
        0.006963631603866816,
        0.01980079896748066,
        0.008262795396149158,
        0.00959627702832222,
        0.0057839443907141685,
        0.013635409064590931,
        0.01653696969151497,
        0.0008194698020815849,
        0.008754448965191841,
        -0.005287024192512035,
        0.0020368073601275682,
        0.0012902404414489865,
        0.0052010477520525455,
        0.023430807515978813,
        0.004647586029022932,
        0.02433716505765915,
        0.010844592936336994,
        0.014049394987523556,
        0.021396268159151077,
        0.007129480130970478,
        0.0015300294617190957,
        0.0037457714788615704,
        -0.0005654126289300621,
        0.005903664045035839,
        -0.0019236020743846893,
        0.0030157447326928377,
        0.0156905148178339,
        0.022248467430472374,
        0.016090169548988342,
        0.011134348809719086,
        0.01716136932373047,
        0.009362396784126759,
        0.014866604469716549,
        0.027653202414512634,
        -0.0005936121451668441,
        0.015490523539483547,
        0.006739580072462559,
        0.00610960740596056,
        0.010452168993651867,
        -0.0007000488694757223,
        0.016468487679958344,
        0.02348988503217697,
        0.0003494699776638299,
        0.001989667536690831,
        0.02943357639014721,
        0.00378561788238585,
        0.0036073275841772556,
        0.006130101624876261,
        -0.00043228454887866974,
        0.016158252954483032,
        0.0020500384271144867,
        0.0013210553443059325,
        0.00793700385838747,
        -0.002366283442825079,
        0.007243164349347353,
        -0.00014960333646740764,
        0.0045342715457081795,
        0.003759527811780572,
        0.004676865413784981,
        0.012643912807106972,
        0.011890118010342121,
        0.026446497067809105,
        0.016346296295523643,
        0.014466502703726292,
        -0.002188719343394041,
        -0.004555816296488047,
        0.006360714323818684,
        0.0162529144436121,
        0.0025269044563174248,
        0.0023785196244716644,
        0.012937267310917377,
        -0.0023409491404891014,
        0.007813196629285812,
        0.022132690995931625,
        0.002050864277407527,
        0.022526349872350693,
        0.022959880530834198,
        0.014635094441473484,
        0.012715061195194721,
        -0.0011852448806166649,
        0.001673472230322659,
        0.0014814018504694104,
        -0.0025991706643253565,
        0.024009596556425095,
        0.0024900699499994516,
        0.02195393107831478,
        -0.0006208188715390861,
        -0.00011432958126533777,
        0.008650645613670349,
        0.012700862251222134,
        0.002182250376790762,
        0.005109196994453669,
        0.014112230390310287,
        0.0015393219655379653,
        -0.00176640332210809,
        -0.004794914275407791,
        0.017313212156295776,
        -0.0008255788125097752,
        0.011190653778612614,
        0.012738445773720741,
        0.01319201197475195,
        0.005517479032278061,
        0.028926923871040344,
        0.0026452825404703617,
        0.016282593831419945,
        0.005994560196995735,
        2.827393473125994e-06,
        0.011528615839779377,
        0.0006761605618521571,
        0.004491121973842382,
        0.010575659573078156,
        -0.0008554189698770642,
        0.0007372822146862745,
        0.014301902614533901,
        -0.0008568894118070602,
        0.014238422736525536,
        0.012186301872134209,
        0.013832654803991318,
        0.004345583729445934,
        0.008939627557992935,
        0.018156640231609344,
        0.01160083431750536,
        0.013229912146925926,
        0.007718716282397509,
        0.01286624651402235,
        0.0005099094705656171,
        0.0027570121455937624,
        0.001840770710259676,
        -0.0035931614693254232,
        0.014702275395393372,
        0.011391349136829376,
        0.0025942185893654823,
        0.01119555626064539,
        -0.0032637661788612604,
        0.006511481944471598,
        -0.0015898142009973526,
        0.005719843320548534,
        0.006258285604417324,
        0.010816024616360664,
        -0.004077014047652483,
        0.005817646160721779,
        0.0009294873452745378,
        0.00032620778074488044,
        0.01518898643553257,
        0.004374742042273283,
        0.013689353130757809,
        0.005054666195064783,
        0.0010631647892296314,
        0.00033573166001588106,
        0.004777624737471342,
        0.010064715519547462,
        0.0021237258333712816,
        -0.0027492751833051443,
        -0.001467158435843885,
        0.0067498767748475075,
        0.010556230321526527,
        0.017366601154208183,
        -0.0009707363205961883,
        0.0021433564834296703,
        0.014225657097995281,
        0.0019309744238853455,
        0.004933129530400038,
        0.00015744952543172985,
        0.010518580675125122,
        0.010291471146047115,
        0.016712386161088943,
        0.007894025184214115,
        0.010518099181354046,
        0.021935876458883286,
        -0.0010729811619967222,
        0.008384987711906433,
        0.003147597424685955,
        0.008263049647212029,
        0.0034979735501110554,
        0.014196636155247688,
        -8.506119775120169e-05,
        0.006775667425245047,
        0.0025365734472870827,
        0.015106676146388054,
        0.00611074548214674,
        0.021999407559633255,
        0.027231359854340553,
        0.006702319253236055,
        0.0012775046052411199,
        0.01813848689198494,
        0.0031625437550246716,
        0.006252795923501253,
        0.0060457345098257065,
        0.0036262471694499254,
        0.01289570052176714,
        0.005222077947109938,
        0.0035002974327653646,
        0.0019051843555644155,
        0.0012315416242927313,
        0.0037156082689762115,
        0.0033079637214541435,
        -0.0005636777495965362,
        0.007654300890862942,
        0.0011190909426659346,
        -0.0026681283488869667,
        0.00020338778267614543,
        0.003774966113269329,
        0.005143598187714815,
        -0.0016581903910264373,
        0.0066245077177882195,
        0.0004888795665465295,
        0.0051261624321341515,
        0.0034986890386790037,
        0.0039716786704957485,
        0.0006140395998954773,
        0.0017355288146063685,
        0.00714363856241107,
        0.005443592090159655,
        0.004658821504563093,
        0.00765624875202775,
        -0.0005469685420393944,
        -0.0008079250692389905,
        -0.00019425767823122442,
        0.0005997615517117083,
        0.0038732667453587055,
        0.003016708418726921,
        -0.008924276567995548,
        0.007685617543756962,
        0.006173352710902691,
        0.007838333025574684,
        0.0007703719311393797,
        0.005682680290192366,
        0.0006265973206609488,
        0.004419769160449505,
        0.0013973638415336609,
        -0.07125719636678696,
        0.005522678606212139,
        0.0008013103506527841,
        0.008468064479529858,
        -0.0023828279227018356,
        0.0003654353495221585,
        0.002792286453768611,
        0.005925282835960388,
        0.003106186166405678,
        0.0005242392653599381,
        0.0013851815601810813,
        0.004422703757882118,
        0.010604726150631905,
        0.0008157904376275837,
        0.0028355473186820745,
        0.0047292690724134445,
        0.008065804839134216,
        -0.011532062664628029,
        0.004167625214904547,
        0.007220014464110136,
        0.0037152543663978577,
        0.007761172950267792,
        -0.0025473569985479116,
        0.0027975395787507296,
        -0.001084354124031961,
        0.0006322345579974353,
        0.009031590074300766,
        0.004542098380625248,
        0.006609796080738306,
        -0.005087453871965408,
        0.006279583089053631,
        0.00351343909278512,
        0.0007942889933474362,
        0.003370114602148533,
        0.0014911076286807656,
        0.0005549045745283365,
        -0.0012911611702293158,
        7.349799034273019e-06,
        0.0073009985499084,
        0.0026731586549431086,
        0.011790215037763119,
        0.004672252107411623,
        0.0048303124494850636,
        0.007662098854780197,
        0.0019055911106988788,
        -0.002859117928892374,
        -0.00012807300663553178,
        0.001018701703287661,
        0.0003218346682842821,
        -0.0007831740076653659,
        0.00135903712362051,
        0.0047399671748280525,
        0.008365672081708908,
        0.005748963914811611,
        0.0048868078738451,
        -0.03389852121472359,
        0.004997784737497568,
        0.0034541739150881767,
        0.01359245739877224,
        -0.0005610990338027477,
        -0.027952775359153748,
        0.0023944340646266937,
        0.0012269956059753895,
        0.002483018906787038,
        -0.00210648775100708,
        -0.03471045196056366,
        0.011944543570280075,
        -0.0019703181460499763,
        -0.00028810102958232164,
        0.012765727937221527,
        -0.0049578528851270676,
        -0.001766890985891223,
        0.002698824042454362,
        -0.0008799276547506452,
        0.006108301691710949,
        -5.37379237357527e-05,
        -0.001211073249578476,
        0.003502526553347707,
        0.0019415542483329773,
        0.002157776616513729,
        0.0023207308258861303,
        0.002720205346122384,
        0.00017603798187337816,
        -0.00019711806089617312,
        0.006399873178452253,
        0.005857174750417471,
        0.010733962059020996,
        0.007088577840477228,
        0.005509958136826754,
        0.006009878125041723,
        0.002704432001337409,
        0.0013789215590804815,
        0.006175096612423658,
        0.0008289954857900739,
        -0.0004963537794537842,
        -0.03134997934103012,
        0.0021641491912305355,
        0.007445951458066702,
        0.009249938651919365,
        0.0006734401686117053,
        0.0128817493095994,
        0.009599483571946621,
        0.003118454944342375,
        0.006294688675552607,
        0.001518686069175601,
        -0.005400394089519978,
        -0.002378275850787759,
        -0.0005082552670501173,
        0.010747370310127735,
        0.003511571092531085,
        -0.04307805001735687,
        -0.002111592795699835,
        -0.0006145518855191767,
        -0.00036124081816524267,
        0.0036611829418689013,
        -0.0004463484510779381,
        0.001014651614241302,
        0.005624830257147551,
        0.0005729339318349957,
        -0.00018571229884400964,
        0.0015174370491877198,
        0.007118324749171734,
        -0.000300563289783895,
        0.0045735277235507965,
        0.00603532837703824,
        0.0052564144134521484,
        0.003075424814596772,
        -0.07310128211975098,
        -0.0024677892215549946,
        0.004068077076226473,
        0.0022598691284656525,
        -0.0007950292201712728,
        -0.02633727341890335,
        -0.0060348487459123135,
        -0.004742066841572523,
        0.006265966687351465,
        -0.0020256817806512117,
        -0.0022309960331767797,
        0.002906141337007284,
        -0.0023711256217211485,
        0.005019047297537327,
        0.004160650540143251,
        0.00672891503199935,
        0.002760582836344838,
        0.0007888405816629529,
        0.007301175966858864,
        0.007815604098141193,
        0.0065238638781011105,
        0.003806039225310087,
        -0.040943488478660583,
        -0.000904574291780591,
        -0.0015795493964105844,
        -0.0002127448096871376,
        0.004030911717563868,
        0.00659153563901782,
        0.0041815550066530704,
        -0.002400447614490986,
        0.004752651788294315,
        0.001221723505295813,
        0.002567182993516326,
        0.0014826097758486867,
        -0.015627887099981308,
        0.0007867595413699746,
        0.001984326634556055,
        0.0008138447301462293,
        0.0024009826593101025,
        -0.0018603818025439978,
        0.000878281076438725,
        0.006418123841285706,
        -0.0005057270755060017,
        0.003337148344144225,
        -0.00022037811868358403,
        -0.002419870812445879,
        0.0004153222544118762,
        0.004662821069359779,
        0.004569075535982847,
        -0.0012052030069753528,
        0.002484491327777505,
        -2.2884349164087325e-05,
        0.0015661296201869845,
        0.001437934348359704,
        0.004915048833936453,
        -0.001313331420533359,
        0.0007616920629516244,
        -0.03600328415632248,
        0.004305894020944834,
        0.0022597431670874357,
        0.0008821924566291273,
        0.007486653979867697,
        0.0012807836756110191,
        0.004018309526145458,
        0.004915978293865919,
        0.006275238003581762,
        0.008160426281392574,
        0.0014947025338187814,
        0.0017693638801574707,
        0.0011411651503294706,
        0.0009664351237006485,
        0.0023076168727129698,
        0.006053176708519459,
        -0.0019384775077924132,
        0.0026522381231188774,
        0.0006022036541253328,
        0.005887825042009354,
        0.0018104544142261147,
        0.010563785210251808,
        0.011997584253549576,
        -0.00016287824837490916,
        0.0002506768505554646,
        0.0030164201743900776,
        0.0005584244499914348,
        0.0027014538645744324,
        -0.0004416785668581724,
        -0.00012315007916186005,
        0.006761904805898666,
        0.0035041971132159233,
        0.003861428936943412,
        0.0009793444769456983,
        -0.0011509585892781615,
        0.001495338510721922,
        0.0010557881323620677,
        0.000643620383925736,
        0.0069845495745539665,
        -0.00022052777057979256,
        0.00046309310710057616,
        0.0007545598200522363,
        0.003412892809137702,
        0.0032977783121168613,
        -0.00018905125034507364,
        0.0012652184814214706,
        0.0026634936220943928,
        0.0024331428576260805,
        0.00109084602445364,
        0.00040129764238372445,
        0.00040889589581638575,
        -0.001133279176428914,
        0.0016130820149555802,
        0.0014589778147637844,
        0.004623803775757551,
        0.004898121114820242,
        0.0008357263868674636,
        0.00018265617836732417,
        -0.0013296286342665553,
        0.001144674955867231,
        0.004584135953336954,
        0.002937842160463333,
        -0.004629442468285561,
        0.004631844814866781,
        0.004834705963730812,
        0.004335914272814989,
        -0.0016741238068789244,
        0.0040208883583545685,
        0.0017292037373408675,
        0.004529962316155434,
        -0.0007265565218403935,
        -0.06905359774827957,
        0.004041284788399935,
        -0.0015754930209368467,
        0.0021842713467776775,
        -0.0004924097447656095,
        0.0009225403191521764,
        0.001846596715040505,
        0.0016780580626800656,
        0.0029263594187796116,
        0.00127698783762753,
        0.0010249002370983362,
        0.005181309767067432,
        0.0042439596727490425,
        0.0015179022448137403,
        0.001543418737128377,
        0.0026328712701797485,
        0.006844512186944485,
        -0.010349518619477749,
        0.003683933289721608,
        0.004897352308034897,
        0.004617583472281694,
        0.004940057639032602,
        -0.0015688084531575441,
        0.0033924481831490993,
        0.0011368326377123594,
        0.0001570509048178792,
        0.008484870195388794,
        0.0010294235544279218,
        0.0036756389308720827,
        -0.0017232026439160109,
        0.004352983087301254,
        0.005175899714231491,
        -0.0014912980841472745,
        0.002945399610325694,
        0.0011069730389863253,
        -0.0009393352083861828,
        -0.0006640763604082167,
        0.002100930782034993,
        0.004343175794929266,
        0.001317165675573051,
        0.007960187271237373,
        0.005431939847767353,
        0.005147498566657305,
        0.00427866680547595,
        0.002703326288610697,
        0.0006965431966818869,
        -0.0011852559400722384,
        -0.0018146237125620246,
        -0.00039090978680178523,
        0.0008936489466577768,
        0.001200812985189259,
        0.0022333208471536636,
        0.00568301510065794,
        0.004361252766102552,
        0.004714466631412506,
        -0.0316980741918087,
        0.00536092696711421,
        0.0018508743960410357,
        0.010309098288416862,
        -0.0016648166347295046,
        -0.025261210277676582,
        0.0024352928157895803,
        0.0005620065494440496,
        0.003250337205827236,
        -0.00039629184175282717,
        -0.02946929819881916,
        0.006660788785666227,
        0.0005150954239070415,
        0.000379342760425061,
        0.005968121811747551,
        -0.0028065715450793505,
        0.00011844979599118233,
        -0.00034104802762158215,
        0.0004725875915028155,
        0.0043589225970208645,
        -0.0019523997325450182,
        -0.0012939873849973083,
        0.004004199057817459,
        -0.0013640034012496471,
        0.0014274338027462363,
        0.005076656583696604,
        0.0016379228327423334,
        -0.00012153646093793213,
        0.0013019612524658442,
        0.0014446027344092727,
        0.002900050487369299,
        0.004990954417735338,
        0.004738222807645798,
        0.002387281274423003,
        0.0038178341928869486,
        0.002843123860657215,
        0.0003141752094961703,
        0.0032667166087776423,
        0.0002220367459813133,
        -0.0015534322010353208,
        -0.029996780678629875,
        0.0031616296619176865,
        0.006069498602300882,
        0.004609604831784964,
        -0.0003584441728889942,
        0.007159028667956591,
        0.00866942573338747,
        0.0015690529253333807,
        0.005544330459088087,
        0.002184084616601467,
        -0.005671112332493067,
        -0.0022640980314463377,
        0.002459173323586583,
        0.007365412078797817,
        -0.0006211958243511617,
        -0.04300913214683533,
        -0.0014268651138991117,
        -0.001990167424082756,
        -0.0005073018255643547,
        0.005568352062255144,
        0.00023491692263633013,
        0.0007750732474960387,
        0.004891678225249052,
        -0.0006002905429340899,
        0.003583749057725072,
        0.002721544122323394,
        0.005394244100898504,
        -0.0009834946831688285,
        0.0024493099190294743,
        0.002459530020132661,
        0.004213050939142704,
        0.0033453323412686586,
        -0.07137241959571838,
        -0.0007122423266991973,
        0.0007157060317695141,
        0.0028922781348228455,
        0.0003328158345539123,
        -0.025233330205082893,
        -0.003598504001274705,
        -0.004397817887365818,
        0.0060980115085840225,
        -0.0014129956252872944,
        -0.000792947132140398,
        0.0033968305215239525,
        -0.0023889276199042797,
        0.0026571103371679783,
        0.00323205953463912,
        0.0029856101609766483,
        0.0009395427769050002,
        -0.00032849126728251576,
        0.007142194546759129,
        0.006245991215109825,
        0.004327641800045967,
        0.0001126431452576071,
        -0.03821685165166855,
        -0.0013477435568347573,
        0.0012494628317654133,
        0.0032999208196997643,
        0.0036206343211233616,
        0.002008848125115037,
        0.0026138657703995705,
        -0.0005713973077945411,
        0.003883492900058627,
        0.003214445896446705,
        0.0023509482853114605,
        0.003694727551192045,
        -0.012330473400652409,
        0.00242005311883986,
        0.001038670539855957,
        0.0017935476498678327,
        0.0031981298234313726,
        0.0013348828069865704,
        -0.002638190984725952,
        0.006733445450663567,
        0.0013602483086287975,
        0.002971372101455927,
        0.0005924816941842437,
        -0.0008080239640548825,
        -0.00012998066085856408,
        0.003543783677741885,
        0.0036322472151368856,
        0.000839391490444541,
        0.0029974293429404497,
        -0.001712306635454297,
        0.00020003379904665053,
        0.0006736036157235503,
        0.004700382240116596,
        -0.0015280168736353517,
        -0.0013480273773893714,
        -0.036371860653162,
        0.004204516764730215,
        0.002419588388875127,
        -0.001600760268047452,
        0.0051451753824949265,
        0.003347675083205104,
        0.0032734491396695375,
        0.004086106084287167,
        0.001635554595850408,
        0.004471811931580305,
        0.001188983442261815,
        0.002055669901892543,
        0.0003142966888844967,
        0.001202662126161158,
        0.000831896613817662,
        0.004952475428581238,
        -0.002254190156236291,
        0.001975332386791706,
        -0.0015078631695359945,
        0.004029812756925821,
        0.0017331080744042993,
        0.004039831459522247,
        0.007821865379810333,
        0.001227111672051251,
        -0.0017475462518632412,
        0.003320069285109639,
        0.0003784939763136208,
        0.0038480046205222607,
        0.00152969837654382,
        0.0008355698664672673,
        0.015559662133455276,
        0.006705138366669416,
        0.00778533099219203,
        0.0026669229846447706,
        0.0012759976089000702,
        0.006183200050145388,
        0.00496740872040391,
        0.00011883876868523657,
        0.010067746974527836,
        0.002060261322185397,
        0.0011031939648091793,
        0.0011843483662232757,
        0.0032014609314501286,
        -0.00016564942779950798,
        -0.0007401680340990424,
        0.010587390512228012,
        0.003919336944818497,
        0.009872754104435444,
        -0.0008931911434046924,
        0.00421416200697422,
        0.00186956487596035,
        0.00202286709100008,
        0.009418033063411713,
        0.008482622914016247,
        0.0054530734196305275,
        0.010017490945756435,
        0.001665016170591116,
        0.003902641125023365,
        0.002582659013569355,
        -0.0007115762564353645,
        0.00954907014966011,
        0.005354718770831823,
        0.0033875061199069023,
        0.008754494599997997,
        0.007945111952722073,
        0.00869673676788807,
        -0.000607795431278646,
        0.005212311167269945,
        0.0036207730881869793,
        0.006166416220366955,
        0.006067315116524696,
        0.0017066702712327242,
        0.008815454319119453,
        0.0025297601241618395,
        0.011374171823263168,
        0.002326688962057233,
        0.0014126267051324248,
        0.0074071516282856464,
        0.009732881560921669,
        0.008495116606354713,
        -0.000351897906512022,
        0.0031296832021325827,
        0.007970689795911312,
        0.013966822065412998,
        -0.0010638562962412834,
        0.006323301699012518,
        0.010406282730400562,
        0.011496308259665966,
        0.0012913616374135017,
        0.0061502112075686455,
        0.009493404999375343,
        0.011153939180076122,
        0.010807652957737446,
        0.002630094066262245,
        0.005296242423355579,
        0.001146528753452003,
        0.0056245154701173306,
        0.013605248183012009,
        0.0062103490345180035,
        0.008782602846622467,
        0.0006180523196235299,
        0.008441489189863205,
        0.009017681702971458,
        0.00280842836946249,
        0.0042178272269666195,
        0.00039425003342330456,
        -0.00034475658321753144,
        -0.0008609078940935433,
        0.0026858411729335785,
        0.012810968793928623,
        0.0058439308777451515,
        0.015279361046850681,
        0.006164010148495436,
        0.00849133636802435,
        0.013494851067662239,
        0.004437595140188932,
        0.0014995845267549157,
        0.000837458239402622,
        0.0018486292101442814,
        0.005519456695765257,
        -0.0012469179928302765,
        0.004459026735275984,
        0.008478553965687752,
        0.01214057207107544,
        0.011163837276399136,
        0.0074874707497656345,
        0.002719113603234291,
        0.007002678234130144,
        0.010419169440865517,
        0.01751868799328804,
        0.002385098487138748,
        0.0019046098459511995,
        0.005316467024385929,
        0.002822502516210079,
        0.007010072469711304,
        -0.0008702623890712857,
        0.0033224616199731827,
        0.014757554046809673,
        0.0014249194646254182,
        0.0025122168008238077,
        0.01696147583425045,
        0.000853843754157424,
        -0.00022199429804459214,
        0.004855926614254713,
        0.0016699163243174553,
        0.010846791788935661,
        0.000274513236945495,
        0.0006024861359037459,
        0.006382260471582413,
        0.0005969655467197299,
        0.004193536005914211,
        -0.0005345101235434413,
        0.0031750043854117393,
        0.00271639134734869,
        0.0018125268397852778,
        0.007384868338704109,
        0.007789079565554857,
        0.018414044752717018,
        0.010740149766206741,
        0.009153267368674278,
        0.0008845136617310345,
        -9.129497630055994e-05,
        0.003805481595918536,
        0.009049509651958942,
        -0.0008290897822007537,
        0.0009263683459721506,
        0.002590338932350278,
        0.002383827231824398,
        0.0059403772465884686,
        0.01245461031794548,
        0.0016437353333458304,
        0.013759087771177292,
        0.017176013439893723,
        0.0071293506771326065,
        0.008237585425376892,
        -0.0013268182519823313,
        -0.0006628918927162886,
        0.0005909277824684978,
        0.002356543205678463,
        0.014988243579864502,
        0.002525897463783622,
        0.0032980837859213352,
        -0.0007325863698497415,
        -0.00047233770601451397,
        0.004218386951833963,
        0.00961945578455925,
        0.002447816776111722,
        0.0037123907823115587,
        0.009939177893102169,
        0.00020110643527004868,
        0.0004769727820530534,
        -0.00046654121251776814,
        0.010380932129919529,
        0.00021281131193973124,
        0.007004636339843273,
        0.009812748059630394,
        0.009100698865950108,
        0.005807661451399326,
        0.0027433973737061024,
        0.0012686431873589754,
        0.010905309580266476,
        0.0030704212840646505,
        0.001597274444065988,
        0.00280969450250268,
        0.0009905751794576645,
        0.0007756455452181399,
        0.007145458832383156,
        0.0026699211448431015,
        0.00013262307038530707,
        0.008137527853250504,
        8.752512803766876e-05,
        0.007383238989859819,
        0.00852767564356327,
        0.01004120521247387,
        0.002572728553786874,
        0.007163927424699068,
        0.009802904911339283,
        0.008938699960708618,
        0.009062746539711952,
        0.00699812825769186,
        0.0012495974078774452,
        0.00104046449996531,
        0.0014679217711091042,
        0.0025969804264605045,
        -0.0010902509093284607,
        0.011088047176599503,
        0.008776090107858181,
        0.001054889289662242,
        0.009108791127800941,
        -0.00042007389129139483,
        0.0035838368348777294,
        0.000879288709256798,
        -0.0006347941234707832,
        0.004865075461566448,
        0.00501018762588501,
        -0.0013283448060974479,
        0.005838579498231411,
        -0.0005338202463462949,
        0.0006500413874164224,
        0.010456632822751999,
        0.00374291162006557,
        0.008207899518311024,
        0.004522464703768492,
        0.0016288893530145288,
        0.0009263073443435133,
        0.0032593028154224157,
        0.007950434461236,
        -5.2735849749296904e-05,
        0.0017893066396936774,
        0.0024583605118095875,
        0.005871026311069727,
        0.005549104884266853,
        0.010689188726246357,
        0.0010306788608431816,
        0.0008923684363253415,
        -0.0017778490437194705,
        0.001851386739872396,
        0.0033642516937106848,
        0.0007263903971761465,
        0.010083924047648907,
        0.004709347151219845,
        0.012087667360901833,
        0.006955595221370459,
        0.007147904019802809,
        0.013810892589390278,
        0.000337535107973963,
        0.005109550431370735,
        0.0019749291241168976,
        0.006578223779797554,
        0.0018851212225854397,
        0.00849479902535677,
        0.0005448253359645605,
        0.005197811406105757,
        0.00115085334982723,
        0.008511311374604702,
        0.0036967515479773283,
        0.014721685089170933,
        0.01590142957866192,
        0.004544779192656279,
        0.00024694565217942,
        0.009298860095441341,
        0.0020010850857943296,
        0.004060977138578892,
        0.004639142192900181,
        0.003998242784291506,
        0.00659241434186697,
        0.0024068087805062532,
        0.0015477505512535572,
        -0.0017849690048024058,
        -0.0017833414021879435,
        0.0023182642180472612,
        0.0015052012167870998,
        -0.00016808119835332036,
        0.002769270446151495,
        0.0007014908478595316,
        1.0830193787114695e-05,
        0.0025763241574168205,
        0.0011646427446976304,
        0.005617329850792885,
        -0.0008828458376228809,
        0.004122267942875624,
        0.003319502342492342,
        0.0055150906555354595,
        0.002725376281887293,
        0.0001427981915185228,
        0.003532676724717021,
        -0.0001525113038951531,
        0.0018817867385223508,
        0.0005253487615846097,
        0.0038398196920752525,
        0.00590934744104743,
        0.0005812678718939424,
        0.002072189236059785,
        -0.002327720168977976,
        0.0019587455317378044,
        0.0043084267526865005,
        0.0012643288355320692,
        -0.005778165999799967,
        0.005914210341870785,
        0.0013841981999576092,
        0.003210871946066618,
        9.105904609896243e-06,
        0.004052237141877413,
        0.003454403718933463,
        0.00466519920155406,
        0.00012795775546692312,
        -0.06688644737005234,
        0.002462380565702915,
        -0.00016102705558296293,
        0.0031345216557383537,
        0.001282852841541171,
        0.0014002026291564107,
        0.0003966270596720278,
        0.002462670672684908,
        0.0014338335022330284,
        0.0034082953352481127,
        -0.00028607415151782334,
        0.004217946901917458,
        0.006475470960140228,
        -0.0010350107913836837,
        0.0002787330886349082,
        0.004791348706930876,
        0.006499613169580698,
        -0.00787077471613884,
        0.004494092892855406,
        0.0029127192683517933,
        0.0023597609251737595,
        0.005963568575680256,
        0.0009752085898071527,
        0.0012030965881422162,
        0.0022732983343303204,
        0.002539090346544981,
        0.005889609456062317,
        0.0012930732918903232,
        0.006117003504186869,
        -0.0020979561377316713,
        0.003195723984390497,
        0.002916715806350112,
        0.0008827729616314173,
        0.003510701237246394,
        0.0012889986392110586,
        -0.00020821086945943534,
        -0.0008937509846873581,
        0.002001522807404399,
        0.007054691202938557,
        3.259496224927716e-05,
        0.00794023834168911,
        0.003785804146900773,
        0.0021177795715630054,
        0.006609411910176277,
        0.003374341642484069,
        -0.0003492270188871771,
        -0.00018327281577512622,
        -0.0014696511207148433,
        0.001975811319425702,
        0.0014922457048669457,
        0.0005489468458108604,
        0.0014531798660755157,
        0.003070967271924019,
        0.0028437902219593525,
        0.0015693159075453877,
        -0.032802123576402664,
        0.00234289956279099,
        0.002264904323965311,
        0.007767379283905029,
        -0.0018292531603947282,
        -0.025624724105000496,
        0.003650082740932703,
        0.0010553784668445587,
        0.003481909865513444,
        -0.002248201984912157,
        -0.03002285398542881,
        0.005536532029509544,
        -9.415012027602643e-05,
        -0.0020338245667517185,
        0.00883443746715784,
        -0.003934511914849281,
        0.0004292373196221888,
        0.00218030228279531,
        -0.0018682527588680387,
        0.001849447493441403,
        0.0006917253485880792,
        -0.00014903479313943535,
        0.0013676142552867532,
        -5.851775495102629e-05,
        0.0017056948272511363,
        0.004555205814540386,
        -0.000890600960701704,
        0.0023673211690038443,
        0.000178726579179056,
        0.005081884562969208,
        0.005000806879252195,
        0.003698620479553938,
        0.005464032758027315,
        0.003212830750271678,
        0.005593808833509684,
        0.005588301457464695,
        0.0006482762983068824,
        0.0042805140838027,
        0.001417607651092112,
        -0.0010379903251305223,
        -0.02786843478679657,
        0.0024977705907076597,
        0.0027563082985579967,
        0.007004253566265106,
        -0.0019598142243921757,
        0.009669307619333267,
        0.007304099388420582,
        0.004184380639344454,
        0.004132981412112713,
        0.001544110244140029,
        -0.005669935140758753,
        -0.0030475466046482325,
        0.0014780550263822079,
        0.0063393739983439445,
        0.0027537094429135323,
        -0.040329527109861374,
        -0.0013031865237280726,
        -0.001063720090314746,
        -0.0010694173397496343,
        0.004041627049446106,
        0.0008977234829217196,
        0.0008016269421204925,
        0.005771312862634659,
        -0.001670035650022328,
        0.0019222585251554847,
        0.004164016805589199,
        0.001939155044965446,
        0.000781798327807337,
        0.0025904837530106306,
        0.00452206889167428,
        0.003312567016109824,
        0.003436773782595992,
        -0.07072743773460388,
        -0.0007689173799008131,
        0.00315103679895401,
        0.0026968312449753284,
        -0.0019310289062559605,
        -0.02551284246146679,
        -0.003027139464393258,
        -0.002668095985427499,
        0.006001539994031191,
        -0.00017834064783528447,
        -0.0006939542363397777,
        0.003217054298147559,
        -0.001414608210325241,
        0.004160619340837002,
        0.00041000815690495074,
        0.004083239007741213,
        -0.0006617838516831398,
        0.0007225403096526861,
        0.004136492498219013,
        0.0027910892385989428,
        0.004841953050345182,
        -6.044995097909123e-05,
        -0.037541311234235764,
        -0.0028472542762756348,
        0.001567857339978218,
        0.0033714298624545336,
        0.0050665754824876785,
        0.0032953722402453423,
        0.0027268605772405863,
        0.0007160504464991391,
        0.0017818447668105364,
        0.0029036691412329674,
        0.0012897609267383814,
        0.0019586430862545967,
        -0.012249559164047241,
        0.001268814317882061,
        0.0014353193109855056,
        0.0029095453210175037,
        0.0029526222497224808,
        -0.00022254216310102493,
        -0.0007573550683446229,
        0.00622521061450243,
        -0.0005567191983573139,
        0.0013344570761546493,
        0.0008711174014024436,
        0.001167005393654108,
        -0.001952946768142283,
        0.003514756914228201,
        0.004549066536128521,
        -0.0008505447185598314,
        0.003627319587394595,
        -0.0013689759653061628,
        0.0020129934418946505,
        0.0008571892394684255,
        0.0048669008538126945,
        -0.0025478056631982327,
        -0.0003515553253237158,
        -0.03581440448760986,
        0.003778349608182907,
        0.0023753794375807047,
        -0.001437496393918991,
        0.006527891382575035,
        0.00203594914637506,
        0.0018386286683380604,
        0.0022507787216454744,
        0.0023774243891239166,
        0.004754361230880022,
        0.002202816540375352,
        3.841006036964245e-05,
        5.7154567912220955e-05,
        0.001125626964494586,
        0.0034878039732575417,
        0.0034550935961306095,
        -0.001798484823666513,
        0.003187000984326005,
        -0.002460526768118143,
        0.005508712958544493,
        -4.185042598692235e-06,
        0.0055722445249557495,
        0.009251534007489681,
        -0.0005745067028328776,
        -0.0019416769500821829,
        0.0042094080708920956,
        0.0014836161863058805,
        0.00324201094917953,
        0.001118624466471374,
        0.0018388454336673021,
        0.012036745436489582,
        0.004729457199573517,
        0.0030960249714553356,
        0.001778982812538743,
        0.00016790353402029723,
        0.0040648700669407845,
        0.0010506284888833761,
        -0.0009784853318706155,
        0.005093955434858799,
        7.802509935572743e-05,
        -0.0022667632438242435,
        0.00158734864089638,
        0.0021446687169373035,
        0.004779230337589979,
        0.0007878384203650057,
        0.0036902381107211113,
        0.0037497347220778465,
        0.004800801165401936,
        0.0020274068228900433,
        0.003570071654394269,
        0.0036643180064857006,
        0.0015830195043236017,
        0.004862082190811634,
        0.004916067700833082,
        0.004733042325824499,
        0.005020126234740019,
        0.0002991669753100723,
        0.00026776461163535714,
        -0.0007837091688998044,
        0.0016689333133399487,
        0.003657854860648513,
        0.001520652207545936,
        -0.007807637564837933,
        0.006561489310115576,
        0.004378894809633493,
        0.006376810371875763,
        -0.0011535785160958767,
        0.00455058179795742,
        0.0035574748180806637,
        0.0037177714984863997,
        0.00047539250226691365,
        -0.06057349219918251,
        0.007075859699398279,
        0.00046526832738891244,
        0.0046103354543447495,
        -0.0003841059806291014,
        -0.0019869261886924505,
        0.0028555355966091156,
        0.0036680642515420914,
        0.0025879177264869213,
        0.001313523855060339,
        0.0017325638327747583,
        0.004707647487521172,
        0.006258012726902962,
        -0.001270448905415833,
        0.0036057974211871624,
        0.0038419002667069435,
        0.005334300920367241,
        -0.007743611931800842,
        0.0027744360268115997,
        0.0039381603710353374,
        0.004371496848762035,
        0.005428799893707037,
        -6.722468242514879e-05,
        0.0040670232847332954,
        -0.0009200139320455492,
        0.0007603292469866574,
        0.007488369010388851,
        0.0013503829250112176,
        0.006286905147135258,
        -0.003529635490849614,
        0.002940190490335226,
        0.004048003349453211,
        -0.0016270801424980164,
        0.0016054209554567933,
        0.003434196813032031,
        -0.0005559358978644013,
        -0.00033779177465476096,
        0.0025380351580679417,
        0.008656943216919899,
        0.0017523735295981169,
        0.010630701668560505,
        0.0033937713596969843,
        0.003628409467637539,
        0.005515717435628176,
        0.003977099433541298,
        0.00039391935570165515,
        -0.00289976061321795,
        -7.868593093007803e-05,
        0.0007582185207866132,
        -0.0002480107650626451,
        -0.0009540956234559417,
        0.004809482488781214,
        0.007064979989081621,
        0.0046996925957500935,
        0.0027063717134296894,
        -0.027427149936556816,
        0.004396513104438782,
        0.00440061092376709,
        0.010513894259929657,
        -0.0012989562237635255,
        -0.024157658219337463,
        0.0050950427539646626,
        0.002021047519519925,
        0.004675405099987984,
        0.0008225841447710991,
        -0.026270803064107895,
        0.008325045928359032,
        -0.0013327611377462745,
        -0.001459142891690135,
        0.010252406820654869,
        -0.00047912634909152985,
        0.00038888747803866863,
        0.00328766368329525,
        -0.00046732131158933043,
        0.004954165779054165,
        -0.00035219237906858325,
        -0.0018052038503810763,
        0.003257394302636385,
        0.0014174371026456356,
        0.0025251219049096107,
        0.0021856906823813915,
        0.0028823185712099075,
        0.0028782461304217577,
        -0.0014132065698504448,
        0.0044916970655322075,
        0.006823763716965914,
        0.0072663030587136745,
        0.006883013062179089,
        0.003998645581305027,
        0.003765690140426159,
        0.002427583560347557,
        -0.00010378124716226012,
        0.00395845714956522,
        -0.0023908731527626514,
        -0.0004528284480329603,
        -0.02712743543088436,
        0.0028289388865232468,
        0.005012307316064835,
        0.005044989287853241,
        -0.002563516376540065,
        0.008435515686869621,
        0.010519701056182384,
        0.003381715388968587,
        0.005196881480515003,
        0.0005745355156250298,
        -0.0020871672313660383,
        -0.0003173585282638669,
        0.001443373621441424,
        0.009392539970576763,
        0.0035882398951798677,
        -0.03486918658018112,
        0.0016657975502312183,
        -0.00012453670206014067,
        -0.0005645962082780898,
        0.005000251345336437,
        0.0026215342804789543,
        0.001527440850622952,
        0.006193534471094608,
        0.0003651518782135099,
        0.001645368873141706,
        0.002378155244514346,
        0.004105045925825834,
        -0.0005924383294768631,
        0.005227610934525728,
        0.0037451134994626045,
        0.00543377036228776,
        0.002226919634267688,
        -0.06390023231506348,
        0.0004161455435678363,
        0.0044169663451612,
        0.0007964229444041848,
        0.0005999351269565523,
        -0.022568657994270325,
        -0.005538053344935179,
        -0.005711769685149193,
        0.007268365006893873,
        -0.0016495420131832361,
        0.0009197203326039016,
        0.0050242324359714985,
        -0.0010799687588587403,
        0.004814106039702892,
        0.0031686422880738974,
        0.005817523691803217,
        -0.00017753020802047104,
        0.0003670973819680512,
        0.005032486282289028,
        0.005322957411408424,
        0.006402486003935337,
        0.00019186567806173116,
        -0.036071233451366425,
        -0.0018611010164022446,
        -4.085080581717193e-05,
        0.002915226388722658,
        0.0024718015920370817,
        0.005205199122428894,
        0.0027066010516136885,
        -0.0016606661956757307,
        0.002125460421666503,
        0.0038522842805832624,
        0.0010283173760399222,
        0.0020700034219771624,
